                  1.27942503138066210333
                 -0.78321697490313701984
                 -0.16859483642450490137
                  0.15508755561153142466
                 -0.85287820613807618919
                 -1.46695623216239301456
                 -3.01789966239246565394
                  1.76006119115764447791
                 -2.88336343707917563961
                 -2.82673506062364321423
                  2.60524743378316525622
                  2.07097706067949571818
                 -2.24867611725272054102
                  2.58962983324917850325
                 -2.52673714716188779761
                 -2.55117607911351251815
                 -2.34427013298036701627
                  2.42362536521040983217
                  2.28418828412588448273
                 -1.97879476488416639057
                 -1.66396819349773106289
                  1.63022242513502413352
                  2.28257569549507044471
                 -1.95174427610169454184
                 -1.74134903850905176093
                  1.81533191464405430082
                 -1.83495945145882322080
                  1.66000595388365157490
                 -1.63363186932926240935
                  1.54883406814248658634
                 -1.03670303977903111026
                 -1.27699963621581735751
                  1.13789608822963494994
                 -1.36636043245260663248
                  1.31805529774768426243
                  1.33695115304319167571
                  1.18872294117314858397
                  0.53807797176670957295
                 -0.76221185508983890777
                 -0.82725575883785551490
                  0.69174946231396505780
                  0.34536765392260182495
                 -0.57687626997969421172
                  1.21692158364296232342
                 -0.57090194628114676600
                  0.61486551838251790603
                  0.79761826893774212532
                  0.72665280911277652098
                 -0.29820580574984850708
                 -0.57264620848439606871
                 -0.71694079212856787198
                  0.27544943896440798881
                 -0.27044851612433840060
                  0.11825047328802966440
                  0.11825643769253416093
                 -0.35963004328420200562
                 -0.22224828742711269514
                 -0.46289097211178725777
                  0.24856755381478823352
                 -0.45887106267386862379
                  0.14297168078520519630
                  0.46828168092974342684
                 -0.74548190045340545495
                 -0.25774954986088083331
                 -0.13783480554071134150
                  1.06648478113269074008
                  0.62230994350585200348
                  0.72390571045485396784
                 -0.76202098424455100290
                 -0.58371813948213147061
                 -0.74473358705413583714
                 -0.67798444724510542603
                  1.00239871607868535897
                 -0.97876506717580180617
                 -1.17095967350312490929
                 -0.56323301261056002431
                  1.31725659347565282609
                  1.16593962703335174425
                 -1.51296706337007647036
                 -1.42521661674031441258
                  1.20793343859558688358
                 -1.70796198166273782704
                  1.87732735842609810284
                  1.83145180044648325790
                 -1.72569710374792162355
                  1.79597755336382625124
                 -1.85835647006062409936
                 -1.91539488369702892712
                 -1.62446878533884397910
                 -2.09875333169068145622
                  2.09060148319938576833
                 -2.22476863950030967487
                 -2.15946990341412314862
                 -2.08066948065662105094
                 -2.09416634459086514752
                  2.52889707056634316373
                 -2.46766701045912162371
                 -2.52854148723589933212
                 -2.71058196318363275878
                  2.67416733241426207712
                  2.76436906395329806685
                  2.49248551006918894757
                 -2.63485694096369771344
                  2.89336088390232948342
                 -2.95505517254374883152
                 -3.01679461748404387222
                  0.78401128275591136507
