                  1.20825985563095561481
                  0.55859018956890194030
                 -0.53187339436612046661
                 -1.14006616675110361570
                 -0.93805121312747408169
                 -0.70696754583161169894
                 -1.02142220347162848704
                 -0.31462759921067268154
                 -0.29402135567205284206
                  0.05670561492326118419
                  0.22643447691226095686
                  0.28426605731327031501
                  0.23419387112935990958
                  0.25763935853612562887
                  0.56125226851641163428
                  0.36650137496357371170
                  0.04274661576208729774
                  0.46300735735798898007
                  0.27191072473959176925
                  1.52825135996739303046
                  0.22946848693359489513
                 -0.38355893192987777773
                 -0.75226681427879382724
                  1.61250241193450416510
                  1.27277196429794536847
                 -1.50932924493780862285
                 -1.61879964990792291069
                 -1.65620716478519303116
                  1.69574948192207286546
                  0.53565933754048367099
                  0.91548366914235002056
                 -1.34071700419426131923
                 -0.53890526497960711261
                  0.15350358529809268737
                  0.87012856887473433165
                 -0.64771509505273028307
                  0.99529949970429698602
                  1.25608485028978589249
                 -0.91722670257398064564
                  0.32178092837671046222
                 -0.72340056636802674284
                  0.34244452907703121225
                  0.68514515641692419479
                  0.80171806118693289545
                  0.65977417204578114873
                  0.13643061207690124204
                  0.87285134231023320250
                  0.16984871462298681277
                  0.23040151286084814553
                  0.35291908638053437475
                  0.04653749172290795599
                 -0.26929785657755600514
                 -0.08606135664692408926
                 -0.01913598315397913724
                  0.18719956519662087069
                 -0.37144849735145391012
                  0.47101757412816841475
                 -0.74869114395523583827
                 -0.71399528566842407340
                  0.47592408656770629483
                 -0.49018113097835969150
                  0.52177412049691895835
                  0.83549572067066346648
                 -1.33786878818654320078
                  0.11587993475847241376
                  0.99933929996368298099
                  0.82623363019997819734
                  1.02061115054876183628
                  1.25702193315747146052
                  1.40266577424692484577
                  1.13446224610660784116
                  1.82694572016623668631
                 -1.80209644603900343007
                  1.57665053111505604200
                 -1.80453288886631368904
                  0.90985007025679642823
