82	2	1
25	50	
1	3426
  0.7655370500000001	  1.0452532900000000	  0.6620232612414499	  0.8563569200000001	  0.2277613404891000	  0.8723180952005000	  0.9159289999999540	  0.4106168725000000	  0.4710253670000000	  0.2072861450000000	  0.2044937882595000	  0.8189873500000000	  0.2787976034444050	  0.2050058949512163	  0.3010164849999992	  0.5684681499999999	  0.3440913650000000	  0.1199147500000000	  0.2778963900000000	  0.1171473000000000	  0.6222012295393000	  0.4035025555000000	  0.4102459523827500	  0.3206217267500000	  0.1838637054987500	  0.2998387148487260	  0.7592015499999832	  0.2017623860000000	  0.2114224838000000	  0.0243354470000000	  0.1922065450000000	  0.1290616000000000	  0.1924441550000000	  0.0645326549770223	  0.2485339950000000	  0.1244315050000000	  0.2173854750000000	  0.0330152265000000	  0.0405290590000000	  0.1244147400000000	  0.2491676500000000	  0.2071247050000000	  0.1089053950000000	  0.1116978400000000	  0.1316380900000000	  0.0342878935000000	  0.2921849000000000	  0.1920736547128450	  0.3846106050000000	  0.3851075100000000	  0.1291347661566150	  0.1927975449816578	  0.1241612899999997	  0.2490057350000000	  0.1248095850000000	  0.0664031879029400	  0.1132262770090600	  0.2662371650000000	  0.1131696499396741	  0.0667190499999937	  0.2563995549999996	  0.2416707450000000	  0.2744903550000000	  0.2280522400000000	  0.1406477500000000	  0.1500346200000000	  0.2226427200000000	  0.1435340400000000	  0.1461722199931711	  0.2925110622834100	  0.1907032430000000	  0.1930212154188500	  0.1326506437100000	  0.0401514634975276	  0.1335168949512529	  0.1567433800000000	  0.1444260049000000	  0.0814192628522150	  0.1264064649999957	  0.3315440349999967	  0.0965570148500000	  0.1017667855550000	 12.1527523649999996
  1.1136367500000000	  1.3036880099999999	  0.6620271387585500	  0.8860869800000000	  0.2277635695109000	  0.8723284047995000	  0.9159290000000460	  0.4725764575000000	  0.5060906430000001	  0.2072861450000000	  0.2044949117405000	  0.8189873500000000	  0.2787984765555950	  0.2050058950487837	  0.3010164850000008	  0.5684681499999999	  0.3440913650000000	  0.1199147500000000	  0.2778963900000000	  0.1171473000000000	  0.6222026704607000	  0.4149001945000000	  0.4102497176172500	  0.3217744932500000	  0.1838647645012500	  0.2998387151512739	  0.7592015500000168	  0.2135074840000000	  0.2167880762000000	  0.0243354470000000	  0.1922065450000000	  0.1290616000000000	  0.1924441550000000	  0.0645326550229777	  0.2485339950000000	  0.1244315050000000	  0.2173854750000000	  0.0330152265000000	  0.0405290590000000	  0.1244147400000000	  0.2491676500000000	  0.2071247050000000	  0.1089053950000000	  0.1116978400000000	  0.1316380900000000	  0.0342878935000000	  0.2921849000000000	  0.1920740852871550	  0.3846106050000000	  0.3851075100000000	  0.1291350938433850	  0.1927975450183422	  0.1241612900000003	  0.2490057350000000	  0.1248095850000000	  0.0664037220970600	  0.1132266829909400	  0.2662371650000000	  0.1131696500603259	  0.0667190500000063	  0.2563995550000004	  0.2416707450000000	  0.2744903550000000	  0.2280522400000000	  0.1406477500000000	  0.1500346200000000	  0.2226427200000000	  0.1435340400000000	  0.1461722200068289	  0.2925115977165900	  0.1938487870000000	  0.1930226145811500	  0.1330925762900000	  0.0401514635024724	  0.1335168950487471	  0.1567433800000000	  0.1444707051000000	  0.0814197671477850	  0.1264064650000043	  0.3315440350000033	  0.0987845651500000	  0.1025395244450000	 12.1248106350000011
                 -0.87925071633551554751
                  0.12030754698491358257
                 -1.13254794121302659882
                 -0.28760917380646461305
                  1.55025787710786566720
                  0.22479444780512963797
                  0.13539009580452274206
                  1.06237078206219526244
                 -0.05106617953646140629
                 -0.34853515758711167694
                  0.77726381707338776383
                 -0.52877122040795709879
                  0.62143993081327086880
                 -0.70861641388907969930
                  0.13755866161705582185
                  0.77111470774163126674
                  0.76192102463043176463
                 -0.61328716808517436121
                 -1.07091333574010305618
                  0.87512999211144004708
                 -0.16912449398996790006
                  0.46150196022333955792
                  0.16779700588339954703
                 -0.45462155363827611021
                  0.29523940478895477346
                 -0.50277469759349191492
                 -0.46547006406441560067
                  0.55722986819571673767
                  0.57797014631477861002
                 -0.92582280322480881019
                  0.43895616375728019332
                  0.16263805441730472268
                 -0.28171661551920978983
                  0.18249917395967724110
                  0.45822415393678239681
                 -0.21192565611175526175
                 -0.23432179795314683757
                  0.53009771560897755993
                  0.09184892151541841632
                 -0.29343516016518511602
                 -0.49076178760788957689
                  0.10612404966626784453
                 -0.51300402457482219276
                  0.14746767065914087591
                  0.20526553716180084841
                 -0.81525841962132683527
                  0.42283939979989232372
                  0.84319229873053558322
                  0.09100602412096574223
                  0.24222083762845428301
                  0.16364141320985528538
                  0.46307352209052526915
                 -0.21031081088297295945
                  0.92063773241074431386
                 -0.36454571299840760057
                 -0.32313558830367800079
                 -0.43747672154111066911
                 -0.16187679764020831974
                  0.41325561622193879296
                  0.16987827573919148105
                  0.20616904541829642050
                 -0.31005561049192587042
                 -0.77359219552574132184
                  0.49387888374128952051
                 -0.80928971747368128042
                 -0.66866918171903921841
                  0.14018322578059416728
                 -0.87710227659587125526
                  0.89493202276264560702
                 -0.35439005365026932104
                 -0.74451703059608298485
                  0.06372958786666035880
                 -0.07929556866576602248
                 -0.28614510987416691412
                  0.74921911044176914274
                  0.76514772913172190982
                  0.41243882649731639090
                 -0.44450626660078618180
                 -0.04635052389190227190
                  0.39220035039944034505
                 -0.47189857177426053347
                 -0.25801896845987581930
                  0.39479826628639053121
                 -1.04741737486560260173
                  1.21580438635638077294
                  0.39759428770197252634
                  0.01982761771381919003
                 -0.85771119845597065812
                 -0.23326284024241444870
                 -0.98500807007581259178
                  1.13404797546582614132
                  0.30606158192685373187
                 -0.27372405299974805759
                 -0.05599910418874846224
                 -0.62088069290508662856
                 -0.69916170600951310643
                  0.33425651902681280392
                 -0.86388568942517751648
                  0.29139922346451951896
                 -0.26074108829969017131
                 -0.37657195532297843554
                  0.14283917463732562214
                 -0.12242922328096965401
                 -0.11367413583239414920
                  0.58176103879982377087
                  0.48762457463544534031
                  0.03019258411311155632
                  0.69279016087432143678
                  0.98900033882501392490
                  0.61959653294134364732
                 -0.99975387662721437732
                  0.62806796922576757503
                  0.04699294977026250569
                 -0.52828582680380320458
                  0.37235095643210108785
                 -0.41379895005385058937
                  0.11437721414536508591
                 -0.22449698427488787300
                  0.17617393835489159049
                 -0.42909491100769364680
                  0.50520420469720783707
                  0.55480525344240794183
                 -0.29094729783111511479
                 -0.05337891056318516680
                 -0.09867264410996406943
                 -0.80641881034947215934
                  0.11754387220153836302
                  0.05392404417198976008
                 -0.24868684289582679292
                 -0.62197179500191912549
                  0.40277050570011746489
                 -0.06894118569744638048
                  0.75212384169943102830
                 -0.41903790949571756430
                 -0.43131052471040115526
                 -0.36490359189467524992
                  0.32595106638384852005
                  0.28427272512169260432
                 -0.38965177545027906980
                  0.08096307779479609834
                  0.46885110333393731352
                  0.67839665871285725895
                 -0.28987330136051453477
                  0.30509727755356930157
                  0.72761710566234361064
                  0.51111184055772673762
                 -0.11488677631975109661
                 -0.29453809126363023063
                 -0.02840535976740930085
                  0.49315376578891828574
                  0.03681639519190247484
                  0.05080227399949944350
                  0.56517983430815277313
                 -0.47922624844286310086
                 -0.37539718493153739765
                 -0.09788334095960611603
                  0.01752240340103366351
                 -0.32866004373567170305
                 -0.25800451352934927751
                  0.16797156329771051331
                 -0.56825559542951942227
                 -0.02738174347855648269
                 -0.09445756180686123993
                  0.42031353594494458292
                 -0.13785363434168126928
                 -0.12639612098379154892
                 -0.42541345970046590130
                 -0.68318236136653287538
                 -0.21569242620493078721
                  0.41359255570108383049
                  0.89977370934777645139
                 -0.20966453895023967613
                 -0.52144594386550324749
                 -0.25381141712247362596
                  0.56013435060755056849
                 -0.21266704174883027667
                 -0.02392230006733608513
                  0.06917520805730409394
                 -0.28567414470979857199
                  0.78690935657363214606
                  0.02422181070938185174
                  0.01245027201233203304
                 -0.43830942875045131313
                  0.19833615496474338302
                 -0.25916536866752915014
                 -0.25530640393616815809
                  0.21039499664942884483
                  0.00872239592937053623
                  0.17786284611757566254
                  0.31013346352236476067
                 -0.21358610339874595230
                  0.48731761277021895529
                  0.39830272609553468710
                  0.19646495424158172405
                 -0.05970368794081730435
                 -0.06401257601099194505
                 -0.33788119031411195659
                  0.36429211523126392436
                 -0.42509227455018155917
                 -0.33617740311183980095
                 -0.10489746965611383700
                 -0.00458445964456272344
                 -0.44527149514122688068
                 -0.04114800301337690619
                  0.26850775874543464372
                 -0.12395815447617596072
                  0.07036475029556742145
                  0.16176775393511541590
                  0.27314285660078568840
                 -0.09787349795109701045
                  0.21719002645825610798
                 -0.35561924125250726769
                 -0.18243690073798687901
                  0.30051991910506448136
                 -0.34635782958912736396
                  0.40676549027956970805
                  0.82548627627055159994
                  0.25849814751573041427
                  0.57199927906388481347
                 -0.21806505304933893052
                  0.80767752024928540777
                 -0.09636827241058638915
                 -0.30540746477840324813
                 -0.39450534852621804704
                  0.15215443915602205882
                 -0.21217925371635676379
                 -0.30409930259359752025
                  0.21543555977799705436
                  0.14688776494585351062
                  0.17424564893041441516
                 -0.51218470459848242093
                 -0.07582321365660101009
                 -0.15285076067396502486
                  0.54175829241496087363
                 -0.21465633057107497139
                 -0.41213450634283604890
                 -0.02073413761021730695
                 -0.11646851178039602237
                 -0.37291715891893911783
                 -0.10917712860749664849
                  0.06722386601769402004
                 -0.20248496537517859939
                  0.37771430298906405465
                 -0.23662363910416470136
                 -0.24842545786310485378
                 -0.05807537508300797402
                  1.20462978514867113944
                 -0.88001366009232018239
                  1.10421519627060971125
                  0.31608121486590101679
                 -0.84560284295323129289
                 -0.52110727590393324249
                 -0.75287008400519384033
                 -1.83022040268919639061
                  0.59922816188746452770
                  1.02835468674153363011
                 -0.06828097106912027481
                  0.40040486065849950625
                  0.19846390269930877515
                 -0.03357810095382409571
                 -0.77431884897453406857
                 -0.44848256999990709915
                 -0.27615292024864013243
                  0.46517860692772000641
                  0.77076926382896471246
                  0.03865095539558240784
                 -0.46832676872484907404
                 -0.77067173784874098974
                 -0.13625982018361357251
                  1.27515066438509427904
                 -0.43549486120084546226
                  0.40701505030646023542
                 -0.22605993109134153718
                  1.00399598917590671121
                 -0.57987553655265555719
                  0.71629239982575476642
                  0.63142238439921938298
                 -0.04582937967601481005
                 -0.41844023709577304881
                  0.46684784979951254869
                 -0.39540633026293636743
                 -0.81444293865266026433
                 -0.10062344786504318073
                 -0.88728398577625766652
                  0.24989565106257924376
                 -0.74158567564734501065
                  1.02651293511980767903
                  0.18279126768778486412
                  0.17933505596136045668
                 -1.05253478020073654164
                  0.76584226222405826778
                  1.16511515699946222036
                  0.13795789503996216951
                 -0.71876349731141631061
                 -0.55807465971562009166
                 -0.71955674945079772797
                 -0.47944106028734057023
                  0.49279203266948390372
                  0.35866447789683847391
                 -0.25246275344959451248
                 -0.52896852831762419811
                 -0.12736683045841723505
                  0.06047008698695138101
                  0.42872248402425139346
                  0.26624252257144292999
                 -0.03178612910681487963
                  1.06509688282370684753
                  0.01265386672026698987
                  0.60085067362520094836
                  0.48289221437648993662
                  0.00486621813612470640
                 -0.55016778930296128536
                 -0.17663067711014071581
                 -0.53359050853166056783
                 -0.18726993845238479319
                 -0.24230839179138771722
                  0.79234446998171381704
                 -0.09977963729430618101
                  0.08916764203609564565
                  0.06404778509918988838
                 -0.14588072734536614017
                  0.04021528239723477782
                 -0.86981446813650376004
                  0.14743123179611444806
                 -0.21444395582741460071
                  0.01714095338285123726
                 -0.07226566139450979476
                  0.30896586108346357769
                  0.02981229331587251577
                 -0.04748857088635238116
                 -0.10938851102898419776
                  0.41516732808586165326
                 -0.64271824153216372544
                 -0.69449843603444350038
                  0.11465303102687814107
                  0.14042440460434657545
                 -0.47222297101035171085
                 -0.03807560594762235406
                  1.10588903036997043827
                  0.19351098693284515817
                 -0.20193928506352862295
                  0.30352167700428667185
                 -0.00984421763217533698
                  1.44852893828091167094
                 -0.35325900352578842867
                 -0.53182427369292806230
                 -0.31391223014628089061
                  0.42150203623100734873
                 -0.10412447980075745235
                  0.32856889830300883837
                  0.46026740731811283114
                  0.14186931289499996045
                 -0.81577763564081695602
                 -0.97706329923126522541
                 -0.42084562684806764432
                  0.81192649020115914560
                  1.42256121731434959088
                 -0.71126285147480894366
                  0.49170030642179568536
                 -0.00939476718987689897
                  0.24560345256108809253
                  0.46601668500648868454
                 -0.30846349405034811930
                 -0.03911846021844134907
                 -0.33566108129329269572
                  0.71403167919610521786
                  0.27656303138887500248
                  0.76629556250472163903
                  0.40244121088577844425
                  0.16408568274274554222
                 -0.23871211386855206715
                  0.39167401478924018798
                  0.12460611660856250882
                 -0.30577132519379457420
                  0.41203494668727064232
                 -0.22684798382288476337
                  0.02958552187170825770
                 -0.19774623595419268951
                 -0.18041878959547247296
                 -0.46947920115248215067
                 -0.23304794632157074807
                 -0.05749763674261348240
                  0.58233567579737466335
                 -0.12137594219898849290
                 -0.27251196821697032391
                  0.16401813399283204919
                 -0.60930243696620045579
                  0.19391682174348051637
                 -0.54110508971090243158
                 -0.35295419816761780529
                 -0.52984865063432506904
                 -0.19141483055844404904
                  0.10504768754682229648
                  0.21862376370648853308
                 -0.17193753386723883980
                 -0.75177442395093885263
                 -0.33061069749542176810
                 -0.39970336091828018166
                 -0.38711739248177712280
                  0.06902950131046152460
                 -0.14318316891027838000
                  0.29814048229106615562
                 -0.36753754165437446666
                 -0.24850733951011513834
                 -0.41348102159900473884
                  0.63652106148781506523
                  0.52481134599144263486
                  0.74950207818147729366
                  0.00137965087666887904
                 -0.44377943913656170416
                  0.04834862665519977509
                  0.02131046179473416319
                 -0.26507562757940861253
                  0.27368071293763851504
                 -0.15781869825661504203
                 -0.19471807410321567700
                 -0.09499566852117893867
                  0.08231588723190960688
                  0.41796764198246477706
                  0.25090945220591276410
                 -0.27589900909194059464
                  0.11922299384184871507
                 -0.26978148085275394097
                  0.21459276198671378699
                 -0.00837058058350728836
                  0.18665023218857687559
                  0.14170670376023680737
                 -0.12025126012457218461
                  0.20353266735950784061
                 -0.04144695644155338421
                  0.00631415243144687385
                  0.04279416526910855001
                  0.05941976530590589028
                  0.20307090859313084441
                  0.14930915418570164799
                  0.17857448351162191758
                  0.32103511653927596647
                  0.12359000893972385549
                  0.04195554445311754088
                  0.00511221984993535071
                  0.05712049998337966755
                  0.08472599955891987888
                  0.43862312754086851818
                 -0.09141439233648100682
                 -0.01726784241283318977
                 -0.00829730469830066396
                  0.00356694560224501099
                 -0.23020032130845441420
                  0.14281943533084076603
                 -0.10088245794152329859
                 -0.06247186297591882098
                  0.27831093173759341441
                  0.04264300954595475618
                 -0.04792707345086515830
                 -0.11661193732376505527
                 -0.06109994304131818182
                  0.40220590241309117641
                 -0.00148656938572134341
                  0.13277829938177082569
                  0.05575915057584382439
                 -0.24422924222413419648
                  0.13675829799744509963
                  0.15155334378495222136
                 -0.24083385377124194582
                 -0.18105200795715867268
                  0.16500125878553539849
                 -0.11151044915535769653
                 -0.21460879990002149076
                 -0.40698396507605433259
                 -0.02679975102600959738
                 -0.11081356871091489757
                 -0.02574004047062761549
                 -0.11309320413723950027
                 -0.09026583484667222157
                  0.15243135923489153916
                  0.30832285718508456451
                  0.19473206403477308357
                 -0.06475301141051618969
                  0.11346548396932022718
                 -0.43682897278868737523
                 -0.21626980118254907071
                 -0.16830237102964376583
                  0.08737757338490888259
                 -0.09875792025855235912
                  0.50555268303708678079
                 -0.38530700378948085083
                  0.01035416929929959887
                  0.32258425436771259731
                 -0.39774974278888791668
                 -0.24602942504279129432
                  0.27924703855272203779
                  0.13205638001881606081
                 -0.45888095146106316902
                 -0.00885037954777139792
                  0.56616871708446570022
                 -0.23286409053060497243
                 -0.83354674229566916299
                 -0.21197279839670324364
                  0.31202447054016391181
                  0.10183761677223231168
                 -0.24517260247039288079
                  0.98211486650072066240
                 -1.04689899597529700870
                  0.08914818637493407416
                 -0.17311724930780394982
                 -0.57481240745102424317
                  0.64560926922782957416
                 -0.19489534239819925054
                  0.79308212258054766597
                 -0.81163640098693012881
                  0.75529833626288211956
                 -0.25365285960371364293
                 -0.16286504665770820677
                 -0.57149675295192325919
                  0.58118227032240232788
                 -0.41760449544737315852
                 -1.51392378067894228799
                 -0.38653865779051577167
                  0.82006951825826113200
                  0.91174459738125568364
                  0.06034967168309939706
                  0.10995625657862639901
                  0.31659280809519885214
                  1.16676505646480133116
                  0.42119389779389077022
                 -0.31685315252035184397
                  0.78329478868541380088
                  0.39393452641349446797
                  0.82034084785934213713
                  0.15740285905806800093
                  0.18301631628869011181
                 -0.23194423052993048961
                 -0.19448481623889626868
                  0.41133874482359683578
                 -0.67510377628234174985
                 -0.32763991438388428978
                  0.13338331403627282090
                 -0.80378504652268045749
                 -0.08303081999479468289
                 -0.44089597672923952487
                 -0.23448184570824612272
                  0.50800624253990700474
                 -0.25480564965875401873
                 -0.78769141197615932803
                 -0.80183461581073811608
                 -0.95507518100299804154
                  0.88472097729547327649
                  0.02133814492940405358
                 -0.91090113180866760789
                 -0.14027764613461460308
                  0.20369428619988572127
                  0.12855638278593256585
                  0.33836327009811378863
                  0.01051364940533422443
                  0.45644092143430992081
                 -0.14815197879485114685
                  0.65254782589975690588
                 -0.25930346657093322760
                  0.86785389170079629828
                  0.11521077918424886544
                 -0.25216870100069421756
                  0.46655627177625547120
                  0.09463784097154336050
                  0.46851567972361590764
                  0.04987150511755582966
                 -0.04143628461791887263
                  0.17808784149885312220
                 -0.00519476678124677731
                  0.65928387104150287801
                 -0.46475599075172085994
                 -1.29545431934227650572
                 -0.17733649382686239582
                 -0.47158500766239830337
                  0.19800994032521426758
                 -0.59184450460106097225
                  0.80008607699467626517
                 -0.29070491689341992902
                  0.05600636102624058366
                 -0.24989870399490782260
                 -0.16331206642471121637
                  0.32026388625240936880
                  0.36229195932541663483
                 -0.09745079257929528671
                  0.03629304298888597069
                  0.19393483029573177490
                 -0.02535759754033042532
                 -0.26944746459919965975
                 -0.05378738733483798967
                  0.17354244499553003744
                  0.11165933535197575255
                 -0.35608785333426140607
                 -0.24894962883271851140
                  0.41329569900096269075
                  0.01872578797511213755
                 -0.52784932824132080320
                  0.41525066691934831020
                  0.36270541678970213972
                 -0.08352206831097699902
                  0.15656768908712001553
                 -0.36603620230514721801
                 -0.30346932050951908044
                  0.20885814132191748982
                 -0.02597457330856749874
                 -0.45274402046987333170
                  0.08454189239440040859
                 -0.24069218225935978817
                 -0.48059941711583425983
                 -0.75747206109315778910
                  0.87921065554733746072
                 -0.65177048890754263333
                  0.17185907310685336058
                 -0.32681652331782445886
                  0.75393432665898707512
                 -0.83346612155124821797
                  0.06086274819683724219
                 -0.57632109159401478937
                  0.02146796486189400666
                 -0.99777241634095259482
                 -0.35518063953682016409
                  1.31904413292557887161
                 -0.46935593817182624798
                  0.32328299245147040786
                 -0.30410219610073402352
                  0.27486376585222549451
                  0.42173931998640451502
                 -0.24191274008060123513
                  0.14310993761822457526
                 -0.00960347488366845511
                  0.52590798204711897146
                 -0.08094665554722860201
                  0.05137155760001027582
                  0.02953171949251003417
                 -0.16483038183150619527
                  1.09899375044547253921
                  0.56865580995432885025
                 -0.02460864210938736030
                  0.25294963767943196009
                  0.43149248835922904277
                  0.00004274648589042184
                  0.57862723235277857547
                 -0.95627768193853068812
                 -0.22428432675747655978
                 -0.08825309801715076896
                 -0.70898037906740363212
                 -0.36039240681744133532
                  0.18846195407461602267
                  0.37826906849225361285
                  0.78814202620606232941
                 -0.35044986556698376479
                 -0.80321078102767029527
                  0.10119312230664284646
                 -0.61167401562733136888
                  0.26005340176472635516
                  0.00352693105054510334
                  0.42445508350800703612
                  0.02219639163083082095
                 -0.43389245497060757728
                  0.25023126972985182404
                 -0.26224920821208186350
                 -0.01407779927205627009
                  0.48603248037219132227
                  0.39402331431100523496
                 -0.45440029248641372606
                  0.07741451538999093163
                  0.27486926173658221551
                  0.04652900799175939406
                  0.74043682732767812649
                  0.08785691000284417962
                 -0.37468161297791369169
                 -0.71714540547550809091
                 -0.22673933599593609767
                  0.71883342439391895162
                  0.22034944661718505743
                 -0.34048925085867959295
                 -0.35143633539952512379
                 -0.15937454428454675415
                 -0.16491691592481017015
                 -0.25252956975817153484
                  0.67653742820582229989
                 -0.19742146089303183598
                 -0.17756876492716427984
                  0.56239059509798317027
                 -0.48537755724270059687
                  0.68079483286724762348
                 -0.03470390304449774005
                 -0.15472258681854003659
                 -0.73690385509331857161
                 -0.48723907655784048920
                  0.32845439025144423928
                 -0.85339629076974998778
                  0.10894686222697334832
                  0.69223789957673087514
                  0.14416555824778001793
                  0.43111614529325492651
                  0.13307524705557918776
                 -0.31434027010483212017
                 -0.26222576538667441426
                 -0.27438843601184326193
                 -0.40870454678683704186
                  0.44738350466363224767
                  0.08346782186083284705
                  0.59430353570265781471
                  0.59008636190666285959
                 -0.05595805751765345337
                  0.41421657598259448152
                  0.05398974492125522412
                  0.23308833332658754345
                 -0.06021599533940519278
                  0.11873156689456705604
                 -0.27279462235333734599
                  0.18316853245943665041
                  0.43616864373190594728
                 -0.17717216216976414134
                  0.11256288182966006639
                  0.27364342796057289364
                  0.48304841295387102029
                 -0.04847352037701299632
                  0.07140815870220160178
                  0.09250193756503180542
                 -0.21713021489067715897
                 -0.20705099064261822672
                 -0.03444262043519673300
                 -0.35891108326593673672
                 -0.71278997888999384713
                 -0.20175030880289065993
                 -0.19291769963438201718
                  0.40758589223874946983
                 -0.50982623029776896750
                 -0.74093753242992899111
                  0.10885514257067753496
                  0.07311825330982288373
                  0.27732078184418934574
                  0.45140755652514735763
                  0.02700211293019204317
                 -0.44364780041712320591
                  0.39995754258747095999
                  0.11770054486517003700
                 -0.16580082024430878307
                 -0.63619854693496669107
                  0.52155322484684818463
                 -0.40370581589855253357
                  0.29048469347874628088
                  0.33658188235416558465
                 -0.33336561848857437784
                 -0.07645301558818010101
                  0.51339551858795728911
                 -0.35754589299054062579
                 -0.36332026011591200820
                  0.74172298469970721069
                  0.48306704740547157240
                  0.46840905731460791284
                 -0.06819651476240030930
                  0.38823051450692552811
                  0.19658268399547584870
                  0.10655254754549602081
                 -0.24591170621233818250
                 -1.10502789037606752309
                  0.84398792102403275006
                  0.18132588097743879141
                 -0.58090328325129447773
                  0.10440755399765273836
                  0.74523216137724423991
                 -0.71896794968224109201
                 -0.52483440159674699110
                 -0.08375735575480873496
                  0.17388449694453669836
                  0.10008225805680168174
                 -0.18779594560909679268
                 -0.25987179863156095738
                 -0.17552878312065439692
                 -0.56349757271092437705
                 -0.64725134465514189142
                 -0.85788551436540194661
                  0.33309575493756743425
                 -0.34451352324447231945
                 -0.03464769547823519369
                 -0.75599978039782089745
                  0.00996591565327168034
                 -0.13409740716364298985
                 -0.27120165350375735613
                  0.19441580393654478431
                  0.77507235729135748326
                  0.14264249771351628082
                 -0.26510955749868780895
                 -0.76824327753170407185
                  0.30538663895112067026
                 -0.30760109748103325877
                  0.69804278118471219106
                  0.50925257050745831311
                 -0.57067795271048638028
                 -0.05031571920001055853
                  0.42113480423303017997
                  0.39766926163917476478
                  0.26193861242824795221
                 -0.35258445447637615233
                  0.41118691152911818198
                  0.47663521808204351027
                  0.04727926462664201746
                  0.46301925881267164131
                  0.05478900495673771215
                  0.04007192908351228655
                 -0.11993954217678177987
                 -0.56600240489964070978
                  0.44484934065798176217
                  0.29891867551781298173
                  0.07609406657654499417
                  0.78232770556816244589
                  0.26789187943351949750
                 -0.35086298290896383856
                  0.24764756967326997938
                 -0.55602266437386860254
                 -0.15002209630790022676
                 -0.01681910233943572849
                 -0.42045319873750225392
                 -0.05056089963458213626
                  0.22892146143193670138
                  0.27428609875921439176
                  0.13279017281457114463
                 -0.58721307492558727503
                 -0.02386711342126743990
                 -0.70992572045218671484
                 -0.23955773723290746391
                  0.04195442218441097770
                 -0.04744340070405560217
                  0.24130156214264392167
                  0.19558116568476019426
                 -0.25503423682645193216
                 -0.10887141401735533908
                  0.22320136507282598015
                  0.30251318411868100000
                  0.34651435567953819961
                  0.27400952687912594197
                  0.05499132482274505379
                  0.36128892456446659587
                  0.15816074062200152772
                  0.15407098915847275422
                  0.12363267367392061225
                 -0.04882570201106863766
                  0.14403404030971606042
                  0.02626147724850600579
                  0.01783375567190374766
                 -0.10283288154911071621
                  0.17158875362000761133
                 -0.44008016013519402065
                 -0.12876128433850225763
                  0.02176990455132730637
                  0.09306253324538266147
                  0.01888936192992648685
                 -0.12805619895430900290
                 -0.32305725010416858067
                 -0.10569115263925081549
                  0.31440502326227964813
                 -0.00918681092731553177
                 -0.25566328890922568329
                 -0.07678189327872066150
                 -0.17708492175048506923
                  0.14713207594293167824
                  0.27547497900089490397
                 -0.57466927111477017487
                  0.19667707693165506488
                  0.15851250055899929192
                  0.31582342872694618707
                  0.13044940812977692812
                  0.03148169285148366692
                  0.04440256237370302644
                 -0.57841777801962346306
                  0.23081537070490817931
                 -0.03026571505049397565
                  0.39988049134386927097
                  0.15529257828231443628
                 -0.18734063269934295159
                  0.15839620285477373773
                  0.02996067512972169777
                  0.11756989713028731526
                 -0.27600361539614315376
                 -0.07454940079635946626
                  0.06856683458998173719
                  0.36137779322902258139
                 -0.24756214828821443419
                 -0.15630330709249468102
                  0.17064601483952701599
                 -0.14636234153031330019
                 -0.09735916866186011820
                 -0.39974628983065269017
                  0.24801545923784512615
                  0.35799661795093529193
                  0.12422658176261110186
                 -0.00504440107336105292
                  0.28768776829077008506
                  0.22421422844754707038
                  0.44529144592667635472
                 -0.30288749126145009249
                 -0.22344322857307330477
                 -0.26461520553838169256
                 -0.04427558882478589697
                 -0.13643982740401824905
                 -0.26400252998383050285
                 -0.27755934300280532545
                  0.50578556786660056055
                 -0.01873769456525405802
                  0.05236967246932038023
                  0.21248605957967597879
                 -0.46713013707106659789
                 -0.07060029837929802932
                 -0.75466677876506960132
                  0.38635265341917046644
                 -0.17561817865220161194
                 -0.15177953702586832740
                 -0.11150715428478794045
                  0.74286380115938477342
                  0.78422894390662389874
                 -0.54658167111954025774
                  0.09923954498471322661
                  0.63233237170226996859
                  0.14992187190791603224
                 -0.82693139858583153412
                  0.27804887947869727505
                  0.32444999629106729966
                 -0.05752117812758988924
                  0.28642293722454392757
                  0.40117689412881646360
                 -0.64252231484382271720
                 -0.54002058364169114313
                  0.19035612457932862829
                  0.42343177718088781392
                 -0.57535627716574966328
                  0.59164636180575436164
                  0.25397260713882013894
                  0.02827826893132609834
                  0.04335769307706346248
                 -0.26628618570309642299
                 -0.13378531305884830416
                  0.13750714967790467202
                 -0.17259420494609326036
                 -0.03828497328342639339
                  0.11465661345869290755
                  0.43177326571908508646
                  0.13398797556566480194
                 -0.12604684316813000167
                 -0.20623175152217929074
                  0.49476753313979732196
                  0.14424106665730659915
                  0.12218564145343938088
                  0.42275914126204283683
                  0.07786204241271366122
                  0.20548118845450383252
                  0.27639735083192390475
                 -1.04828241832593715976
                 -0.09744040145660359808
                  0.26698305441973391172
                 -0.37995534857010376806
                  0.89177614601648802495
                 -0.21304346617046218682
                  0.29911946247917103880
                 -0.02333407388691929180
                 -0.22008044934482934307
                 -0.07641546514214182795
                 -0.67283845429649602465
                  0.49515062099828505149
                 -0.36581766953146332977
                 -0.16812856242529500284
                  0.12525234895944420410
                 -0.39926256315461816637
                 -0.42013823013456758071
                  0.33079666092619325335
                  0.39584689789783139569
                 -0.14136021447706312304
                 -1.06374649454041581009
                 -0.25209573422556258437
                  0.55145365282992930833
                 -0.04506169784818725432
                 -0.60707097073127902487
                  0.04789666050142711573
                 -0.39170272722633886486
                  0.24266516247277350460
                 -0.41014307278889783337
                  0.18335961778332657279
                  0.53076409751608166765
                  0.02780430483304983241
                 -0.00920299842350667807
                 -0.05948017641465003225
                 -0.29475851527787022555
                  0.24182002646603059648
                  0.19106534847007144995
                 -0.66036061568995441107
                  0.45975990664557919718
                 -0.43303753736934080809
                 -0.90608436978061845934
                  0.40645655345781472878
                  0.00019232270157653079
                  0.35810173776747605823
                  0.79115127933548978767
                 -0.06249730763165438352
                 -0.33877820222527771366
                 -0.47238673449483808975
                 -0.31420122838927433406
                  0.45809287838221735001
                  0.16811408842268218966
                 -0.40356009861461017429
                  0.37780860544658223521
                 -0.24537249198061147903
                 -1.15135639751983975820
                  0.29666551392320278380
                  0.58380218736008171465
                  0.33322807431190831773
                  0.46341878152495025178
                  0.10617598701804709105
                 -0.15837881945323398214
                  0.63176518846915274974
                 -0.02685863375568316169
                  0.33902444284887151005
                 -0.47874278961253163844
                 -0.09645416118898404723
                 -0.71415315123070932657
                 -0.12308559452509371113
                  0.28495007572671693374
                  0.36219665572211312554
                 -0.31339954509249179360
                 -0.34112205943894180482
                  0.95029746741392484566
                  0.25792726755331157884
                 -0.54543107077466357335
                  0.40900431219974153763
                 -0.53357668934774393765
                  0.34711503678247007665
                  0.01371306599207129835
                 -0.46383805723265525423
                 -1.23024282823384867314
                  0.53764898060891441745
                  0.61775614150969371252
                 -0.07572714170678405965
                 -0.18843587330033734206
                 -0.12700962176896135603
                  0.31166498380559121140
                  0.52169709801012753569
                 -0.70113708360984483559
                  0.57538544434520488835
                  0.05114602240679621409
                 -1.13207975941436478351
                  0.98047796882557325393
                 -0.57794398760660192771
                  0.20201983458923741810
                 -0.01187969923324242588
                 -0.78499396662176545991
                  0.28687596808064669274
                  0.03562595389820512326
                  0.29318937269898831532
                  0.31927305412162571008
                 -0.26535396075137740457
                 -0.19081745502563024486
                 -0.22930469615089396629
                 -0.10825243409542653628
                  0.94757663266004921176
                 -0.43362588738681184797
                  0.21639910978498305694
                  0.02500422074020509228
                 -0.16129100186380887494
                 -0.66710415428704428198
                  0.84651102765621610846
                  0.41041427035208721819
                 -0.30540014106691792950
                  0.31401355558398474921
                 -0.10560785963299651469
                 -0.46098394415116877854
                  0.00186067593802816946
                  0.09347550756751850376
                 -0.44392010418728938825
                 -0.41066000717866524283
                 -0.94126857731801938378
                  0.27228088075070533414
                  1.78319750704017376819
                 -0.52832537790228173424
                  0.25202740517064659009
                  0.81348969035584617338
                 -0.22986597699825814245
                 -1.54844534901339758726
                  2.05599772642801115197
                 -0.81827909644834107006
                  0.69981469436704279996
                 -0.55179259492325183345
                  1.69693395394157375833
                  0.10008107665364343597
                  0.44142200766516687116
                 -0.29982025444863741326
                 -1.34151314736573712416
                 -0.53216248227744711308
                  0.00407705757088364269
                  0.30012968423024716236
                  0.09511536058047567743
                  0.26372157067083196180
                 -0.18867466667791180090
                  0.57494854351429958150
                 -0.00078533227403543553
                  0.91893074648448125341
                  0.37656765011195314496
                 -0.05798507210617749597
                 -0.60585324061273715390
                  0.56134920669933263682
                 -1.00113978572282924517
                 -0.14324283311637428517
                  0.31014689491179192604
                 -0.17511955843961568569
                  0.00345890377030793998
                  0.09276014927118964026
                 -1.07807659188651849824
                  0.13325940150212181590
                 -1.14229137641874323172
                  0.57520059355738473172
                  0.52754126679360691110
                 -0.13435974198267816582
                  0.31107481439301681858
                 -0.69291619424546424533
                 -1.07082861113940119857
                  1.43514631880272158782
                 -0.52780813198299614264
                  0.11839479995057906880
                  0.16812584495953006303
                  0.46215927773714493565
                  0.16766407048339221353
                  0.04217989905224105163
                  0.30456238289115178386
                  0.77746998071179440615
                 -0.84171973296860924663
                 -0.76204894796336297702
                 -0.78156788407861721435
                  0.50764390232777822920
                 -0.38795603509462550651
                 -0.38524060489414202468
                 -0.27171521152215261097
                 -0.24251176687339345839
                 -0.36807366736496649473
                 -0.27398972464634097079
                 -0.67063620870547846486
                 -0.28761880002148082491
                  0.63985329526295231517
                  0.89321692785708706186
                 -0.33993186183499735087
                  0.56351443526673394846
                 -0.44778287668468941263
                  0.08551521202329066818
                  0.78154415349481343167
                  0.26647720385410389454
                  0.38901116089376158724
                 -0.31287040023771800490
                  0.46327311202825177672
                  0.27404012199540056516
                 -0.70646007755741246914
                 -0.10643255357976851017
                  0.27483232392366513386
                 -0.03967217793890254890
                  0.01944107183242433853
                 -0.22338966959999020934
                 -0.01872117060168953032
                  0.03425445432353465408
                 -0.36313445316401332663
                 -0.40536934008012903696
                  0.35971727387981955459
                 -0.30658142476787936248
                 -0.11281582995206144993
                 -0.40475564846079181702
                 -0.10447039663552533384
                 -0.74067870461330664877
                 -0.43969815433855830022
                 -0.06097702138928895454
                 -0.09828560075044430466
                  0.08963623414906568554
                 -0.00882730082125877946
                  0.00734764379326533629
                  0.14248702458489861944
                  0.21129382193096363229
                  0.12736637566644876118
                  0.12980218985871327941
                  0.00883745633000901365
                  0.49340818481913917282
                  0.25162635621726453516
                  0.60476103102622880137
                 -0.13827281086340292848
                  0.36809247330244915242
                 -0.06244399864180163323
                  0.28275817460059293751
                 -0.07904920595043964104
                 -0.31545349634348834877
                  0.13230421391835842093
                 -1.07550889700422813711
                 -0.14228411380525735064
                  0.48158669799795034150
                 -0.14216595304853082982
                  0.31904468335105257148
                  0.31286190925669682406
                 -0.20028378966150972573
                  0.11449593124744268657
                  0.51269136901620415703
                 -0.95321627519469021017
                  0.08992615209467276494
                  0.72258245860821279649
                  0.29324137797701005370
                 -0.02658225658525998139
                  0.10572069392609560745
                  0.61962982930856147501
                  0.70880748766556977980
                 -0.04487900764005333526
                 -0.02517732140326630133
                  0.22621100408971500650
                 -0.59536095064396277188
                  0.63542196510590409630
                 -0.57060113696346981271
                 -0.07642168026652032542
                 -0.28637588469398322921
                  0.21074881729057859392
                  0.57536970752464866585
                  0.04859686474908236214
                  0.16620307150217961123
                  0.79176619275139592524
                  0.43156316824523677234
                 -0.28557150561224953211
                 -0.08666080752690501210
                 -0.17613016146356830216
                 -0.04886484903341697938
                 -0.61769281198872849625
                  0.73347764284138683433
                  0.34789505623614164209
                 -0.02883742500832149266
                 -1.29060278352279000913
                 -0.64277358516089755369
                 -0.17691753697384218769
                 -0.27143280531343305650
                  0.65593317434813680489
                 -0.20941019449493339377
                 -0.19496617594212836688
                  0.09841620835815166612
                 -0.19285380032242252502
                  0.33951785516312910085
                 -0.70733520497687774053
                  0.15852646273341172711
                  1.73957974620248112529
                  0.46318429471238536932
                 -0.38340967017066479583
                  0.27235703685495321613
                  0.04860514546546026299
                  0.21761745521285236205
                 -0.49636391620668574021
                 -0.45773818822070549972
                  0.66851393462925967626
                  0.60044172549228569391
                  0.69478719769597829803
                 -0.21455410680817607605
                 -0.15417664076646755977
                 -0.97370963719574965545
                 -0.40745878100204074856
                  0.00807193120444692908
                 -0.20980231795134207662
                 -0.16561101056429747280
                  0.29751045221166727561
                  0.53672697304307870336
                  0.60037543211564914358
                 -0.09374753182095438286
                  0.23771953617624239086
                 -0.01511616279957799479
                 -0.44645587880439580042
                  0.12977569093201696271
                  0.12290749181234335297
                 -0.55084125292953112218
                 -0.70530051402901905444
                  1.52708841798274752577
                 -0.03719842688834443939
                 -0.57396930232904619373
                 -0.72562443771299822703
                 -0.70726073137604184016
                  0.31041505226939836160
                  0.14377637980298391129
                 -0.54700170628979249976
                  0.01794058914918597245
                 -0.60629621901637720249
                 -0.68657357821899756001
                 -0.97689348255128505283
                 -0.35042074527246519500
                 -0.02517199493332910806
                 -1.00117620273860130631
                  0.11039391651152268004
                 -0.68019265839193643330
                  0.35835449520004125645
                  1.09723686638151884942
                  0.47991738648065418449
                  0.33262293996621611347
                  0.11161899212312414997
                  0.22239832879453722003
                  1.54617974650764478106
                 -0.41340947179031140024
                  0.10714546905749393335
                  0.47140163764473919095
                  0.53940264082647171318
                  0.22880556443315136494
                  0.60919529857265553030
                  0.16260254683651706453
                  0.11795256900836852132
                 -0.47612890701618010292
                  0.01100219313723279149
                 -0.52727309015286827343
                 -0.29808813871781442151
                  0.19495854806182519314
                 -0.13850526950849328944
                  0.29758548844837545699
                 -0.59951867843100681288
                 -0.89139358124382184201
                  0.20854535625815459610
                  0.65724117367052359295
                 -0.24835886369160281584
                  0.30833886404857313579
                  0.15748582838724212163
                 -0.37958010783629120288
                 -0.27754117215577950306
                  0.10738458209549940625
                 -0.43262569639390058285
                 -0.16227203135009629631
                  0.17294013108944325530
                  0.14715904518813793800
                 -0.04614471719842793557
                  0.10512319757769281181
                  0.03712316144441756699
                 -0.14878181812917215532
                 -0.81545390158961661431
                  0.00295652986075883081
                  0.07270663755919631877
                 -0.51921672495414949999
                 -0.76110099847649970162
                  0.84898399152990489114
                  0.30493749428312555416
                  0.44759448011737046347
                  0.13923189189301127255
                 -0.01916352115798381286
                  0.18648311196958203273
                  0.27305896398633877631
                 -0.15555496557553347148
                  0.54000103540650379319
                  0.39331004850777301352
                  0.15490456134123237186
                  0.09573077323916424908
                 -0.87796820093719740719
                 -0.03424377811346613482
                  0.51946467636898607800
                  0.47013123846520871174
                  0.58449380752254354032
                 -0.75089439836537841266
                 -0.20124139957345618668
                  0.24040965805991262871
                 -0.80580985321464049242
                  0.74006202197968817824
                 -0.07516230756995941065
                 -0.05340047087044672014
                 -0.49635240204349867499
                 -0.27008642278767958089
                  0.13312953468190619200
                  0.07581641141043723997
                 -0.14566450289821541997
                  0.13531356586905299300
                  0.12081711575788429969
                 -0.04824814211541236103
                  0.02466866568486147590
                 -0.33306258136851901730
                  0.41147702664709767673
                  0.18458363417236781090
                  0.24134096775739388718
                  0.39629876248862444532
                  0.07868460056561352167
                 -0.80305757355413565080
                  0.43457424350898654630
                 -0.41947625715625097564
                 -0.16158620676327628551
                  0.00590860676894746674
                 -0.02356277965339085081
                  0.60381459584324148615
                  0.33685104602880605595
                  0.59015300437555662239
                 -0.51537062500287778022
                 -0.05584577950604141527
                 -0.52942075793669185479
                  0.00206935010323421867
                  0.12943198931416030617
                  0.71882337884169977826
                  0.10877495834793686480
                  0.34675207042931716073
                  0.37994783461080361420
                 -0.35606241747648548213
                 -0.52441802328567665992
                  0.36466839827288177744
                  0.18301246514005534149
                 -0.40138191209466939080
                  0.14923026472260492170
                 -0.36675881121613473912
                 -0.21188586440527873433
                 -0.05359240749907896034
                 -0.50994494733735529213
                 -0.32951204480395751562
                  0.12470708015534112678
                  0.43507706742121932120
                 -0.41332810936900693521
                 -0.09138640849945765809
                 -0.60110171672443135638
                 -0.13156193714834021891
                  0.89459440059937500589
                  0.54139106322129082471
                  0.17088225849143801049
                 -0.28095304575755447596
                 -0.52857254633094663543
                 -0.44174726556042043235
                  0.42607608556877996087
                  0.18335271970314739876
                  0.05040775928030886283
                 -0.08242531643170984690
                  0.83725907406150290591
                  0.54272821349972644178
                  0.64043761265362419977
                 -0.26431015428414333934
                 -0.41984493569359077059
                  0.00126928424789822828
                 -0.42388850943396083615
                  0.07605770851463054816
                 -0.45624547443160895499
                 -0.81169023984249344394
                 -0.14929598124900525513
                 -0.30804720458642342873
                 -0.19004715169562663712
                 -0.11248008704559440962
                  0.95468135941830145619
                 -0.27364974579856299330
                 -0.45626216265952879159
                 -0.78680048385342937767
                  0.91480756175873356728
                  0.38259866930379055061
                  0.01141167419682269542
                  0.04837842972463959196
                  0.43741572515053539494
                 -0.18824811705235636183
                 -0.28850328266833646929
                 -0.19197233533654331494
                 -0.69985379142883963333
                  0.22234144108344061630
                 -0.11843430560455199541
                  0.24762931006790528388
                 -0.01765048010270396303
                 -0.13702175334062643985
                 -0.12561677799287537804
                  0.23047665524470015153
                  0.62735603883965807004
                 -0.15278480449717768419
                  0.94186121272119438519
                  0.23343768769044212497
                 -0.46230753030166510387
                  0.39054706694340690643
                 -0.00958412357026787801
                  0.31783483508347026847
                 -0.95198131842219968490
                 -0.66933606099673892409
                  0.05675928291543664433
                  0.11372657911489851557
                  0.06265942164666350733
                 -0.16790303561501454532
                 -0.23472501949954938105
                 -0.83791749358568501371
                 -0.20014238151989086067
                  0.19721693515764682214
                  0.14490993609486135796
                  0.78772089198230998974
                  0.41683028175228442613
                  0.52272204591268300877
                 -0.55134761203974880228
                  0.29354057810285122398
                  0.56468021013205116354
                 -0.10459321449739859833
                  0.26869816918738592681
                  0.21378904287090108594
                  0.18468865650072055495
                 -0.15540711530921022532
                  0.65939038560827223368
                 -0.53895269078739371782
                 -0.09056716530872380155
                 -0.19873266610220888251
                  0.50576125697679252813
                  0.89080326645173835143
                  0.06817829169232836328
                 -0.11734498086545122608
                 -0.05446933760117607382
                  0.39055871453148444106
                  0.38653015363053511155
                 -0.61577190639941115080
                  0.24753044448313241133
                 -0.71155489123431425735
                 -0.06429523328359415535
                  0.28581786029955802420
                 -0.79853325541335928861
                 -0.33584625262692091585
                  0.05191581169996444672
                 -0.06923653474077075265
                 -0.55583636467686470262
                 -0.47758868084478794946
                  0.06893857975896079682
                  0.30165918292066185025
                  0.29730029339995084348
                  0.46941277553071963924
                  0.00036087841462097820
                 -0.48358586933255659490
                  0.07626768232616043530
                  0.34363496895171707912
                 -0.69275565301334862678
                  0.07731676160224044969
                  0.89715549219532808589
                  0.78466962384754346260
                  0.67644987291449309996
                  0.35118345438102172018
                 -0.53218315193525167484
                 -0.28362979752655603782
                  0.31135558381411893025
                  0.49486408251827829208
                  0.36716896769033313674
                  0.12330722304854499494
                 -0.52266807129357151229
                  0.78894910965850895135
                  0.28680568864212013791
                 -0.11699968922292292017
                 -0.15324408142039092073
                 -0.28483596491589280308
                  0.43129678761139889076
                  0.06752132694135597191
                 -0.82805505163359416354
                 -0.70089732206756982791
                 -0.41791413312898334498
                  0.40538037788177599952
                  0.50098005914995158427
                  0.07122083399785154867
                 -0.00244720995295709658
                 -0.99518210996097011822
                 -0.36927203017682436181
                 -0.55712106438810826692
                 -0.17693361899976547957
                  0.07817117996584516115
                 -0.38394349039265235346
                  0.68835208222965249547
                 -0.28699734298268764210
                 -0.30816854858898673486
                 -0.22556860831709099613
                  0.96565338435516345772
                  0.38110284124293503094
                  0.15371101708897291771
                 -0.53394362446839327419
                 -0.14209947437576073148
                 -0.34272924684749983548
                  0.53062215631135578597
                 -0.25377761926679587301
                 -0.50193187402348637960
                  0.20126736142650750172
                  0.11340969506148051993
                 -0.48051369808861843502
                  0.37612055473218636292
                  0.29819216041836937858
                  0.49015856352072006974
                  0.04954609668197228894
                  0.50244160274118199183
                 -0.22805291066465666061
                  0.09068954869013909348
                  0.23215428015601996536
                 -0.07266892174217123856
                 -0.11226430753988625444
                  0.62211252935709893119
                 -0.13940459351626943718
                 -0.56064991450724399602
                 -0.19807246971166547755
                  0.61489716595453625114
                 -0.06939435205321936584
                  0.32019155597283777137
                 -0.48766615917093852905
                  0.58967861272367338987
                 -0.60062063481053595826
                 -0.15955000331747304365
                 -0.08299005950959226219
                 -0.12471086927997455940
                 -0.39507541709913313044
                 -0.86770131062949606982
                 -0.73811211183892255772
                 -0.27777907359444842239
                  0.09048242855760327275
                  0.06366270426197226384
                  0.69600247774335388673
                  0.90291827929170997979
                  0.21021413136249750275
                  0.14530931875345076687
                  0.03548500674667934285
                  0.69994800563114589753
                  0.46947767035425086446
                 -0.36332621594772240847
                  0.81323525147000963464
                 -0.24148755891114176420
                  0.15205990317865267225
                  0.57585276222128756185
                 -0.23197120079623140265
                  0.52254686316779597188
                 -0.35616784759494501955
                 -0.17013873638520293774
                  0.34645011717363444204
                 -0.09401694317212358487
                 -0.08897734664104373081
                  0.04140042716815623552
                  0.18286089400706670438
                 -0.65193383150195372000
                 -0.70181287040192197324
                 -0.53073347998159514649
                  0.02302007979049213587
                  0.28610354804525817141
                 -0.14171827035602466149
                  0.42704743479372470061
                 -0.54540619503492226983
                 -0.06991526541177643661
                 -0.29978520059777874485
                 -0.48149318995538253896
                 -0.08491654057955397294
                  0.17206952556659960152
                 -0.11576799092847071815
                  0.45116263633706588099
                  0.86823211404926814438
                 -0.28695648949278401707
                  0.56277013480357318542
                 -0.13202817535037264518
                  0.50849440301392467845
                 -0.24956201201719879768
                  0.16113389396740898651
                 -0.13752892278448158869
                 -0.21908268331471100754
                  0.40077498249805498798
                  0.26766713080206244735
                  0.11769531765501983767
                 -0.03127880487273647370
                 -0.09657961243847311417
                  0.23429509120186775561
                 -0.01260778851225472993
                  0.30051247342052928024
                 -0.26429722982207776161
                 -0.03407791105680410548
                 -0.02075601166083585955
                  0.35001651951434809007
                 -0.18126503966119111855
                 -0.91246471642998616680
                  0.60964258191156284195
                  0.41069408674294122230
                  0.26268495521757490030
                 -0.59594776300524265888
                 -0.88628947243166111836
                  0.54671667562102643778
                  0.33459082545087964755
                 -0.08514745897255318607
                 -0.27984652852827796021
                  0.01629870971132756780
                 -0.23016470920443418691
                  0.02108516971173128238
                 -0.99661773614401916177
                 -0.69160206983100058764
                 -0.38310818780968236563
                  0.16320978721206613749
                  0.05810992092716142643
                  0.13726548146718886567
                 -0.57433060094733001666
                  0.53911161151769282363
                  0.18682558084511846630
                 -0.11624166247596774693
                  0.44614318714084350015
                  0.12371524491041155369
                 -0.16246121390619894242
                 -0.39061209111827777107
                  0.39425009676451805429
                 -1.04844935788403770260
                 -0.04168157562410736150
                 -0.70420438684544162111
                 -0.28840628384396443940
                  0.50029951635884106764
                  0.69956529266532008204
                 -0.91384738399557152722
                  0.50304558394459175652
                  0.40369801335259059005
                  0.20389714243239501212
                  0.30449895304738461288
                  0.15982850568666981395
                  0.29724032138126904590
                  0.30356522275340025452
                  0.26257478983515053494
                  0.07415854833251238343
                  0.48623181858238639919
                 -0.06303574236328191027
                  0.78499255952519697566
                  0.76297988961459262125
                  0.77689552865950151084
                  0.00742139401177851349
                  0.27796693270087441396
                 -0.08619579276978989180
                  0.12338612579465271790
                 -0.42811778032672032079
                 -0.01456815072179802432
                  0.11032137354968236942
                 -0.13886061570658098097
                 -1.03466010595195689881
                  0.24307033384670204135
                  0.49796304890667819620
                  0.12123049396357914176
                 -0.22055739329641274593
                 -0.52190416895074087655
                 -0.13960763955489774446
                 -0.17836354823948738502
                  0.21567352339888992696
                  0.20640854144954523530
                 -0.44187522142133967007
                 -0.55163327482667035007
                 -0.30354546425432599177
                 -0.50616788384318167626
                  0.01457781027680848766
                  0.07254858560474010398
                 -0.34565296142131884949
                  0.53117755670138844248
                 -0.55836667118034177815
                 -0.22311392555352627109
                  0.55413421133621076908
                  0.33112377172284246374
                  0.30757161316570191811
                  0.14666535064318800274
                  0.64107530100357013048
                 -0.31147255589514050156
                  0.18213519477075373887
                 -0.10867645031069694816
                 -0.11856820780842394769
                 -0.02172530302593141810
                  0.81208062720921492250
                 -0.32182273858673632327
                  0.33857152593768602422
                  0.07478986004433724188
                 -0.02305317402706368382
                 -0.68715594328119600220
                  1.49604269121503685724
                 -0.58799919047676552086
                 -0.02446627048193436571
                  0.23263218111479214145
                  0.18123542717828175497
                  0.52249875231726550240
                 -0.36920898594899548284
                 -0.09181754919928869496
                 -0.32399782335992233229
                 -0.52772419025347128141
                  0.57808702103769460390
                 -0.34868777980392140492
                  1.01295731287507084772
                  0.26900040104653655249
                  0.28661330258037481800
                 -0.51980441394896759189
                  0.18116582396354932727
                 -0.36328996963769916162
                 -0.29114799349884201707
                 -0.00950029384374878431
                 -0.26363019311543278711
                 -0.09961148940722029665
                 -0.43115279544913281962
                 -0.59960770659111772840
                 -0.07654951440894362802
                 -0.57521693421302688698
                 -0.48872028128702660332
                 -0.54227122279444361919
                  0.16259331787299091676
                 -0.20568776133209307200
                  0.03278234800256017711
                 -0.63343144442108290093
                 -0.21639233638005739291
                  0.31255816490186072443
                 -0.22450169856583329642
                  0.21916317477233232536
                 -0.41871898779038430050
                  0.34276304135731927580
                  0.06577309388196439510
                 -0.21118561710810651588
                 -0.30629753302672846349
                  0.08349742108414424935
                  0.88355213504592355900
                  0.30796754123932273961
                 -0.09714519541683774850
                  1.04818322101178718064
                 -0.28441643933554550117
                 -0.12161243545802676025
                  0.30383468872748242706
                  0.38996533866206423147
                 -0.39339479251149345185
                  1.06531544543694245419
                 -0.74039561787154684058
                 -0.01685560184705094458
                  0.75903976367746639475
                  0.34740531122892992499
                 -0.04241001341060722518
                  0.59785704455426191828
                  0.25869670031520464182
                 -0.37259738477865550488
                 -0.38242923678964363399
                 -0.05404501313101844201
                 -0.29429749789351078437
                  0.18141625277033499031
                  0.40996148040801189127
                 -1.16376568002999558615
                 -0.20557164989497972440
                 -0.27233586175124346873
                 -0.27516528817612329050
                  0.29877556164762886226
                 -0.05799957304554178433
                  0.11080026369511329631
                 -0.76984949887879916552
                 -0.35215125998091628690
                 -0.07748148827790624082
                  0.30828735153125130797
                  0.37102265477729118315
                 -0.31479498724899984685
                 -0.25881503159366603395
                  0.26943763400122244800
                 -0.15352448367043289301
                  0.54828891553179370799
                  0.75518081968575268004
                 -0.06596403800228285708
                 -0.30130388572317912121
                 -0.07799531059210393358
                  0.25162562308269470490
                  0.21841227104863281117
                  0.05460229061324974736
                 -0.01920605066332896696
                 -0.34403601307789710706
                  0.75729253494866766161
                 -0.30671846769066146710
                  0.46833734991644537793
                 -0.56606122957278104391
                 -0.15148990394380429381
                  0.04582130352483769486
                  0.44121615642716960348
                  0.01085231088448100449
                  0.43632494832072865609
                  0.15142932779436332758
                  0.70364816542103825192
                 -0.31657527664386181376
                  0.07628765369885157077
                 -0.07866653540338200412
                 -1.00632245418698573758
                 -0.06770181116781057162
                  0.29832925838587864842
                  0.12253534061730153581
                 -0.09772895830878361445
                  0.56371666821399057934
                  0.55984449636772282144
                 -0.41201416953649305785
                 -0.34421526053891382535
                 -0.71112066974432797117
                  0.16759867445327247815
                 -0.53277251816400739148
                  0.15786921083955837708
                 -0.49233534775598752908
                 -0.20484077542707371244
                 -0.59509177317376460437
                  0.11201321880133714715
                  0.12472618802974461127
                 -0.72879276983385732347
                 -0.69004302945600726193
                  0.11622637807353571049
                  0.50011210172048115030
                  0.10086808549279592528
                 -0.33785954974918047666
                 -0.11966856034021119970
                  0.48901798158849324460
                  1.77635715456958220848
                 -0.29267096832463107559
                  0.00877952317349868158
                  0.66504299072247619051
                 -0.02694431931690038570
                  0.14153401548389707432
                 -0.29138133304724461725
                 -0.30460680911093912515
                 -0.39082229736203377701
                 -0.38843127630287566099
                  0.45691649261739469834
                  0.33202278223757614173
                  0.32541864951311244569
                 -0.48148058360160334024
                  0.34413609148791024506
                 -0.47625723874199432650
                  0.23964611611103539546
                  0.49116743511897392738
                 -0.27746133039726489367
                 -0.60959489453443960194
                  0.22169104355865959510
                 -0.35974906957234625837
                 -0.12555705491368243654
                  0.20093027837693852589
                  0.30852550078839202641
                 -0.45021854456189108751
                 -0.80529762498309609420
                  1.43457801289322328664
                  0.48425837592726589387
                 -0.02516766749431259553
                 -0.42719902239846901937
                  0.29117998960357849292
                 -0.35490181303450341055
                 -0.03701337064858583464
                 -0.38988567968724557877
                  0.72750164419509077973
                 -0.25443698256577029770
                 -0.01507080339770160669
                 -0.20037355854022703694
                 -0.54025440845461725203
                 -0.09574240155129176699
                 -0.74562192231803525733
                 -0.27264043618202099539
                 -0.23570740791853589391
                  0.01862298992177618615
                  0.20573252787280427167
                 -0.07110749150051257073
                  1.07511122134900038994
                  0.75933587682400582874
                  0.00350304323915286153
                  0.17877186541157960575
                 -0.16289146676229759869
                  0.32113254545909170057
                 -0.31335795006311939481
                 -0.15843597800789316343
                 -0.10443211149774636604
                  0.54489544929139410723
                  0.55396312696610805482
                 -0.61234478776322720517
                 -0.09187776261028193781
                 -0.99601419449170469633
                 -0.26601719716315269659
                 -0.60976605451541787684
                 -0.11204533065675686965
                 -0.25700919930818649783
                  0.02521552569261403809
                  0.06059762126340299121
                 -0.30258775685592298466
                 -0.21091104160024320979
                  0.03546580391923195852
                  0.70585466252614448290
                 -0.06071419043100503843
                 -0.18755535382383656251
                  0.33732369405868156687
                  0.89768410967842460213
                  0.59200504989193591943
                  0.63986918219103394723
                 -0.39953059716065608686
                 -0.92604665899798399575
                  0.09253086111447804407
                 -0.51783594784710917924
                  0.46811356114028318531
                  0.19551153351896810584
                  0.01262983243041739673
                  0.78463153080063685607
                 -0.33743949599170319775
                 -0.13534008305944922324
                 -0.83658690948581715396
                  0.16978452713111982786
                 -0.18919774482326257026
                  0.08221899094914783546
                  0.11637248659450558086
                  0.24121964900666562071
                 -0.08077903550679127465
                  0.51221688923954544759
                 -0.00235087478271703461
                  1.09774833796521509299
                 -0.03830439756182950350
                  0.49070834919684258590
                 -0.14497439406416581797
                  0.05689858210303207209
                  0.40916589267492958770
                 -0.46553224294306733144
                 -0.62630549253367406859
                  0.03825889778534826563
                 -0.13901714114051622051
                  0.41038329860686090234
                  0.07096579218424986513
                 -0.44354456548259885151
                  1.31608229256990805212
                  0.64230398423698531474
                  0.26764441618002776657
                  0.34080807169488291919
                 -0.20641023045834275274
                 -0.18172509402714326354
                 -0.14611709871958047935
                 -0.24445793405176505231
                  0.24427377947564260507
                  0.20012936950635681899
                 -0.29540092700794384761
                 -0.09612535121991656883
                 -0.48311663524037024020
                  0.21508790867235272337
                  0.05340755389610293835
                 -0.12299748844790277247
                  0.08434278502985173565
                 -0.07309298764391435055
                  0.37247102686870509070
                 -0.13724138714357392299
                 -0.06792731950623363824
                 -0.59591244212952154680
                  0.20110979378302365483
                  0.12370529885387657187
                 -0.06622463744855636159
                 -1.02912207934213872917
                  0.27488613944999212846
                 -0.65767719084291387244
                  0.43945419434006893766
                  1.44407707324135703431
                 -0.12981734803127195632
                 -0.20403127909182702804
                  0.21274055777165448711
                 -0.46217428883749323010
                 -0.33799247668935200606
                  0.10266196948357721175
                  0.44012704949444986235
                  0.11895269246523533513
                  0.83011600078050462592
                 -0.39277599180123640155
                 -0.39890030504460755045
                  0.18981585857435254172
                  0.32164766908750985763
                 -0.37543765648294741277
                  0.32851386771480189930
                 -1.06022139451278119004
                  0.28202766143096674734
                  0.76927911497927692341
                 -0.07254166360208290365
                  0.07797718078029720890
                 -0.36115835482693370295
                 -0.24161729057195932557
                 -0.36616750013564813848
                  0.42818395753458143860
                  0.18321170830075347857
                 -1.14482803982219927263
                  0.18048397876023697384
                  0.03320858419782217463
                  0.26922535674093084346
                 -0.71785510248448347603
                  0.42853024846253406910
                  0.27431933024585497538
                  0.25853674684121008553
                  0.38097984930135253556
                  0.51072839773882205971
                 -0.04364181888917124941
                 -0.35198153499499829078
                 -0.11108818317850069346
                 -0.01038600634832421467
                 -0.17783947485456658155
                  0.00301401926672761108
                 -0.15816518525145348284
                  0.25753497565058164342
                  0.33672149090550262951
                  0.27484968670110732081
                 -0.45813287303357430602
                 -0.60442688099776076260
                  0.04241955956407621880
                  0.92543344031737451161
                 -0.86153819892343108666
                 -0.11338998188775237241
                  0.48793265449681294532
                  0.61071160413379144138
                 -0.05055306066309718516
                 -0.39066929328575233926
                  0.07394572535196149154
                  0.20043751209081214770
                  0.22021776617816410382
                  0.03813255404579424940
                  0.31329018331515967599
                  0.16340078772181612643
                 -0.61152501461666053384
                 -0.25797718592434909501
                  0.24350274491882070715
                 -0.28402934927105721874
                  0.80351083748994400757
                 -0.76162630731142522134
                  0.03099697722091731764
                 -0.85929307758340423007
                  0.07496557166566078512
                  0.86110507846151651545
                  0.02585035817733934149
                 -0.10451112175933031934
                  0.08203484938815211458
                  1.78197257963100352818
                 -1.08962600447506097190
                 -0.54190597241863036615
                 -0.39862292258608328366
                 -0.65844620509994822299
                  0.68566879504034383697
                 -0.69131341689902059411
                 -0.40481948372000609027
                 -0.54928718856489977540
                 -0.44080278364031788563
                  0.16713578219676028525
                 -1.05134948511097325863
                 -0.85788299232004550099
                  0.48054753761188989669
                 -0.03824636460745554911
                  0.38379703717249885608
                 -1.22749478969811476325
                 -0.69810661826020914411
                  0.58567432071587399722
                  0.83595668313918269909
                  0.24237818031974167621
                 -0.59405752528166499982
                 -0.01662233838686016235
                 -0.22669758537066783677
                  0.82472096072734824013
                 -0.48754154183287329305
                 -0.53380013805389248116
                 -0.76333927082754271520
                  0.40571431889747661126
                  0.29444755191912608261
                 -0.23926505730763505952
                  0.16248475671045403690
                 -0.04088034409956887300
                  0.07028824718032182506
                 -0.75027891784068856396
                 -0.66950372723531847985
                 -0.62257067600316329248
                  0.04419478570352749353
                  0.05839282865670394895
                  0.24019103371653066636
                  0.40186490626166876394
                  0.17521038110821804401
                  0.66404572527576044561
                 -0.60744598923247283828
                  0.36801013783614611174
                  1.34352528908344859282
                 -0.07060840358111634962
                 -0.36051422500654733971
                  0.35393993602725476455
                 -0.33195247709060266006
                  0.85017852923142545052
                 -0.34392023968378260257
                 -0.38121990755621232294
                 -0.83403470510403754368
                 -0.09707947675258704612
                  0.07028455412150233506
                 -0.90875403236551954844
                 -0.13309559073441953880
                  0.00405099227753635133
                 -0.38822310885769445443
                  0.67038198006592930600
                 -0.45329355591414050020
                 -0.39091615171148003105
                  0.67106556669044237218
                 -0.00337836986674520381
                  0.21428509649757671029
                  0.39717473210589998578
                 -0.57384262207311009796
                  0.06863715646779489088
                 -0.35204185607402993519
                 -1.13130401552524295639
                 -0.82498655648325014411
                 -0.62839096850225883983
                 -0.07878179926705433656
                  0.41626104208790920547
                 -1.06320723427573082809
                  0.59439360644657612820
                  0.60946639061350771360
                  0.81365445213289255832
                 -0.53006322774015146582
                 -0.19536338351394852419
                 -1.03191050467460532225
                 -0.90992574361277966943
                 -0.40455088898349844673
                  0.53888330063762235334
                  0.41926572321899135964
                  0.67631640262499681526
                 -0.35034316164901330160
                 -0.54119112322641604873
                  0.22203122024211607854
                 -0.11970937600635604692
                 -0.14833668161239832450
                  0.47740062329950549991
                  0.42489176154308033739
                  0.24909409475916621801
                  0.68925213183089029112
                  0.38427667715781033131
                 -0.57820356516059245866
                  0.01063581958215729754
                 -0.78051132563730718505
                 -0.62644573520078916662
                  0.64300557807895175610
                 -0.18829392215597123839
                  0.29169147382262106127
                 -0.24771853548839764536
                  0.93245829305884375682
                 -0.02183629128812343556
                  0.21070119659243377597
                  0.29922164068503381840
                 -0.17991937866320656392
                  0.41174762595320896219
                  0.85874377499807663661
                  1.27665279339487258703
                 -0.06390727491168611551
                  0.35864792234211884114
                  0.32325573762907200415
                 -0.35017878855960499207
                  0.83101841021037403667
                 -0.81220667367861365538
                 -0.31872810326154665805
                 -0.31236532942283795622
                  0.20857734429487623240
                  0.00973422474497835297
                 -0.27854833862595135274
                  0.41386515697652676016
                 -0.27994059957081646184
                 -0.12725485713121942322
                 -0.49247669205694594163
                  0.25410147009015482400
                 -0.34153836850194718711
                  0.23843939728821764157
                 -1.01152151243264487590
                 -0.29190857248605500684
                 -0.30917352131717601438
                  0.64638037424281513665
                 -0.29659107666252032542
                  0.09628519441161571824
                  0.37183965573833122065
                 -1.34195950658583074144
                  0.00169380624573397458
                 -0.51150723260991803887
                  0.16389819390347096228
                  0.12358607424188315649
                  0.19784210610664718089
                  0.08830784381568007602
                  0.42748529352125075320
                  0.21833938246684114759
                  0.81066935035512499574
                  0.35367747730728493760
                  0.92275447489097417453
                 -0.31902516280625864420
                  0.05074360989375902714
                 -1.42852782995804927779
                  0.52389564692122281286
                 -0.43777491448518224271
                  1.00733763799451447873
                  0.45927885705638599179
                 -0.67021462231697148670
                  0.78798093809261005038
                  0.29767743950374808692
                 -0.38223023684818235868
                 -1.03754355708293433125
                  0.99190856279778583104
                  0.22173642916267952141
                 -0.43350376139920587804
                  0.42479839153148080122
                 -0.16777840533295843017
                  0.18418550640106914895
                 -0.00826226022319858332
                  0.61613869088686357145
                  0.53899516893732180023
                 -0.30885802648296090123
                 -0.54891317375152914870
                  0.25484466526826904387
                 -0.47115659492540878928
                 -1.68876187055396709269
                  0.40861713474891142583
                 -0.72763085009654471236
                  0.33104005789252693992
                  0.68169556307404188811
                  0.73899776172995146339
                  0.78917957318120723897
                 -1.01562694455651203462
                 -1.02301154287106021989
                  0.53608592597067716845
                 -1.32779559815920977783
                  1.84336034272875926021
                  1.53804598916972268263
                 -0.83167679386184256707
                  0.56991514791534225726
                  0.68714509433444082021
                  1.03465274617277080971
                 -0.65285115402401183715
                  0.38124446951349583168
                 -0.90357123316270049340
                 -0.59993572824553453859
                  1.09403125918351418200
                  0.76712045756708202582
                  0.63823393089019642144
                  0.06675731296817377647
                 -1.00284034461598792198
                  1.36146502405234581801
                  0.87490076113960457693
                  1.22952321637130834731
                 -0.09935695938146942019
                 -0.66919195551065213667
                 -1.20795573994853899791
                  0.20101071748075460821
                  0.61711074295916623633
                  0.17263542078484517273
                  0.63648175199538326030
                  0.10493708110031033098
                  1.80840805545043137315
                  0.54065747149002252314
                  0.18184852194274020443
                  0.97272756725465636674
                 -0.59666990760914351277
                 -0.03464456603651647204
                 -0.62592744239143416340
                  0.26334404230969832295
                  0.29290467450983675990
                 -0.05141294227399593325
                  0.52707360063989250332
                  0.59079156670299948217
                  0.87362721090001116409
                 -1.43269754403991234071
                 -1.07219475724691482021
                 -0.47581004812568666873
                  0.01323668212267803922
                  0.07711167927613749029
                 -0.22809770303985643647
                  0.40744017132666782155
                  0.12460420735459480646
                  0.33089069861450537413
                 -0.07590115185006790499
                 -0.26228145488279458464
                 -0.26377802757730883787
                  0.21423931182474401091
                  0.27511135185303992046
                 -0.99300173275632186431
                 -0.35640617068110574950
                  0.33909638514757067806
                 -0.30684526162900710444
                 -0.12992478992959899387
                  0.17500755380758681312
                 -0.64052820293668333296
                 -0.34819351615689120294
                 -0.04533668513335709083
                 -0.68630435968602598873
                  0.27886322243908395757
                 -1.01187258602991114742
                  0.10849881710539750757
                  0.17882957880067526513
                  0.30870746808174243103
                 -0.34830210379515652575
                  0.18306179303995967489
                 -0.22648057627074033582
                 -0.73866201738389780651
                  0.43266448186964601152
                 -0.10158808760359588907
                 -0.64331176066890005671
                  0.25882969963643520650
                  0.08525747424863222568
                  0.67538654575189360774
                  0.07553642720317084447
                 -0.37935252004829089767
                  0.70852777431741009728
                  0.05033221350667173299
                 -0.45734626799649719109
                  0.04545200529905219639
                 -0.27027847806379368123
                  0.68700837846863893610
                 -0.34369548778372904785
                  0.70606778085536059386
                 -1.56529822592572154250
                  0.54137994257497346062
                 -0.48257901457279894775
