biases1
                 -0.82841137674000020485
                  1.11777489616527070382
                  0.68580672402681686073
                  0.51133343267838082813
                  0.83823658254616129071
                  1.14677662111926115251
                 -0.30062883367850473659
                  0.23492979662912294447
                 -0.70498775751846753934
                 -0.12308355410791366191
                  0.47424298315968316242
                 -0.97662048286045810563
                  0.50753974568728521533
                 -0.92147451457949902665
                  1.00154388499317970052
                 -1.17639831532841476758
                 -0.86296358391188165982
                 -0.89338466120147574934
                  0.78328733102996916937
                  1.68909229483328893195
                  1.70960698513480457983
                  1.17969546356784227292
                 -2.24211780369626767495
                 -5.21796584515581418628
                  1.74565837955746161470
                  1.07704029608990037303
                 -1.33394076084718848918
                  0.63678836909063518679
                 -0.17298662933217820448
                 -1.34239297015298619797
                  4.74977924018932995409
                  8.77138352908509943973
                  2.44162567042534428552
                 -1.59982080558269101900
                 -2.62970382217268250358
                  1.30590705026130904365
                -12.49843227898497666217
                  2.48560754502299863233
                 -6.95590764306720910071
                  9.23262184928118934124
                 -1.12458243275464808697
biases2
                  0.50661763547073623837
                 -1.35654127870364482611
                 -0.68588395253540057617
                 -0.36908888460064215309
                 -0.69571828458720297306
                 -0.72685142055527396376
                 -0.97140624169974232327
                 -1.17315546229164313630
                 -0.41578155293784146984
                  0.38445675982510968405
                  1.06331587238698710429
                  1.09543367525636514692
                 -0.34291736280812312732
                  1.23325843453038541675
                 -1.13723958650902945422
                 -0.91127065913008054032
                  0.51261761092270041740
                 -1.72314107413932893209
                 -0.64452988608656203162
                  0.62704699269418240348
                  2.27085897689690741075
                 -1.90384820257759179718
                  5.69694699647192415171
                 -0.96225718431582230039
                 -1.51082356228536984766
                  1.19505085457816662142
                 -2.48482215815778317847
                  0.89904004769381196116
                  0.92405494443752855815
                 -1.34470273522016436907
                 -0.39011620284410153392
                 -1.72698767292398835949
                  0.52778003011047824877
                  0.64714555098334514138
                 -1.24489366802867018613
                 -2.93668712302617018750
                  0.29600313015893608970
                  1.85670593852029974791
                 -4.55672578832700292395
                 -3.51459029852681714701
                  1.04113820613611318677
biases3
                  0.01050757486986650564
                  1.12753631237786899888
                  0.85286081100181065917
                  1.26785566319291742587
                 -1.18575536184442942300
                 -1.39392653563161950103
                 -0.92029045276562182476
                  1.20454999102865900618
                 -1.20737846804355286601
                 -1.70121360041458347112
                  1.32664112453962479421
                  1.30038730513443923087
                  1.67188568565314898962
                 -1.52995256082881270210
                  0.92921636612755176277
                 -1.42092998972152706472
                  1.17380171968401669780
                 -0.54570351047580245574
                  0.83748616309886225739
                 -1.06551010353351505167
                 -2.49665527743644011238
                 -1.56882073592584858623
                  6.08688839896052868994
                  6.55861117826056627678
                  4.80735926709017746816
                  2.41206834339632703035
                 -2.19123422813839452417
                  1.77500267995618199457
                 -1.84320488578883856512
                  2.37832297896879341081
                  3.17813347478889429709
                  0.20962298088738920421
                 -6.28233557291357147534
                 -4.01790800376055479148
                 -0.87828137280624762884
                  2.36080895689137193472
                 -0.80642723036026142669
                 -1.88077016443123845590
                 -4.99600255223801159588
                  0.39225675342114374455
                  1.43844432133694954956
