weights1
82	2	1
20	20	
1	2101
  0.2689652000000000	  0.4449430400000000	  0.2813462400000000	  0.4366016400000000	  0.0743800950000000	  0.3587298300000000	  0.2656466915000000	  0.1749583300000000	  0.1495702565000000	  0.0981912215000000	  0.1001744700000000	  0.3477362750000000	  0.1145969750000000	  0.0782610205000000	  0.1136775000000000	  0.2048819640000000	  0.0638965450000000	  0.0211057815500000	  0.1037243295000000	  0.0221429750000000	  0.2562567950000000	  0.1750754995000000	  0.1580883570000000	  0.1152144145000000	  0.0385548545000000	  0.1063629025000000	  0.1455658485000000	  0.0874026230000000	  0.0578430685500000	  0.0114338065000000	  0.0778649250000000	  0.0439999925000000	  0.0688384225000000	  0.0220673875000000	  0.0883907200000000	  0.0401155215500000	  0.0497313615000000	  0.0034830589000000	  0.0084268175000000	  0.0443406280000000	  0.0806483610000000	  0.0498627830000000	  0.0240919119500000	  0.0251586015000000	  0.0141144940000000	  0.0085715200000000	  0.1181920345000000	  0.0783009600000000	  0.1386643200000000	  0.1390293000000000	  0.0444241255000000	  0.0674135965000000	  0.0444849380000000	  0.0809686610000000	  0.0410574825500000	  0.0232867770000000	  0.0275648200000000	  0.0865321910000000	  0.0274775860000000	  0.0215505971500000	  0.0544803350000000	  0.0503506718500000	  0.0291015045000000	  0.0507443918500000	  0.0154594370000000	  0.0164656440500000	  0.0514355768500000	  0.0166710800000000	  0.0569098810000000	  0.1150357785000000	  0.0704670875000000	  0.0686794430000000	  0.0425507765500000	  0.0053732645000000	  0.0431821520000000	  0.0182598370500000	  0.0411627674500000	  0.0114113740000000	  0.0392591214500000	  0.0487552490500000	  0.0395747725000000	  0.0237701040000000	  2.4983916499999999
  1.2919083000000000	  0.9103000600000000	  0.6301504500000000	  0.5952795599999999	  0.0743800950000000	  0.6760856700000001	  0.3378324085000000	  0.4383745000000000	  0.2217559735000000	  0.1378364285000000	  0.1001744700000000	  0.4559485950000000	  0.1145969750000000	  0.1230969095000000	  0.1136775000000000	  0.2541098860000000	  0.0638965450000000	  0.0248382404500000	  0.1283382905000000	  0.0221429750000000	  0.4583913050000000	  0.2291816605000000	  0.2480985130000000	  0.1398283755000000	  0.0385548545000000	  0.1474281275000000	  0.1679606015000000	  0.1552842570000000	  0.0669236314500000	  0.0114338065000000	  0.0778649250000000	  0.0439999925000000	  0.0872875975000000	  0.0220673875000000	  0.0883907200000000	  0.0485084154500000	  0.0497313615000000	  0.0034830589000000	  0.0084268175000000	  0.0443406280000000	  0.0974341490000000	  0.0498627830000000	  0.0279100050500000	  0.0251586015000000	  0.0141144940000000	  0.0085715200000000	  0.1587468255000000	  0.0783009600000000	  0.1755626700000000	  0.1759276500000000	  0.0444241255000000	  0.0903651035000000	  0.0444849380000000	  0.0977544490000000	  0.0494503764500000	  0.0232867770000000	  0.0275648200000000	  0.1033179790000000	  0.0274775860000000	  0.0267768478500000	  0.0544803350000000	  0.0579868581500000	  0.0291015045000000	  0.0583805781500000	  0.0154594370000000	  0.0182025699500000	  0.0590717631500000	  0.0166710800000000	  0.0828329190000000	  0.1670762015000000	  0.0889162625000000	  0.0918054570000000	  0.0509436704500000	  0.0053732645000000	  0.0536742230000000	  0.0199967629500000	  0.0449808605500000	  0.0114113740000000	  0.0440768625500000	  0.0522291009500000	  0.0571167765000000	  0.0248222310000000	  2.4983916499999999
                 -0.69862842141502889959
                 -0.41976732427709323447
                  2.62496652956592857464
                 -1.47819964754062382895
                  2.95483765859225355754
                  0.23162912515497444121
                 -3.54186551318741305039
                  0.74582756774906766584
                  2.08511777013505517075
                 -0.70237812644009911534
                 -2.90999050468645226175
                 -3.26452722499688618996
                  1.12261725252342547954
                 -0.20538252619862912285
                  5.48650054774156981097
                  2.76589505952666891986
                 -0.77135569414595483995
                 -0.75993851225352482270
                  2.96321084765720321741
                 -3.68422159002090410240
                 -2.18331366542569504929
                 -0.53303838226814281853
                 -0.17898063966319080476
                  1.33451866742224001250
                 -3.51844678935230570360
                 -1.05525538189441281389
                  3.14063036614119939216
                 -0.13816051162496972848
                 -1.57173997331368830999
                  0.89625644046944685783
                 -0.73523356347622093043
                  4.21720171193956794298
                  0.58414997144732538903
                 -0.55423774726490826481
                  0.73372480416956387117
                 -3.73090885848034048422
                  8.62573551550575423619
                 -1.25407709374648135281
                 -3.90814274374091574771
                 -5.02414246340519632383
                  5.92508232954374580714
                  2.95333193222401657607
                 -1.59192129863740605700
                 -5.03671818096148626864
                  2.21344881646100466455
                 -0.02588448100141338415
                 -0.47024823934559201177
                  1.63257619875809756316
                 -0.96192906863005367413
                  0.71537520302917367854
                 -1.26323571217370145270
                 -3.66940364582348088618
                 -2.13320110110464478126
                 -1.42978248815454467291
                 -1.17307686458071325220
                 -0.13673331572788771648
                 -5.61316275490107408075
                  2.63006608106990080742
                 -1.58900362885770918275
                  1.48460871858545995217
                  5.08882872265135688394
                 -0.69209774658053069274
                 -3.00684328288430080534
                 -0.06320474528484348875
                  0.14836594230286781482
                  1.51867985571178465420
                 -0.53278392048856670904
                  1.82135357848191703489
                  0.52692074384804854503
                  2.17866634118811131060
                  0.07527159162493975153
                  1.41052082230905395654
                  1.88080475784635536840
                  2.04332466481437791117
                  0.41143514457698698861
                 -1.33526892992174595065
                 -2.61933239310920429332
                  2.17388590696590933149
                 -1.18824744818790528633
                 -0.67680460803109565582
                 -0.76298057499658389347
                  0.89497985869821006233
                 -0.24027844840107939750
                  0.52860803463139771630
                  0.65598254385215704065
                  0.04991076937229655536
                 -0.28068865060928377408
                 -2.02923245609002478318
                 -1.08530458577506916384
                  0.66418393331543212899
                  2.00021395506606758374
                 -0.60303785954151467585
                  0.14259799643681181358
                  0.55609614076083657697
                  1.89645764274017269990
                 -0.89957496195830000119
                  1.42437646474993351298
                  1.78060042414063213201
                 -4.84861430164844886548
                  2.54207396334166846330
                 -0.97566107008370417386
                  3.41932336659410296420
                  0.27829126199308129586
                 -1.46028752796802807623
                  0.56963046279128137783
                 -1.77945260561501572560
                  1.14495997417101857963
                  1.03946255086043470861
                 -3.27375737563844815270
                 -0.21390757420497891195
                 -0.43368440745119291035
                  1.19554799954776114213
                 -4.18348798630674245658
                 -0.05545277922079394628
                  4.91565653247824485561
                 -3.56124374804757559687
                  3.89628260567519824065
                 -4.11358100542197391292
                  2.86648439766110962879
                 -1.41775694099795623870
                 -0.78866206994184029355
                  0.84737347980227550881
                  4.39661223705331760669
                 -1.65470664430317393467
                 -0.94626428479210422662
                 -2.61946014380083580519
                  2.14352178643592550245
                  1.22894559885755705331
                 -1.98485979651973853954
                  0.97375442139162082800
                  2.04196276595991088598
                 -0.87249528144151289322
                  0.98196968527825601036
                 -0.77163960593225744411
                 -1.60952042422955821088
                  0.26198204464886376552
                 -2.73492660274773458084
                  0.98392760565524506333
                 -0.35796393713330720843
                 -4.47716731872537287984
                  1.86478976347607816599
                 -1.09380418402159129698
                 -0.79477274558157429141
                  1.18430981827438430720
                  3.49244135424198587359
                  0.37517071824462927543
                 -1.90179586730484384560
                 -1.06592211548023407808
                  0.41682282807265763624
                 -1.40839793545995428659
                  0.19490499455491377967
                  0.02386169491760597658
                 -0.16019966951484948536
                  1.24692456198238876830
                  0.75064408628588963346
                 -0.39991403905439543154
                  0.86806839712406491660
                  0.13138977089269479603
                  2.06880076527834022571
                 -2.14944905897699500841
                  0.05426104044011823002
                  1.94998981301269269650
                 -0.16189512069116138160
                 -0.19647302675953232098
                 -0.05758749533764789819
                 -0.06749127991589273790
                  0.45752695742326870976
                  0.17275426509702332400
                 -0.26989466025220504308
                  0.93602573221643559087
                 -0.73339103917079395689
                 -0.79072588975140178924
                  0.75561356133052304251
                 -0.13742531858983267345
                  1.67350192800129971005
                 -2.53866603001166835085
                 -0.29255874414707883080
                  0.23368876369429247841
                 -1.46975266511780811030
                  1.99847825486694130603
                 -2.52321402201422495537
                  0.79946865832662783458
                  0.84510462956909637722
                  2.24445175320550216469
                  0.00662101104689414785
                  0.03511546386379127416
                 -2.89451751640786136832
                  0.46331195616974352181
                  1.03140031881403082537
                  1.92652231665617135192
                 -2.24359796608237083149
                  1.29324839621427400971
                 -0.85215917893129622396
                  0.53579676515244534230
                  0.55750258903733329596
                 -0.68566926250801185638
                  2.41964722740906923448
                  0.71722855057187129280
                  1.53676795158224566151
                 -2.53710011410832647627
                 -1.18831862530581577886
                 -0.18201678035764187746
                 -0.81307022998452271878
                 -1.21579726695875578457
                  7.79918563808182696562
                  1.19328013891177309169
                 -1.70573448675361860616
                 -3.99250568056683308171
                  0.98242730125244881467
                  0.79473287212749144093
                 -1.09762555819992746464
                 -1.68317195817903808575
                  0.27117365981580315859
                 -5.19046217549565369609
                  1.29257556750485402830
                 -2.93974000233577070773
                  1.65984751935195440353
                  1.34877292324642872323
                 -2.72241770983870878808
                 -0.39072260883517268004
                  1.31152313909533435599
                  1.69002451014050358857
                 -1.73031641045590656169
                 -1.03472091575477320724
                  1.91711749226986838401
                  1.38756199072496144709
                  2.92437482010552596279
                 -0.72484839121536892570
                 -2.23673756730891293287
                  0.19913984583238833470
                 -0.53865297603449913133
                  0.03817097299835190555
                 -0.44799924604296076369
                  3.37157669648630298198
                 -0.87258314596878305824
                  4.12609215669336304444
                 -0.97464197451839162945
                 -1.08373518351928099790
                 -1.50490072248802064792
                 -0.99540937167415943776
                 -1.32465775738086111168
                 -0.03317820256993355560
                  1.95718585297837877057
                  1.87855373316259277594
                 -1.43377265090268424252
                 -0.91926738281020103916
                 -0.59858361247200186916
                  0.65653531295240652454
                  1.82348359824080197278
                 -1.04681479073345284903
                 -1.14108818976735348905
                 -0.51147363146711255499
                  1.27120080595853579553
                 -0.00259886172078857775
                 -0.52124407922215965083
                 -0.08623156117533932463
                  2.68223943731496117238
                 -3.57256107587885773924
                  0.11612312425163168195
                  0.52763159977217977126
                 -2.63629757682085186232
                  3.46334082488327821281
                 -1.32593378910720161024
                  0.50861120662014802640
                 -0.89774982200673092425
                  2.25369404043883836408
                 -1.58697019502544267588
                  0.60855888478184638757
                  0.52555959415418096459
                  1.11600566600803197126
                  1.11767862236236825701
                  0.15228118420748018580
                 -3.49974959580085309696
                  0.33226699061064418617
                  0.68870412446771989146
                 -0.13991976376876641419
                  1.73431136082360271011
                 -2.20384745424794470381
                  0.79754269624538154382
                  0.30180538914201815448
                 -2.04645965699110021774
                  0.75732140374692957785
                  0.51296284857978213800
                 -0.18060345660448814953
                  0.03808404537564708675
                  0.53558817993489382658
                  0.65563676160586115138
                  1.25180264713316335978
                 -0.55687549923702805987
                 -1.15545476295676419198
                  0.57648105310691710734
                  0.05908502701007135871
                 -0.16370561518674692225
                 -0.54078938766142892192
                  0.60405577675812427429
                 -2.29334811658054249506
                  1.15183301065895493664
                  0.11153952095992747395
                  0.93491220881967629364
                 -0.45259202678588239532
                 -0.49444469279285252483
                 -0.61940144150304932147
                  1.54269670424131755126
                  0.87990049309595452787
                 -1.19090793190758081899
                 -0.66981992238303422749
                  0.91125471770409971484
                 -0.19634623789887542533
                 -0.48639427792722872423
                  0.30392149795777079202
                  0.15184541877440532742
                 -0.39853135817784823836
                  0.47522860310210884860
                 -0.97614495500820031015
                 -0.26874326262738795768
                  1.31986769195544884070
                 -0.84589832958900235127
                  0.94253116141953108276
                 -0.56240947880752389931
                 -0.31690985159598406007
                 -0.61174372620704753345
                  0.34175818539108071548
                 -0.56525382701859783197
                  0.11089471234770049979
                  0.32217461252996837384
                  1.09650899217338970715
                 -0.33721963739548849182
                 -0.35647470693856264656
                  0.02998963773328582050
                 -0.42748686440702976519
                 -0.29188358605246161881
                  1.93542020502965983475
                  0.51340647102847647432
                 -1.40360325299399857357
                  0.43557389309281191458
                 -0.13028102721564796540
                  1.39638861922369650337
                  1.03382841049388329857
                 -0.10975949631457426747
                 -0.56484645055470317221
                 -1.54725079103726925744
                  0.32060003408587167684
                  0.63376129509696865760
                  4.36290147579037590475
                  0.70056333002555515321
                 -1.18853612924503315718
                  0.42611446621058951534
                  0.21523875338587222794
                 -0.80038966979348469266
                 -1.13325526080371230542
                 -1.12415524090381735434
                 -3.22820653820061798100
                 -1.19724613030848958672
                  0.62452630592596758419
                 -2.70231972421338095813
                  1.45084441570022781853
                  1.25169910890354185717
                  0.59271707018798502897
                 -2.33188097249713299774
                  0.84249690640024244015
                  1.28817839062713423992
                  4.13327939271259214848
                  1.12917942904127421855
                  0.01965426849395548667
                 -7.51292399077607075952
                  3.27371747475419283546
                  0.26949051264783174808
                 -2.25187913299026876146
                 -5.56623965755616723072
                  4.28167797707298447563
                 -3.13328826597707088553
                  2.65317299954631868886
                 -4.55249166700387064566
                 -0.69995411861816003718
                 -0.35174592873872934096
                 -2.89236702686638169624
                  2.26007515419623095099
                 -1.21529582904493627105
                 -0.14585669269126172454
                 -0.39045426692041723671
                  1.20268927187378293908
                  4.44878300895710854235
                 -0.16883654098759517947
                  0.88872857073595967758
                  1.83815073188222122269
                  3.89879814773594546295
                 -3.36287597160055184986
                 -1.39277074923114230209
                  1.04853437928123538470
                  2.58863154173564380400
                 -1.91579343695309511908
                 -0.98235398883326074948
                  1.80146850220616405736
                  2.76515715194880584704
                  2.92849242054299585547
                  1.03914220430535730877
                  0.04192506151222728100
                  1.39740549685667558855
                 -1.37837020795443154775
                  0.90099877526424576590
                 -2.04955434630518329442
                 -1.00466284766904112580
                 -1.19592100995400585361
                 -1.42152212780771747269
                 -1.62842984427485215626
                  3.19319311188773369281
                  0.70191130350004538041
                 -1.88104130232050592575
                 -0.80394011541596932524
                 -0.56617812433134195871
                  0.14356619180298596516
                  0.47524029603221634721
                  0.19906643720519720531
                 -0.86688705262596021939
                  0.29661652979406538666
                 -1.32711117036315884299
                 -0.05772482709596889888
                 -0.28562750586615759385
                  0.67950194323740675806
                 -1.91640531517091483593
                  2.49154095709382250590
                 -1.32619297082549869593
                 -1.40783854367834271315
                  0.65782872315297791221
                  0.59904641106794320748
                  3.47240199257092108098
                 -0.34742791903392328257
                 -0.16018958587471776589
                 -0.93807253234643805939
                  0.29690923447136879920
                  1.72022310830172586726
                 -0.51853398658187821457
                  1.05784897171763514478
                 -0.78086567418458152634
                 -0.32500723283899440874
                 -1.23169111958959898168
                 -0.75831105919007812943
                 -0.09972743343124516879
                  1.22155523426530177034
                  1.18361801352861828462
                 -5.01165295481645944875
                  1.21138774645803981578
                 -1.95890098491087072397
                  0.40669566217262220764
                  3.18746507614480512061
                 -0.30342717951932540732
                  0.24222610365046462477
                  0.79210287388252575980
                 -0.06291037179162312087
                  1.55566332021257247575
                 -1.22997277055640985566
                  1.25159397158858332055
                  0.41738194336602557621
                  0.54631517608494817306
                 -2.12546691503879037199
                 -1.84244062747243475542
                  1.53549207975792967318
                  0.34405227916573982716
                  0.52689921385787652497
                  1.48404708947969798949
                 -0.61343368499492767487
                  1.59912988643918918541
                 -2.00886253152753369022
                 -2.17144209722762315806
                  1.29203902932692082928
                  0.38540311666513354938
                  0.04833222558826904408
                  1.21623331724905181517
                 -0.95805878135127608974
                 -0.58313706863907532885
                 -1.63001791282848484954
                 -1.76636658324869566528
                  1.33790899476183411387
                  1.07240020143844905220
                 -0.91116332528209553754
                  0.82955411197624551178
                 -0.10601195103167518341
                  1.87134976543775199964
                 -0.26844238412594706444
                 -2.41311920487381970091
                  0.78661285968703797966
                 -0.41666161689305664106
                  0.96861743364984209670
                 -0.68988754266858198783
                 -0.04635661630602873340
                  0.50581464479390736422
                  0.25211869436763445496
                  0.55361238642753074490
                  0.20268767358469441664
                 -1.82860388150864694445
                  0.42513233282233875432
                  0.16152317091098553070
                 -0.51188190031656666257
                  0.48883686219724098443
                 -0.04949053681456168363
                  1.77410864808704271667
                 -1.71745348760211280492
                 -1.71962620452023950968
                  1.75593679540024827368
                  1.21708260977511040224
                 -0.55047429500474642783
                  1.17499408274532735064
                 -2.39269185253616800679
                 -0.02909105981346041606
                  1.34580376581711047557
                  0.87961815450445712816
                  0.52676536078825164644
                 -0.56311517342301675715
                 -0.47678248859910526969
                 -0.02984108476520567696
                 -0.50363607918815245235
                  0.44730487387002249022
                 -0.53364874881247381655
                 -1.26621100308651812760
                  1.88788632526897570685
                 -0.13190140824578122647
                  0.62058678841245529245
                 -1.61200910148859621884
                  0.72590672908732201130
                 -0.85108841795906486904
                 -0.01371851617407780083
                  0.20031577963394445185
                 -0.66511948116361863104
                 -0.69136787735196236770
                 -0.03470198364690036535
                 -2.95700685249072936500
                  0.96415576296035199189
                 -3.03159000730463024098
                  4.49232640198730592829
                 -0.82892807906973930976
                 -1.09658080050360973168
                 -0.27416737964805065753
                  0.57155553779584222784
                 -2.61301124720202748719
                  0.70800856902805187065
                 -0.95296306958100496232
                  2.51145978980576201067
                  1.17260047267810607607
                 -1.69780881440731623577
                  2.81865380724440450777
                  3.39560810187207584576
                 -1.43752721724307530593
                  0.43303822475837766559
                 -1.18654938971164169992
                 -1.15009026865184682542
                  3.56350146124658273550
                 -0.43027188112065839487
                  0.75642552959226505571
                 -0.44342992945236020530
                  2.54443475513981098857
                  0.91659753773232022223
                  1.55832958955286526859
                 -0.14956531029202391192
                  2.01949569832725606133
                 -1.01909748797599242209
                 -3.69326475758771488600
                 -0.85457706612115569289
                 -0.33208623915804202920
                 -0.29466215744032037138
                 -0.88406868888407519336
                 -0.30265374556231811054
                  0.81560780421936129869
                 -0.96981213927206977310
                 -0.15983579418751600598
                 -1.37155902458737899430
                  0.20708578266738117413
                 -0.30306934763596732330
                 -0.30438506614518084925
                 -1.34719036495938149223
                  0.21509206698054766926
                 -0.19611629643038036575
                  1.98341139043389458330
                  0.13027984959186053593
                  0.14064844778259705249
                 -0.53510797495740525243
                  0.22216859120769644198
                  0.55762828517128892880
                  1.25297869480257695329
                 -0.54322907727997793437
                 -1.95205507294783608963
                  0.19661375636498998332
                  1.48159853901988269875
                  0.30624465354915875182
                  0.01842583766252844577
                 -1.60625276589298415786
                  0.72908601814098539240
                  1.09225132308464334407
                 -0.53498407132862191293
                  0.84287685827157388108
                  3.12179535067077695842
                 -3.53826925008769777037
                 -0.07585442518439841630
                 -3.04879038052287665295
                  2.16028118668070501229
                 -0.73718909361332274344
                 -1.74938964965826659892
                  3.77167058565059631903
                 -0.56603603265699986569
                  0.81458165430648088456
                 -1.57669643870757236748
                  1.22330122768969395963
                 -1.28442093194933715239
                 -0.43706542032201078918
                  0.22136083978226517299
                 -1.79779075239158303567
                  1.90290856506800731829
                 -1.47819547468049616867
                 -2.95574404750126618069
                  2.01624265971224669869
                 -1.19210693257716737747
                  0.98738777930931642679
                  0.13376758403902536121
                  0.47884517997498798891
                 -1.02589415953889062649
                 -1.67535524977440042349
                 -0.91457865954887995752
                  2.10967155925132621164
                  1.68367935544822655558
                 -0.99600153167063010251
                 -0.02117835630544116776
                  0.28560892320698383351
                  2.14558462313944708910
                  1.76549088970357948014
                 -1.58954602108727249821
                 -0.71561856759640307679
                  1.02172882201153858439
                 -1.01869225728726431335
                  0.35009382625919927001
                  1.95311377300260446965
                  0.87337779569008711089
                 -1.38155548977086062301
                  4.12426703196127064643
                  2.02825585821236620276
                  1.06762548526177725172
                 -2.47195817857981703369
                 -0.16915915595656305648
                  0.84703108788002579033
                 -3.15194094751245978969
                  0.60767371058514063620
                 -0.28378653276185517029
                 -1.19005992034433827342
                 -0.25011088468817038732
                 -0.64463656061560281607
                  0.36350034289853322411
                  0.25557567322532842580
                 -1.53118836169895145005
                 -0.63284293738214469904
                  0.24314966639601806597
                 -0.10039958456100600559
                  0.39392232389302833662
                 -0.74771805249482725664
                 -0.69630562847036037155
                 -0.50741094599427427614
                  0.80662094221949010020
                  0.36288131405028695164
                  0.77988600021422715969
                  0.16807052607261263599
                 -0.65006193373595555496
                 -1.05176121568801961281
                  2.02177697705230619007
                 -0.27785058289050512670
                  1.90730496987318276503
                 -0.61992125681792198399
                 -0.63673115067634167286
                 -0.47115778723290657748
                  1.99943421157041534286
                 -1.84078479457730925795
                 -0.54046286608123605966
                 -0.93691650603068388214
                  1.30885669708776020137
                 -1.22490729370212880767
                 -0.09431549089258525753
                 -0.62199155700423047755
                 -0.99103718811400365318
                  0.22776670508897509104
                  1.17119277278438538303
                 -1.02056082403178161044
                  0.57286735965493595923
                 -1.35654089390004117810
                 -0.10604756528729417098
                  1.93560379349265176963
                 -0.99732155854461190803
                  1.26662143502271051787
                  0.75939554462394898149
                 -0.35289600740460641548
                 -0.08827668910223618326
                 -1.00677166157919262268
                  5.54822238129634115467
                  3.51634949114857020547
                 -3.44147486244563527436
                  0.54138387716409019923
                 -1.00048200808924825367
                 -2.31016403815358817297
                  1.25647243664897789728
                  0.72510650941810428360
                 -0.93325544756245970568
                 -1.64382577928524953315
                 -2.43341919338796097705
                  2.94913951556291875633
                  4.48949143166441722030
                 -3.04169394349620159090
                 -1.78223878792475498578
                 -2.07891865257304697678
                  2.73531150990550608881
                 -2.97468133910600940339
                  2.38949990331513184572
                 -0.13661946077196018834
                 -2.37389351558574057677
                 -0.83983100807902788532
                  2.22449898259881306828
                  1.86149551176073013714
                 -0.70254921676077553006
                 -1.88282290239388938602
                 -2.45580741206064434579
                  2.42029062682008744289
                  2.07079763442477293722
                 -0.38205482333469842349
                 -0.92358904350400350403
                  0.27101052342240145032
                 -3.33779416012678886716
                  2.41999296814837761005
                 -0.26190550075241642025
                  0.38203876457071989092
                 -0.04051623910721900701
                  0.61310332120397581512
                  0.79020242739144541666
                 -0.38167296039719977863
                 -1.20766024985090214550
                  0.64319983940002689593
                  0.14599998864492480521
                 -0.23982723072358905214
                  0.21690500242048629809
                  1.73084044850932894377
                 -1.00963272988479979553
                 -0.01833145019996141462
                 -0.57168981127434315148
                  0.06436443304082183070
                  0.25748408299549535583
                 -0.38661299213910449435
                  0.12527019532999927875
                  1.54928097279504384254
                 -0.72530036796288377410
                  0.66426236363049273592
                 -0.94286837700081427283
                 -1.12498676081095738688
                  0.11408985343418251435
                  1.81549512072978780353
                 -2.51842302088982705754
                  3.15814949817500423279
                 -0.77801442762729666747
                 -0.43783554798205215342
                 -1.19335985034279934425
                 -0.67919888030886155228
                  5.26368011722608830638
                 -2.68408854050697476268
                  1.15864197522171230581
                 -2.32620141036387639843
                  2.50751249903910133909
                  0.10590494033354873327
                 -1.60299955986178921385
                  1.34114345236389920224
                  0.16456011795725272728
                 -0.18300045828062086462
                  1.03827046176033688241
                 -3.73830956713057416252
                  0.09207577629578024558
                 -0.08622918583406218029
                  0.68950864168999770332
                 -2.16318587250254967813
                  0.57121226280278136755
                 -1.56646550752637159221
                  1.00804415285994863893
                  1.66504779835563687662
                  0.50809334847335962948
                 -0.73315981297708321396
                 -0.71175231564409235929
                 -0.60602325354673391988
                  1.15552134069661915916
                  2.65152027289098235485
                  3.31166337673027832977
                 -1.73495497468274928465
                 -1.88100008766973125773
                  1.23771692535572608307
                 -0.99847333207428468071
                  2.76724214282252845010
                 -1.44569347623666444314
                  0.34563183881708525735
                 -4.71996376866354516721
                  0.71061196594847653163
                  2.10641036360605760080
                  0.38805698056306331400
                 -2.35472068872672091189
                  0.24354172724072070677
                 -0.27654268970344442202
                  0.08842659745486952660
                  2.33962464900905464660
                 -1.99418070931701629789
                 -2.04419452066905815713
                 -0.13170903614922585545
                 -1.06539451733612211548
                  1.58971646859212301095
                  0.52778365427609597038
                 -1.01789311148709504806
                  0.08778052744112928296
                  0.42644448132768175697
                 -0.33452490024351261289
                 -0.85632188219402527452
                  0.41242466356805829175
                  0.08588657956290765561
                  0.97313812084012429882
                  0.84253424135646670656
                 -0.14005140299879909049
                 -0.79897963730989940423
                 -0.16423261972983657642
                 -0.59827331367697533793
                 -0.05584130920506819029
                  1.17492700200448196846
                  2.04997889968728319587
                 -0.25841951461325801676
                 -0.95709487849831542672
                 -0.12684414662532716989
                 -0.35554049132510823217
                  0.33181233451980424176
                  0.93724678774210157250
                  0.36113584058767034257
                 -0.55065369779464701239
                 -0.47245557594828746506
                  0.34809977102053107911
                  0.61341539808217759866
                 -0.01776185719972164095
                 -0.84687633772677517463
                  0.81002154777759594051
                  0.56277551530061098450
                 -0.29853737189544959918
                  0.42103128439590337129
                 -1.08454163750783716402
                 -0.34450125808016146545
                  0.52090872117385944584
                  0.33161430104967992705
                  0.05047066594349040869
                 -0.55934601123362770458
                 -0.58786862983054655185
                  0.54379684847400910908
                 -0.05890005496027179294
                 -0.37345913521479895403
                 -0.21907607856551769565
                 -0.07580506621703372860
                  0.04919131283497274465
                 -0.12373880908968176717
                  0.00968573025743299856
                 -0.61729966127016577815
                  0.60898123767813749918
                 -1.09532008025219873559
                 -0.08218780076080299535
                  1.63707569578374756425
                 -0.73535720558743666864
                 -0.28441128676631327599
                 -0.15306278134242751188
                 -0.25367025370704165965
                 -0.29604014747010642949
                  0.82281998544178969190
                  0.11772854135814195264
                  0.18153710272750167576
                  0.13470490903477957967
                  0.44454267998967961217
                 -0.22270695848218438617
                  0.78675206523348395482
                  0.01132192620305510697
                  0.00562017064178833153
                 -0.72512542269056246003
                 -0.25130265892835063068
                  0.33517584463585281540
                 -0.29668402713193336995
                  0.06926805316776926680
                  0.59864789759540903979
                 -0.05951180840140021799
                 -0.39594863504808647248
                  1.15520632382818644324
                 -0.01181408450317329890
                 -0.03544205096842763247
                 -0.14474348907661821473
                  0.14956821943336773284
                  0.44519475366829336371
                 -0.61007581710809699604
                 -0.50777915285323937944
                 -0.16690203797662636620
                 -0.66224648091783966386
                  0.01877625198913886878
                  0.25732410879069650411
                 -0.26265045145125320847
                  0.33491068687568575912
                 -0.31728835838584718010
                  0.15038219876569858258
                  0.06259117596952888662
                 -0.14757320031111528791
                 -0.02695742289585251195
                 -0.33398072090563457603
                 -0.00680476361347631155
                  0.35280878878356203288
                  0.73656470109976479588
                 -0.18901182463921442634
                 -0.26021247354833376697
                 -0.55197826815360995223
                 -0.52744034890241675573
                  1.98992970777073496791
                 -1.84294169284011988275
                  2.06259582256518170240
                  2.35469168170431242260
                  0.71788159573813881131
                 -0.86368043021398621661
                 -1.11640548218391244539
                 -0.45122090591076036148
                  0.71846556024270136209
                  0.25806931992420084621
                 -0.21861358166900213273
                  0.51116585691295179927
                 -3.20219057270435270013
                 -3.22835696039322250783
                  5.30724094113219280189
                 -1.54163679544367604457
                  2.92945636372017625959
                 -3.21979909691519416981
                 -1.83206907227784454584
                  0.38688846344206362371
                 -0.80798342222333408014
                  3.56201508416625056697
                 -4.09183094499910637865
                 -3.76468977815044159030
                  1.94555228571751959166
                  1.33836660853369115998
                  2.36739490076343850333
                 -3.01423527309646832606
                  6.59823193972831845144
                 -0.59870784772028906584
                 -2.16914181165731179135
                  2.42074186912937516780
                  3.00494102258171524866
                 -2.65816215240303410638
                  3.45536241604587734955
                 -0.60028028569028180073
                 -3.80654107823975662583
                 -5.33436492263032491223
                 -2.06817287017787831971
                 -0.68421501733078671226
                  2.99399812035159973433
                 -2.47068844480101068584
                  4.15668465462735525762
                  0.89050394479859262820
                  3.04888638079262364045
                 -2.83601822489938637517
                  1.23092156455315882013
                 -1.49628473182751497994
                  1.47300785800320355179
                  0.11527734583617343933
                  0.33072609014056708610
                 -0.17884218616174193950
                  3.37261717504552693825
                 -2.65652249857859823479
                 -1.25043400844638363800
                  3.89937664334042421999
                 -1.89166140131751348008
                  0.99522001621260880455
                  6.54774143406319186766
                  1.19320818149524243701
                 -5.19312965219794175908
                  0.39924751042377276677
                  0.43308147720572093275
                 -1.64784541266366280077
                 -3.86876643706174005999
                 -0.72740516869482263473
                 -1.89817472653621122092
                  2.78246255036474599009
                 -1.22945487355312477185
                 -1.88758477399438673316
                  0.34406147323784669334
                  1.22326047938495263701
                  1.02695324507668805936
                  0.70471067134368658991
                 -3.67888290418718932884
                  2.63275919310511996585
                  0.08921718576242097798
                  0.89930833215638072975
                 -0.56524713251847225060
                 -0.96452885270480337443
                  0.20419434419590237750
                  0.31436530093468867397
                 -0.20363542091929029421
                 -0.07872051099405687202
                 -0.24737389247452515328
                 -0.81378299888897620562
                 -0.54068583988705976040
                 -0.13628772106528952435
                  1.13930256251809414181
                 -0.65105486335439310963
                 -0.11753222455508571809
                  0.74055427330313250422
                 -0.26573038150850603056
                 -0.92240851658478517638
                  2.18011143702071974459
                  1.80609352298628222933
                 -1.49522381226016598532
                  0.96273806462687039343
                 -1.84708566560913078902
                  0.44228268784247765089
                  0.89270146487073442909
                 -0.54617120066489688313
                  0.81258763343670026291
                 -1.47599811245839784846
                  0.65217961840754201663
                  1.58260006168897948697
                 -1.03230250699195225117
                 -0.21798033572980665684
                 -0.91974054432607332821
                  0.90544378882347242854
                 -0.35713785933821035057
                 -2.85522040885415240297
                 -0.03210949718752389992
                 -0.28753431737578533101
                  0.21999639189022898722
                 -0.41060624868715073221
                  3.97473066295366406209
                 -1.36614572481002194415
                 -1.59578700049843713593
                  0.38626699869522601594
                  2.56627341303365197334
                  0.86463870030227507613
                 -1.58774813687657601058
                 -2.80575860240794217049
                  2.98424542800166614498
                  0.24789536092312716709
                 -0.65588637398102589415
                  0.71282734320581409015
                  1.60377114615939930786
                 -3.10274531629433170110
                  1.62869102097726470291
                  0.44458849015481494149
                 -0.67173344851288452340
                 -0.79791100359566691225
                 -0.36170397444105695239
                 -0.50498984070005870084
                  1.43586264936016472227
                  2.07776727533581251350
                 -2.18696347615912412010
                 -0.73682050150704159197
                  1.20273563007454353802
                 -0.21094968969659660951
                 -0.86649584825383185738
                  0.63681044762114080715
                 -0.78966471770608337444
                 -0.16844432595208921888
                  0.71708062876209788250
                 -0.73845309200913655800
                 -0.27981737527276195898
                  0.46637455698270263715
                 -0.27032229323394757481
                  0.65968314668243976939
                 -0.21772250265856876728
                 -0.22389350586897829865
                 -0.84342428240207145684
                 -0.22386600816415722082
                 -0.65860472629254385168
                  0.82875759543453408895
                  0.14757029144993136227
                  1.17773190688796969283
                 -0.02153846347439549586
                 -0.27163766700183444858
                  0.22594906631616623605
                 -0.41656497955526400334
                 -0.54446875967333596691
                 -0.56368514682106396485
                  0.11650792428949478807
                  2.24916347856599552202
                  0.69623732176184016662
                 -0.90927564883478262381
                 -0.51630333168012465528
                  0.08270965075071547157
                  1.77306216020500095887
                  0.13427236526461788779
                  0.60210665479637992537
                  0.47493696319461015110
                 -4.38913030570394013807
                 -4.52288429034021177699
                  0.22112923815455298726
                  1.86227412414727955259
                  1.41484123186720434084
                  0.89109919075522592280
                 -0.16570216270843132755
                  0.84888149712923899326
                 -1.76788221342079321374
                  3.06140258175586943423
                  0.45106026565560158881
                  0.10232229707124870788
                 -2.68261897322681619471
                  0.88133813243581782260
                  0.10173088710689608127
                 -0.87213812772998755563
                  2.50509332405024665036
                 -2.60604980546485087700
                 -3.80193975910165082865
                  1.97912450782316229336
                 -0.55051594959032212895
                  2.14137627870837343735
                 -1.36629512293470467554
                 -0.31511377555139963302
                  0.17521235539223167788
                  0.88310004954341037031
                  1.19919924746741846100
                  0.02481757193362323088
                 -0.12176095983270199263
                  0.86788571047141516157
                  1.06979127963137443658
                 -0.40799638072863841920
                  2.15156952445240934324
                 -1.09670800231810927627
                  0.26629203580159083176
                 -0.94499940016849526270
                  1.42699761642132805228
                  1.50257949078653441077
                  0.36130420743222507740
                  0.23508169358223884871
                  0.46426525369230198237
                 -1.40794854973678873478
                  1.87388419341240441973
                  0.82013678153327218556
                 -1.99672658783297007901
                 -1.08584166434633111464
                  1.16545987747190427086
                 -1.33740017001324185131
                  0.87427677414007465284
                  0.11394497487355162435
                 -0.89142432392792303464
                 -0.78510109532026917112
                 -0.72860348526497520361
                 -0.97586829529144958340
                 -0.23103742661683351889
                 -0.86523187480544883066
                 -0.74690363261163539299
                 -0.24530439893231953397
                  0.06046408369899381602
                 -0.94659474763921758189
                 -0.06287245497122409543
                  0.57815950337877886067
                 -0.93160750633115063657
                  0.60385683507352416743
                  1.14966795025977464029
                  1.73205543714833187785
                  0.14827492258443489281
                 -0.91976783693327679448
                  0.13114711577006418763
                  0.04687822006415937048
                  0.33992067275142268112
                 -1.22756702788789828773
                  1.58950583813239521014
                 -1.52870254003136030185
                 -1.06274653057332213457
                  0.73162466222719191311
                  2.15065555222020243775
                 -1.90149902420532557201
                 -0.83586783449451274031
                  2.75444293080833224607
                 -1.16556692117489957283
                 -1.47088311642298785742
                  0.81020961067993635396
                  5.38055272000494966278
                  0.86615889656077704739
                 -1.97396356643343184878
                 -3.24482247225921938139
                 -0.58051412025508175585
                  0.68457973739257160783
                 -1.05644865300036117084
                  2.56585462741408187881
                 -0.81375536747718613118
                 -2.00891395657750670978
                  1.38410338549010925036
                  1.42840403589280295904
                 -1.50241206366885693413
                 -2.04704253917793144169
                  0.51545358250799788724
                 -1.68882434197577624424
                  1.98074791592722498912
                 -2.85151000747714045147
                 -0.27939370708212818428
                 -1.04618319043698870807
                  2.06374313924816554788
                 -0.58988866811667117762
                  0.02013810851684808348
                 -0.39567941573642356756
                 -1.43629133789999308135
                 -1.22177238342636296231
                  0.76918651725065156910
                 -0.18297786523883660670
                 -0.64345083473684183684
                  1.68822855478061661927
                  0.50907467734954625627
                  2.21001379228440342217
                  1.22169203654122848768
                  0.16978003484541745460
                 -0.34459431907837950737
                 -0.67852234776162356766
                  2.51496685980030720842
                  0.93678748293501212796
                 -1.03294674625112614663
                  1.74152932417408301546
                  1.02019693515509013437
                 -0.93331189318963025947
                  3.00050571684303823972
                  0.42848179559273485983
                 -1.32382744679312591707
                  0.50584747544369723649
                  0.16356128868960412293
                 -1.86967363359711358228
                 -0.05422303722922166419
                 -0.48240124705044679088
                  0.52360203871540189624
                 -1.59480527167772434538
                  0.16063428523208014842
                 -1.49305329890817306548
                 -0.25172306213479395121
                  0.22215096471494980013
                 -2.63769203581858135976
                 -1.33478016417881351074
                  0.75473378244073718868
                  1.26093647268695319141
                 -0.18048694290312500277
                 -1.42757350020486084574
                  1.03916837579649889989
                 -0.97163636213776560790
                  0.99629726916113503510
                  1.09546084076272753904
                  0.81047229073279658529
                 -0.13255465529558019266
                 -0.19340454079934152332
                  0.26548489874403558009
                 -0.33539337623844761582
                 -0.05773584323079016672
                  0.50197360775132648936
                  0.26023845059361416787
                  0.34347022030663953984
                 -0.83948492032760579917
                  1.33339409212347903555
                 -1.89559787450565075950
                  3.35290177130272493145
                  1.62850186935448570935
                  0.11479680444087864144
                  0.97816281219540268665
                 -7.04884734212454944213
                  0.02787781246682439693
                  1.15361332066153687848
                  2.23244172925575146138
                 -0.85473282286184515399
                 -2.49594210165681840152
                  1.12670060934845217560
                 -1.43581328802179308823
                  0.09252460826663048976
                 -0.14360903078040138103
                  0.81448343543695278512
                  1.45912896174903017332
                  0.43953338961286431141
                 -0.84409781426199836929
                  0.15961851730571136043
                 -2.52401585185002907963
                  2.76948515349633561655
                  5.64947416936548751920
                 -2.88210143586222633516
                 -0.53099494538691494050
                 -1.03611393685838804046
                  1.76271343990613971187
                 -0.91591244475922573010
                  0.45025035583499489755
                  1.08416902916699187109
                  0.82435477943342261309
                 -2.70590086139351448935
                 -2.22942312288479671523
                 -0.74529922382690949600
                  0.85639205279269625670
                  0.97904147486100545628
                 -2.59689111180273490831
                  1.79766821777726915066
                 -2.48251233086091716018
                  2.01542153573855564730
                 -0.65299470957147975891
                 -3.28452508786495300797
                 -0.68279505898042391898
                  4.47800930624823401160
                 -2.41687395410018845965
                  1.44512438934292197779
                 -2.80417795810013625868
                 -7.10649473658301733536
                  3.27978216153561330515
                  1.36224909726061094162
                 -1.08908535042103449264
                  2.35841225316617997265
                  1.53946523765093035152
                 -0.48738223887981879656
                 -0.61926580466139247161
                  0.47949956470447258061
                  2.23444287486980508461
                  0.01811782903813959761
                  1.50455253650032649837
                  1.38809245993486629622
                 -1.06150739712889730093
                  0.78490475484684230079
                  0.83769677724375868344
                  0.49429086178481151936
                  0.08480822289219909493
                 -1.98886226075677607916
                  2.19573623204900858497
                 -1.50069754680226075116
                 -0.32277839229874455418
                  0.27081164809392704873
                 -0.47843304625716687184
                 -0.21527008834483829514
                 -0.45246303169404800126
                  0.45874639638885444937
                  0.53416218324681163931
                  1.17652439965611566031
                 -1.10304574957715084693
                 -0.66087405211563965413
                  0.36771278497364168203
                  0.29990823682375861159
                 -1.49478270777311261774
                  1.60632223166722165608
                 -0.00405848290865696171
                 -0.92291438841860096165
                 -1.57011763643585777750
                  1.72921451368772527424
                 -0.20672444369796910690
                 -1.15174677178158613167
                 -2.79590191787118325095
                  1.87592506446912810070
                  1.24602633817252228532
                  2.36482130876532048447
                 -3.00673349081650620462
                  1.59594578958760968668
                  0.73713671931701019169
                 -0.18445369073463063758
                  3.59531258348923898893
                 -2.17127026105829923353
                 -2.99062096870728266751
                  0.28205768040767986715
                  2.34458322996986634479
                  0.88338138118126485754
                  0.11778701471573232995
                  1.38487484478576527991
                  5.12707842444102901425
                 -4.99751740652245768359
                 -0.45389260740428361007
                 -3.30893294814231708756
                  2.40651225969759163803
                 -0.69831539816365095774
                  0.27941037709683097523
                 -2.73895442746354778052
                  2.86583940483290611212
                 -1.26700411463702611314
                  0.70028902066136045068
                  0.70378226465603377360
                  0.68789433169686087233
                  1.71137029530456841186
                 -3.78954164334102427958
                  2.40482406654241698263
                 -1.65657065152183524681
                 -0.68493526787318737004
                  0.26930038909708947648
                 -1.81717885549574931225
                 -0.36886234347978175130
                  1.66157986129246837415
                 -1.26455470960335247810
                 -0.81749126157404772286
                 -0.46516128952629814952
                 -1.29272710319746297891
                  4.07477389365790987341
                  0.33457370701628846854
                  1.18324173862078829700
                  0.45746946077882860715
                 -1.54866961296171079532
                 -2.45169118728680857089
                  1.73618631390427968775
                 -0.96531103292797437732
                  0.34292015465426434195
                 -2.37000914186344457946
                  1.69047329734871842888
                  1.37797546611257470950
                 -0.41794592189461293730
                  1.43322903383589261850
                  0.20468629395265738879
                  0.26833119560624868472
                 -1.90212307298242255804
                  0.68760044101097284042
                  0.60628699347503234307
                 -1.95246217216299844388
                  1.68244567118549914753
                  0.96861917976147948739
                 -0.64039712012257166140
                 -0.92378342676922742260
                  0.62117779968124331447
                 -0.31677090120501422144
                 -1.55349532084749153427
                  0.49451737716054883220
                 -0.41618875000431720945
                  2.18524283516653738957
                  0.87466227824337017260
                 -1.47921342144415901565
                 -1.88989246934044108350
                  1.12532605854346590135
                 -0.82839424358657465230
                  2.25514370136224373553
                 -2.22484412880041126925
                  0.80665305802389086764
                 -0.84966433092481841172
                 -4.35949999343778493710
                  3.30185759450713689489
                 -0.69260500360905763451
                  0.70446469812259959742
                 -1.45776391401481819621
                  0.54719211457482630490
                  1.77906977784647790664
                 -2.85782606899793467647
                 -0.13702465238521835400
                  0.80278364184367090317
                  1.51249401383214077121
                  1.36065591086919268626
                  1.16199816850411585811
                 -0.18328289423555080284
                  0.42001532022676768552
                 -3.61425684465178909122
                  5.72986487979718628338
                  3.36319198388132400979
                 -3.08731817034077771211
                 -2.77319366934817868042
                  0.58263719658588819517
                  2.75740300181426611914
                 -0.25835930728674605383
                  0.01868315757369421251
                  1.81989833537612910597
                  0.10649895996399984244
                 -3.81508170546357794350
                 -0.94547943973551418217
                 -0.02701540014295385206
                  0.40055473113232253901
                 -0.32788787819092213294
                 -1.53505964103368119922
                  3.41272127137077463388
                 -5.58829257467699669348
                  2.36905562382348122696
                 -0.49999967149628299357
                 -2.52511930987015276173
                 -0.13611285560236668912
                  4.49185542269582516184
                 -0.24426695256320704597
                  1.36515509675111723631
                 -3.69720905699686053225
                 -3.54776285003246494298
                  2.57754614391114822425
                  2.02757330107377375938
                  0.11291314323815704324
                  1.10572922832574027652
                 -1.51978364558193468348
                 -1.56394143357568782271
                  1.04157375267035123834
                  0.67062803252742220206
                  1.84450498572404542053
                  0.45268589825011906758
                  0.79677694573155499747
                  0.24470861626307563452
                 -0.90547606486668474890
                  0.43964470868614080601
                  0.35809277146087253874
                  0.97029198918484937941
                 -1.28542808881493031414
                 -1.41158209909461529463
                  0.73096140251702035329
                 -0.62153251220395633325
                 -0.93529189735429774100
                 -0.21545721037449330759
                 -0.16389354699720637409
                  0.64100537268553148262
                  0.29717163647646355207
                  0.26474383980108767700
                 -0.65253133179637368144
                  0.75151882537255754180
                 -0.19513126990279699990
                 -1.51042516158596096254
                  0.40354602282939761038
                 -0.27982411116058436562
                  0.41730089186465368911
                  0.15022487794600314359
                 -0.93479261810253455600
                  1.68920968419389172510
                 -2.23955311161478842763
                  1.83561542658008458595
                  2.69195556807796831933
                  0.38129609190850333178
                  1.21563268570269467084
                 -1.09664703420738574025
                 -0.25323521289702255466
                 -0.43851555634644534543
                 -0.23729124561383663217
                  0.45913902354231733716
                 -0.45560093437807636096
                 -3.22860017665071596937
                 -0.05241710641308751362
                 -0.24927267046631707004
                  0.80180417471998111090
                  0.50449551195391562075
                  0.77741123652794219545
                  1.30932095868652442761
                 -2.79775126772932969388
                  1.30000243568242757064
                  1.89955432304445581693
                  1.56554524466520428305
                  0.49533435802323821928
                 -1.97087669970992318547
                 -3.11754972842319988402
                  2.32825367874399979939
                  0.33384643321088358636
                 -0.36102998951314035914
                  0.54588004177567939212
                  1.36842795237472825143
                 -1.38914575865378298047
                 -0.16813905300674156229
                 -2.10563312425125248595
                 -0.92647904978682293908
                 -1.75559758263443810300
                 -0.28135959180165320825
                  0.39945773879078744217
                 -1.18877766692212549771
                  0.12672985406897654959
                 -2.45935030556166456250
                 -0.02307897012985078364
                  2.64163440229610779753
                  0.24594845441065785185
                  0.42855652375265368415
                  1.07961614638549274758
                  1.84545083515683350228
                 -2.02112550680733127351
                 -0.44137189056173692370
                  0.23347943310522428773
                  0.90863830047738980422
                 -2.05550761447577023944
                  0.24415120347576374504
                  0.56382467418180115537
                  1.30901935267615643355
                  0.38475327448765722638
                  1.48137160839527526335
                  0.52725056228273714520
                  1.25533571355584050444
                 -0.79968681599556989958
                  0.74928493919756156139
                 -0.31247244014850650284
                 -0.60411420330831999692
                 -0.67420063048039557962
                  0.06202222993881868068
                 -0.65971231698237042806
                  2.02677708568573589076
                  1.07865306690472251283
                 -2.37158328675866547641
                 -0.40155951544157686417
                 -0.53570138417465762437
                  0.74193963598422507655
                 -2.62751852693883192202
                 -1.07236126254188168794
                 -1.13547641262381704408
                  0.90361087063268574759
                 -2.36348494769174388708
                  1.35374587217837372144
                  1.89459760597550808114
                  6.51308534810289074812
                  1.21752356101260739152
                  1.88041337177386824742
                 -3.31924172760714730757
                  3.87654803134820369337
                  3.43578600266528599860
                 -5.15006494752970311879
                  0.66306961029338773450
                  8.73545508316558994011
                 -7.31019966424809730654
                  3.05872192454106706094
                 -8.29926485996605833861
                 -3.32998523200295615254
                 -1.52758927056103321895
                  0.13754120750713466625
                  5.96287450970992161103
                 -6.41399056866720407299
                 -1.97400062410538246205
                  5.82407669281503626024
                 -1.10870598078416726651
                 -3.24360907209495064052
                  2.59332438550223942642
                 -3.65432618195580083409
                  3.29028864848544078114
                 -1.34713186315881894295
                  1.68023198659354933149
                  0.34209682829036003326
                 -0.57048525415533168914
                  2.68637871246619441834
                 -0.24877754693612985637
                 -2.38220078192823114804
                 -4.86953824382484867783
                  5.29319113779961725186
                 -0.76770655417695943257
                  4.64564159760770500895
                  2.22646819375962978782
                 -0.07317001144520293709
                  2.85624466137998611615
                 -2.30111551811797721001
                  2.58966321384705677744
                 -0.38444645269660771003
                  3.73833899302594119263
                  1.05168299842764945140
                 -3.90048318605548116622
                 -2.59000739267508706121
                 -3.14024171291930098704
                 -0.11229260033196016011
                 -1.33378737694770865829
                 -2.72598297036821124451
                 -3.23098284733505858313
                 -5.18333017427758413476
                 -0.83932399572034432911
                  7.02681265944806110468
                 -0.05435597079494222661
                  1.66452734969406823673
                 -3.61320792750500752177
                 -2.55566135571847219410
                 -0.70738601587581173558
                 -4.75650709653787462372
                 -1.06043284523613579040
                 -0.18161261339077630628
                  4.50202645250738164862
                  0.23514939387917427327
                 -2.08945820772267021326
                  0.56979661318490959498
                 -0.65779642947660232899
                  3.46697746674536189104
                 -0.51548964840091648920
                 -0.51773867040434029541
                  3.85924614471844851238
                  3.53456277388885808932
                  5.40708728176135799970
                  0.00337988881278064720
                 -4.57123164303790652241
                 -0.10093450320661642716
                  0.26997977975931702899
                 -0.17453348213630806574
                  1.43713487146655016780
                 -0.10376284561064007261
                 -1.95098625994867624911
                 -1.79445608427378866523
                  2.83516813471585882311
                 -1.00770945031115966017
                 -0.72508987277134906435
                  0.41738758434912059947
                  0.64208678096663163171
                  2.09673889010273351019
                  0.31736852069939514021
                 -0.82202664794288848871
                 -1.39830999774601894003
                  0.26453792408793336266
                  2.01174309104729509556
                  0.79916624361823751510
                 -1.98575329163708325098
                  0.58762062713221829835
                 -0.88145821731636531116
                 -1.65790450055452032174
                 -0.07376389621704072808
                  0.90439236476749196303
                 -0.18546381861193955709
                 -4.07348458986368822110
                  4.82173999608266168337
                  0.83160957425360171325
                 -2.30597121543375793706
                 -0.68790955927227614985
                 -0.05156644239057538853
                  7.84666373063858912928
                  1.41061011834476568438
                 -0.93019655881983975831
                  0.44736117700329347535
                  1.43487136674851778473
                  0.20787751906066739838
                  0.57939659913045571393
                 -2.44264169070156800245
                  1.14505036661489412175
                  1.64163409911971003297
                  0.83473134764219625303
                 -2.02586210333082705759
                  2.77131251300185921238
                  0.03249196606841581875
                  1.85912627088219051252
                 -1.88358615509521887255
                 -1.00604123287590740965
                  0.02463487226215492140
                 -1.53442136002495121971
                  1.07972813923080268594
                 -1.43084944483180587227
                 -0.58868703286065016123
                  1.17375224165977631863
                  0.85575598100309269167
                  3.46528919302567395277
                 -1.34068738208653392974
                 -2.17893231760042649370
                  3.72718013285659210965
                 -6.19585956591041320252
                  0.99480565282302146901
                -16.88737329578144041875
                  9.26540316741636793552
                 -4.73412144769252218879
                 -7.82030966576673147728
                 -7.03591883906858139852
                  6.98606695016063650172
                  3.33244700623865819367
                  3.51451734076906108228
                  5.26945654328739809813
                  6.62716433135189397774
                  5.65298134749283676115
                  1.79227924036648933459
                 -0.16026546550054912577
                 -1.07223756250060375805
                 -6.62113790627008835799
                 -0.27232831794955181248
                 11.34566151797768007725
                  8.59531738015327029245
                  0.08517360312778345099
                 -2.39381417098212567751
                  3.84764952561864115310
                 -0.78863124347957624938
                 -1.03369358103574193741
                  1.12181544293791035649
                  0.08693265076681314096
                 -0.01853810883645010468
                  2.73271046133744777151
                  0.32079151027970170817
                 -0.52649825520711102111
                  1.96724481928129057984
                  0.93327737706738811418
                 -0.44368342695680940135
                 -0.81266979999630062359
                  0.56854584674678676492
                  2.13611651184611073262
                 -1.93661618465911411491
                 -0.88548038828668451661
                  0.70268318179292177383
                 -0.35933979013679562264
                  1.40790747041612007706
                 -0.19153070748289777181
                 -0.31815768726736748384
                  1.21779730782226880414
                  0.27431237758516774372
                  0.20213273532011141742
                  0.21027479657646916400
                 -0.12117265115102766881
                 -0.06500001884395252560
                  0.52529019416977107415
                  0.29377673283561656081
                  0.76889791880848390448
                  0.50474457464656652395
                 -0.86810745171183134605
                  1.32909458638050592683
                  1.52646293094092899700
                  0.46822977031758700184
                 -0.15642453183706567232
                 -0.44586058413514084720
                 -1.98309101523927577837
                  0.60672208475306410591
                 -0.99083578537242678053
                  1.54742785310549613165
                  0.90743181012431317622
                  0.11105508273142417064
                  0.52882459581178331565
                 -0.75949737502089476049
                  1.74591754575865865107
                  0.00005123552421608621
                 -0.35369295998988864449
                  1.44027170585281982795
                  0.56574392576558740764
                 -1.64281159818029820485
                 -0.18263423362837694075
                  0.44323887428869379601
                  0.04509580259072448055
                 -2.26687010001041322482
                 -1.86623909553228917169
                  1.25195418275950065556
                 -1.46743438722464447643
                 -0.60275420246259903134
                 -0.29722914708483055835
                 -0.72739590012486576853
                  0.62705177628917674326
                  1.17003169154121833273
                  1.05830241063137653335
                 -1.07925719591088342675
                  1.91589453957184607802
                  0.73692740301450798679
                 -0.94065358256766951062
                  1.07976351511664936389
                  0.89832600146786178996
                 -0.89245563849113584975
                  0.15263046605347363460
                  1.73262462432569575022
                  0.55214195023338996648
                 -2.25105047490149701161
                 -1.56564950149396708845
                  0.86742703864532766378
                  0.19543113545139620402
                 -2.60770891600780352348
                  0.53433954555126417230
                  0.19700539652548310077
                 -0.08967349289654447109
                  0.11446498415364327050
                  0.87751750966952601907
                 -0.71609686477628831103
                  2.52222237716331587620
                  0.50245694860922307523
                  0.14861933521418613235
                  0.12943100273787064292
                  0.77863889939017594255
                 -1.08644925714318985044
                 -0.13463912141079098506
                 -0.88621350717734792557
                 -2.17555608661412991367
                 -1.77644848105386810033
                 -2.37301005079976468082
                  1.11156466223533012538
                  4.84449093611736270049
                  0.83678102847295543487
                  6.37673901281809030195
                  3.39205668934954251981
                 -4.86728205696658022816
                  0.54883813913421641839
                 -3.84280397925036210083
                  3.02417346900451100566
                 -5.35697005342156629126
                 -3.55296592072472172674
                  1.92362454457931120189
                 -1.03472185380985304270
                 -6.32647973313782596705
                  3.12655127980328106929
                  4.11583722947859520502
                 -0.07874039487477836607
                  5.61228629509782628304
                  0.36916086625710464730
                  8.10726198521268948127
                 -7.79396448071997216545
                  3.69416893441712579360
                 -1.56570698994429502449
                  1.89454375615798431554
                 -0.18238528802762193903
                 -1.72570890162413137503
                 -4.74612186982855632778
                  0.90703398297244652859
                  0.67670397241303270608
                 -6.90605284214816794730
                  1.81306998664146745703
                 -1.42424074908177789034
                 -3.85429622624960366295
                 -6.39716726087385190169
                  1.60435052745101081051
                 -1.02874006601110679071
                 -2.49116644507178275347
                 -0.86159539464770740214
                  3.52383368722684586771
                  3.72663118260773273960
                 -4.42666431627731427056
                 -1.46438086782503207317
                -12.20813585126591149788
                  6.47604809732696917735
                 -4.91307463076361905507
                 -0.72764868510429436821
                 13.89940339277128167339
                  4.41580695402364931113
                 -5.19756452156197834569
                  5.82992575548851910128
                  3.90745869078793095497
                 -2.77113388847890629307
                 -4.01336532225691300368
                  4.57398970116356196058
                 -1.63966797038927714070
                  4.53068629040947357112
                 16.00052173072806382947
                  3.61127278733446166470
                 -9.71257587813895462148
                 -2.78972599345779492808
                 -9.91487933706234159104
                  2.29529606026676846753
                 -2.87544334664534861901
                  2.92606044612807014715
                 -4.10861169845698714909
                 -0.50606765107709938967
                  2.62964927068182152681
                  1.77527018322909757586
                 -2.28254042518825261965
                 -0.21945183465081860574
                  1.39381162191545060480
                 -1.04606207355196367814
                 -2.75721292711891230454
                 -1.70057554742617367260
                  0.83681955071538138835
                  0.51510316657034715959
                  1.48727723551664858803
                  0.58071072481920038566
                  0.41893618517869962714
                 -0.28236859846169543031
                  0.46362101601072852608
                 -4.06926996319604228347
                  6.21977546907854339509
                -11.10523553835857946126
                  2.28861293647033336995
                 -3.16120350647073422579
                 -4.30214957694537236677
                 -4.92834007953788155731
                  6.52135377627127610367
                 -1.62597848523304522317
                  0.16437064890190133948
                 -0.28042458074277987201
                  6.95186167052582337789
                  5.20550786968203116345
                  3.43573828656122381986
                 -1.09638948424085280742
                 -2.33077469279827109716
                 -3.41661254219021470746
                  6.29364155876241504473
                  5.73205178166114048821
                  9.10836754114331448307
                 -0.91801104548971257380
                  8.96776302613421805177
                 -6.03539391121297352782
                  1.40181462430894465676
                 -0.23663789212057620426
                 -5.84594386289503376020
                 -2.41352641586779714800
                  3.12771198502802594277
                 -0.97938717786935824972
                 -1.89693511566832828663
                 -0.69382676472492077480
                  1.62822251800182660197
                 -0.15732889594655113941
                  3.06160136595886944733
                 -5.72019347748234974205
                 -7.54644267901832499490
                 -5.20753188910753017637
                  6.02429817517312748976
                  1.52070682759265141115
                  5.93472678480853943483
                  1.59369873720637889036
                 -0.57298634906184253701
                  0.96205847876983774380
                 -1.81426392556962201574
                  0.14500485918003960806
                  1.12825130323793842990
                  1.25941980160800537369
                 -1.69627510988328156216
                  0.10012463362337510608
                  0.57028490095995287845
                 -0.68729948071420599032
                 -1.74025756505777851046
                 -2.05760609015753237472
                  0.74622031393347421080
                 -0.02610516451021866607
                  0.18977735454684555028
                 -0.40255443418290226543
                 -0.03383135398886694123
                 -0.22256880808574244779
                  0.50751300331671223010
                 -0.36006707227790524239
                  7.45542129966929589813
                 -8.32843320690627919589
                  8.62696041439221161795
                  0.14518853757979646724
                 -6.30673801262594224681
                 -5.63904871005274266338
                  4.89063250617557887523
                 -2.07436278264957296713
                 -2.39297423718330115605
                 -0.48388513333378913028
                 -0.19667431938987542384
                 -0.46653464147895218339
                  4.40340798314562409388
                 -3.41976517010593417112
                 -3.86918510359929568310
                 -7.46089737810325726031
                  5.96922991377552403236
                  5.85081456320450499220
                  8.83526784772735496176
                 -0.03011856094858939362
                 -2.13525467911380717467
                  0.78652773564954914232
                 -1.22173629037843034517
                  0.56614265541808561633
                  0.31743733214159991496
                 -1.54583034265116969763
                  2.44057118364061453875
                  0.46408233380385943700
                 -0.69530780106983636202
                 -0.18073126404580730497
                  0.29680425323265618998
                  5.55005437139374802058
                 -0.31355643353450679545
                 -0.00912125768423736015
                  0.80734007078264558022
                  2.10020048839633899362
                  0.58132561369107038640
                 -0.86154633840209571272
                 -2.18891818466806853394
                 -4.70738336532092382924
                 -4.72800413971769106780
                  2.41806548185842640208
                 -1.37401533624818905643
                  0.42916290329531253667
                  1.85294962785390793236
                  6.39652567486396428365
                 -8.98186091287347210255
                  3.79547603541712241793
                  4.03424613331696946261
                  4.60935376104439065159
                 -0.16791491698106364439
                 -4.96191099007274782906
                 -7.91882710708332382410
                  4.83097309028039134660
                 -0.41817754133285128804
                  0.50363573153765306412
                 -1.45525184410195285167
                 -6.64535490081042379273
                  9.03810636968918856837
                  8.09417506850206791569
                  3.12319778230746747383
                  1.38118430637602163102
                 -0.82167404230342422355
                 -0.28335897110718755165
                 -8.77171640326403156962
                 -0.66710224181636923468
                  6.00790069810306714970
                -12.53852931666795278431
                  2.40376339142256423287
                 -1.15607452834121571250
                 -9.94915431860558641119
                 -9.59782434354797864273
                 10.28679415863002333253
                 -4.07736648009844326879
                 -5.10006092591575654893
                  0.14274317081897586190
                 14.01236941843790262396
                 10.85460180245870809301
                 -7.47255281610935373493
                 15.11667833111509473554
                 -5.20002102598288740154
                  6.40130573399899382991
                -20.24551646756432177199
                 -8.02366131379219460484
                -12.35340419727789829096
                 14.73333523258576782666
                 17.98680011251310872922
                 -7.95304935230574905347
                -23.26560742669289894025
                -13.22676561421562446696
                 26.45542928435883212046
                  6.65612552109519572952
                -15.13621954175480510685
                -20.51591360333194202781
                 15.25244870757750526025
                -29.13213349101982174716
                 12.17631216147236905556
                 29.34694536425504551858
                -39.70084579997813278851
weights2
82	2	1
20	20	
1	2101
  0.2689652000000000	  0.4449430400000000	  0.2813462400000000	  0.4366016400000000	  0.0743800950000000	  0.3587298300000000	  0.2656466915000000	  0.1749583300000000	  0.1495702565000000	  0.0981912215000000	  0.1001744700000000	  0.3477362750000000	  0.1145969750000000	  0.0782610205000000	  0.1136775000000000	  0.2048819640000000	  0.0638965450000000	  0.0211057815500000	  0.1037243295000000	  0.0221429750000000	  0.2562567950000000	  0.1750754995000000	  0.1580883570000000	  0.1152144145000000	  0.0385548545000000	  0.1063629025000000	  0.1455658485000000	  0.0874026230000000	  0.0578430685500000	  0.0114338065000000	  0.0778649250000000	  0.0439999925000000	  0.0688384225000000	  0.0220673875000000	  0.0883907200000000	  0.0401155215500000	  0.0497313615000000	  0.0034830589000000	  0.0084268175000000	  0.0443406280000000	  0.0806483610000000	  0.0498627830000000	  0.0240919119500000	  0.0251586015000000	  0.0141144940000000	  0.0085715200000000	  0.1181920345000000	  0.0783009600000000	  0.1386643200000000	  0.1390293000000000	  0.0444241255000000	  0.0674135965000000	  0.0444849380000000	  0.0809686610000000	  0.0410574825500000	  0.0232867770000000	  0.0275648200000000	  0.0865321910000000	  0.0274775860000000	  0.0215505971500000	  0.0544803350000000	  0.0503506718500000	  0.0291015045000000	  0.0507443918500000	  0.0154594370000000	  0.0164656440500000	  0.0514355768500000	  0.0166710800000000	  0.0569098810000000	  0.1150357785000000	  0.0704670875000000	  0.0686794430000000	  0.0425507765500000	  0.0053732645000000	  0.0431821520000000	  0.0182598370500000	  0.0411627674500000	  0.0114113740000000	  0.0392591214500000	  0.0487552490500000	  0.0395747725000000	  0.0237701040000000	  2.4983916499999999
  1.2919083000000000	  0.9103000600000000	  0.6301504500000000	  0.5952795599999999	  0.0743800950000000	  0.6760856700000001	  0.3378324085000000	  0.4383745000000000	  0.2217559735000000	  0.1378364285000000	  0.1001744700000000	  0.4559485950000000	  0.1145969750000000	  0.1230969095000000	  0.1136775000000000	  0.2541098860000000	  0.0638965450000000	  0.0248382404500000	  0.1283382905000000	  0.0221429750000000	  0.4583913050000000	  0.2291816605000000	  0.2480985130000000	  0.1398283755000000	  0.0385548545000000	  0.1474281275000000	  0.1679606015000000	  0.1552842570000000	  0.0669236314500000	  0.0114338065000000	  0.0778649250000000	  0.0439999925000000	  0.0872875975000000	  0.0220673875000000	  0.0883907200000000	  0.0485084154500000	  0.0497313615000000	  0.0034830589000000	  0.0084268175000000	  0.0443406280000000	  0.0974341490000000	  0.0498627830000000	  0.0279100050500000	  0.0251586015000000	  0.0141144940000000	  0.0085715200000000	  0.1587468255000000	  0.0783009600000000	  0.1755626700000000	  0.1759276500000000	  0.0444241255000000	  0.0903651035000000	  0.0444849380000000	  0.0977544490000000	  0.0494503764500000	  0.0232867770000000	  0.0275648200000000	  0.1033179790000000	  0.0274775860000000	  0.0267768478500000	  0.0544803350000000	  0.0579868581500000	  0.0291015045000000	  0.0583805781500000	  0.0154594370000000	  0.0182025699500000	  0.0590717631500000	  0.0166710800000000	  0.0828329190000000	  0.1670762015000000	  0.0889162625000000	  0.0918054570000000	  0.0509436704500000	  0.0053732645000000	  0.0536742230000000	  0.0199967629500000	  0.0449808605500000	  0.0114113740000000	  0.0440768625500000	  0.0522291009500000	  0.0571167765000000	  0.0248222310000000	  2.4983916499999999
                 -0.10576919538107273921
                  0.59588044894145097974
                  0.22871548124310556172
                  0.23994850779598503321
                 -0.53542895814686464195
                 -0.26659097850899438065
                 -0.44018650957155430747
                  0.13403097634410590655
                  0.40000180623931114177
                  0.12547975091783758472
                 -0.04799660546567959679
                  0.35296340446949214797
                 -0.52730767410855938770
                 -0.56567158704106001998
                  0.03052971643308789382
                 -0.17377598732477000931
                  0.70017438118440278316
                  0.04957138763480863075
                  0.48948014407680340287
                 -0.12668625909025349463
                 -0.35136881283605109205
                 -0.19734056599796270803
                 -0.38748828080560016041
                  0.20620298991820579237
                  0.21060109499066181904
                  0.58115359133434629779
                 -0.52982473493255943797
                  0.44200937747363727715
                 -0.40554098082963813132
                 -0.25621676210872346147
                  0.93886281047627706542
                 -0.21400808563265702467
                  0.35842650839119533090
                  0.30945955097874655593
                  0.56885170996352363293
                 -0.44724272660048358663
                 -0.50398030793882375722
                 -0.02252211358067990679
                 -0.25785174778407532470
                 -0.92678876028391810049
                 -0.03275972254596462574
                 -0.02440499971950114977
                 -0.21507588605229863155
                 -0.25913807948568567951
                  0.55390977322900014634
                  0.49718565568866091020
                 -0.41569203032989687774
                 -0.62226399909371321595
                 -0.04121099615147848227
                  0.23342005313278663126
                  0.44111825214413147300
                  0.43259014522518995927
                  0.42143238132805371787
                  0.52755404530124039297
                 -0.48673594120161151055
                 -0.16027854256421938950
                  0.11521367928690044724
                  0.09528513630750541641
                 -0.23805991150302147075
                 -0.25477771994962417068
                  0.37972765436858102461
                  0.34612273226375311896
                 -0.27146778941857335754
                 -0.07568008770914501360
                 -0.19902895853359098277
                 -0.00689683086692006748
                  0.12310002461103061733
                 -0.26927583088184214866
                  0.08701091019848031238
                  0.26341467226136217050
                 -0.21307172891848291663
                  0.18452872031665451535
                 -0.16188614894078315332
                 -0.02995382378821173641
                 -0.40424320078624415009
                 -0.00006947160229337316
                 -0.22401147686392769431
                  0.16181544377959247716
                  0.33528060963137296113
                  0.31907205050909503985
                 -0.33526423766953178385
                 -0.13464126246876748083
                 -0.70509343874928931406
                 -0.04542772880670407215
                  1.67678792656466679745
                  1.29921135887048944113
                  0.65434850848364978226
                  0.51791265389854412859
                 -0.17253671310131551975
                 -0.38454546862079119762
                 -1.87455506427779594603
                 -1.00467710540419852272
                  1.94272295272999628857
                 -4.49590831221807718521
                 -0.71325909288285549437
                  1.61176499494768643572
                 -2.61792774197431832306
                 -1.11222128944061537936
                  2.12664004375292536864
                  0.04635357024221530009
                  0.07952390442266518700
                 -0.17684882824121722633
                  0.21576775844929443893
                  0.04559191993055585618
                 -0.65698545081593373585
                  1.64991531602019558811
                 -1.43122306045147174025
                  1.71991730740749826367
                  0.30196839829782828879
                  0.22340465351578228659
                  0.28368528342424903510
                 -1.40308159912216323661
                  3.40636626992786029078
                 -1.12321701932920614553
                  1.45545012462776091056
                  3.12423869869749282202
                 -0.51722998263143882269
                  2.05498289713114967725
                 -5.27533640980061235837
                  0.25307529891536650890
                  1.94547725833227502790
                  1.68619312296760104353
                 -1.01641867029110111176
                  2.42475671862358455044
                  0.28602117565127760379
                 -1.56171337859819892024
                 -1.47864417349389110079
                 -0.98998709726925249175
                  0.75775784661950351673
                 -2.05126670377899467113
                 -2.76309932329403284967
                  0.32540009512037143535
                 -0.84355032742406033108
                 -0.75281588093189943933
                  4.43853911566642622688
                 -2.16696461106207882708
                  0.19929869052731299939
                 -1.47300068022449215377
                  1.83982892753165572231
                 -0.34139067194001332384
                 -1.33673292634925222622
                 -0.90207515454628617313
                 -2.52188662189920709267
                  1.31429784351105594098
                  0.22939947654349640560
                  2.55480396242273144480
                  0.89178844443537441666
                 -0.49078741148162718932
                 -0.81788478448019252820
                  1.70128605500952079232
                  0.20670640107554871800
                 -0.32303736034574725977
                  0.48961322906250698273
                  1.34687832075377000862
                 -0.55338085656992719308
                  0.16466011774902089559
                 -0.59996931423122334959
                 -0.09693110965104088927
                 -0.60198367615868730862
                  0.39684560799803109132
                  0.36400456608301101635
                 -1.34318025566289933614
                 -0.15856174310009796269
                  0.30805475646832813919
                 -0.48464655076408030832
                 -0.27319387365910258181
                  2.07741498005376312719
                 -0.52125273548711059668
                  0.77100129048722965130
                 -0.70115633390786102908
                  0.18610914003545980799
                  0.01609982979594398386
                 -0.58462239142234229128
                 -0.33369077222876997180
                  0.52648431189513489326
                 -1.65188248474118393183
                 -0.86530459879553833780
                  1.34759647349859856824
                  0.18551558644722343505
                  0.62291218275354587330
                 -5.73115705069796277371
                  1.85865122089038714570
                  1.12892880051543165187
                  2.85283025214099161815
                 -1.95954236188751007575
                  0.53151776756121982270
                  0.09171291154868083106
                  0.66532366166759970838
                  2.47172847736003920005
                 -0.22896883197013101485
                 -2.36994139025579020341
                 -0.07779962674732304739
                  0.23996131258556621657
                  0.50962119200535749286
                 -2.67273218081296271009
                  3.64201175499987916950
                  7.31698582037170197623
                 -3.99299041739182092314
                  1.10217541071210267667
                 -4.57735977937723514941
                  4.06472813168829993913
                 -2.73490292719173799796
                 -0.46943968991844864380
                 -0.75819493615212629756
                  2.35926292467130238606
                 -1.26647869537290991282
                  1.67728167945713302345
