                 PES-98154-qsub2/15-80-3/outputs-3
                 -0.98711581683695970302
                  0.64047673890246492601
                 -0.26332325930159866667
                  0.01708918130492572546
                 -0.40127562633997965191
                 -0.74762350309392933134
                  0.41191447649330303893
                 -0.14739569392022647265
                 -1.06092002887837510983
                 -0.76856826813056022818
                  0.92949817774669463155
                 -0.43249409097328078699
                  0.68957323220943356201
                 -0.36725665865749579364
                 -5.71756706644660273042
                  1.06431267464612333562
                  0.08588962733475345723
                 -2.19944620203794949376
                  1.63331830960300128375
                  1.54430995162275896959
                  2.16913107824096140774
                  0.47597210674565670896
                 -0.05118717021415485069
                  1.24464472866046693689
                  1.09349134774324374675
                  2.29982467604672846662
                  1.15427757500982486327
                  3.21711739440340060980
                  0.53415985156436751602
                 -6.74433990887233036915
                 -0.65645443215017484917
                  0.99771335952397055546
                 -0.38139586851609175167
                 -2.38828765673931409097
                  0.03076153312525857497
                  2.12141984766639435378
                 -0.52179111630901986452
                 -0.33374777194608723496
                 -0.76255872235266886072
                 -0.03780658909649646515
                 -1.21178092538119397403
                  0.01633813834797552891
                  1.76709399659875621147
                  0.73265176453335278950
                 -0.85013915086819114020
                  0.27760011501966358471
                 -1.93615396734528122380
                  1.56030888592700867079
                 -0.41462231353158612857
                 -0.33555051193421436828
                  0.10616426896883485176
                 -0.90646490126837131474
                 -0.23397277204441016552
                  0.39486246539750846640
                 -0.22531152355335881676
                  0.25840146040183176179
                 -0.21211921782216996979
                 -0.34059370702217811600
                 -1.59326561194819493750
                 -1.06672854533513983277
                 -1.21617895466935621585
                  0.04093697534836985424
                  0.39658719895282129597
                  1.01577819922994638802
                 -1.26775266484179893745
                 -1.68641083104587474750
                 -0.48316320820723068774
                  3.40211425410702172911
                  0.18648055697842355616
                 -0.75526239389110128020
                  0.41472977132624883057
                 -1.43503671024141299384
                  1.11206824098083134622
                  2.41874308923730207965
                 -1.15523377354863221456
                 -0.62344841566707764891
                  1.75789833014814389500
                  0.73665695366082140083
                  1.03731951443700931570
                 -0.27353791935839644189
                 -1.54859026631208562819
                 -3.73492102260691316573
                  1.83048490472943736762
                  1.82640140698274255904
                  1.85992636925781473778
                 -0.92296536098684778260
                  2.05286652050802986835
                  0.88842549922539149065
                 -2.21475940814651961475
                 -0.08440389248758928264
                  3.43131637172968462224
                  1.13400991191967337457
                  1.33547855343780241810
                  1.12396234828853769372
                 -2.07482254219721662380
                  0.08462120905560256701
