PES-98154-qsub2/15-80-3/outputs-3
207	2	1
15	80	
1	4481
  0.8327741850000001	  1.4300165999999999	  1.1802300299999999	  1.9336770800000000	  0.5490195999755055	  2.0902248700000001	  2.3279443999470097	  0.6319578600000000	  1.0484059250000000	  0.5659912499890797	  0.6544756499656741	  2.6338260499384218	  1.3067129999562983	  0.6277642640000001	  1.3782216999828381	  2.7658829499678066	  1.3651436999862463	  0.4875580850000000	  1.3965994999870504	  0.4778553900000000	  1.5893120000000001	  1.1779678150000001	  1.2793400749999999	  1.3584508949999998	  0.6854865499891992	  1.4426368820000000	  3.0774921999710805	  0.4566985450000000	  0.7950609550000001	  0.0928987000000000	  0.8541175999929844	  0.7734353999899100	  0.8541175999962477	  0.3869436749913366	  1.6302576499895731	  0.8169168999999999	  1.6187216999919429	  0.2003101650000000	  0.2887606250000000	  0.8227603500000000	  1.6502865499931489	  1.6304354999920050	  0.8716687500000000	  0.8488717000000000	  0.8486906000000000	  0.2884644350000000	  1.1147843999884253	  0.8541175999679015	  1.7082351499749231	  1.7082351499809030	  0.7893289999740100	  0.8183707020000001	  0.8272659499895736	  1.6686567999812130	  0.8509777999929978	  0.4302372549935216	  0.8132050499935766	  1.7425116999784427	  0.8183107499872699	  0.4318917865000000	  1.8191984999900570	  1.8184057499900566	  1.7048494499912925	  1.8327973999956664	  0.9024523500000000	  0.9742547000000000	  1.8542894999956632	  0.9379769999999999	  0.5319009415000000	  1.0615944500000001	  0.7767020300000000	  0.8170685815000001	  0.8195695350000000	  0.2022247050000000	  0.8814592465000001	  1.0150265999999999	  0.9780281540000000	  0.4544230049956702	  1.0259733129999999	  2.1422556499850658	  0.3191521200000000	  0.6027241455000000	  0.2803803500000000	  0.4554033299973945	  0.4791127900000000	  0.4776885200000000	  0.9674002500000000	  0.4844810950000000	  0.9614559499999999	  0.9620291999954161	  0.4767551050000000	  0.4841226000000000	  0.5140964500000000	  0.5163808000000000	  0.5002159000000000	  0.5024020000000000	  1.0082032999999999	  0.2483754150000000	  0.5097542500000000	  0.5093499500000001	  0.2439661350000000	  1.1215213999925864	  0.5607607000000000	  0.5607607000000000	  0.9300348999945527	  1.1215213999962099	  0.4655552749896956	  0.9747536999939924	  0.9797713499938140	  0.9807372500000000	  0.9738320999953217	  0.1731782050000000	  0.4916705400000000	  0.9907287999963394	  0.4991682600000000	  1.0007299999963342	  0.9888436999953473	  0.5277871500000000	  0.5102003000000001	  0.1768154600000000	  0.2402108650000000	  0.5098706999960134	  0.9655788499926936	  0.5162021999988418	  0.2430187449963896	  1.0708243499945087	  1.0093799500000000	  1.0133404499954248	  1.0785632000000001	  1.0763419999999999	  1.0123743999971002	  1.0660942499999999	  0.4989366350000000	  0.5772536500000000	  0.5764489000000000	  0.5348062000000000	  1.0909363000000001	  1.0895308500000001	  1.0225907499970983	  1.0982297499977056	  1.0818185000000000	  1.1651058999999999	  1.1071307500000001	  0.5241632500000000	  0.5561355000000000	  1.1207232499999999	  0.5691982500000000	  0.7318983999971068	  0.7318983999942135	  0.2803803499930511	  0.5607606999809105	  1.1215213999866347	  1.1215213999952789	  0.2718288330000000	  1.1215213999897802	  0.4830794299845433	  0.5432203495000000	  0.5025385999940307	  1.0203066499892368	  0.5255006999961751	  0.5141302499961472	  0.4894961149962949	  1.0394997999920228	  0.4813118650000000	  1.0556791499975784	  0.4960322649927488	  0.5251170464999999	  1.0895220999939594	  1.0912619499939589	  0.5017490999999999	  1.1090774999976583	  1.1346686499976550	  0.6003922000000000	  1.2009841000000001	  1.1259201999999999	  0.6525421500000000	  0.6144726000000000	  0.6073674999999999	  0.2975915449972535	  0.5373600499975153	  1.2141771499894958	  0.5442050499950775	  0.3075325713500000	  1.2639583499942848	  1.2584435499942939	  1.1290813999966360	  1.2801463499985488	  0.6286256500000000	  0.6820559500000000	  1.2962009999985475	  0.6474085500000000	  0.7073633315000000	  0.7054213815000000	  0.5229356035000000	  0.5423218035000000	  0.5007732785000001	  0.5454613309999999	  0.5856920250000001	  0.2529788000000000	  0.6278052200000001	  1.4092830500000000	  0.7212181545000000	  0.3169954099983256	  0.7539137631500000	  1.5551981499923875	  0.2192442475000000	  0.4620226375000000	 16.9208906500000005
  1.7933781150000001	  2.3089128999999997	  1.4060233700000000	  2.5004733200000002	  0.5490196000244946	  2.3745925300000001	  2.3279444000529899	  1.0922110400000000	  1.4255950749999999	  0.5659912500109202	  0.6544756500343258	  2.6338260500615784	  1.3067130000437017	  0.6980380360000000	  1.3782217000171622	  2.7658829500321933	  1.3651437000137536	  0.4875580850000000	  1.3965995000129496	  0.4778553900000000	  1.8066355999999999	  1.4901295850000000	  1.4280455249999999	  1.5651394050000000	  0.6854865500108008	  1.5221041180000001	  3.0774922000289195	  0.6752839549999999	  0.9290970450000000	  0.0928987000000000	  0.8541176000070156	  0.7734354000100900	  0.8541176000037524	  0.3869436750086633	  1.6302576500104267	  0.8169168999999999	  1.6187217000080572	  0.2003101650000000	  0.2887606250000000	  0.8227603500000000	  1.6502865500068509	  1.6304355000079949	  0.8716687500000000	  0.8488717000000000	  0.8486906000000000	  0.2884644350000000	  1.1147844000115747	  0.8541176000320986	  1.7082351500250768	  1.7082351500190969	  0.7893290000259899	  0.8898644980000000	  0.8272659500104265	  1.6686568000187869	  0.8509778000070022	  0.4302372550064784	  0.8132050500064234	  1.7425117000215575	  0.8183107500127300	  0.4515294635000000	  1.8191985000099429	  1.8184057500099433	  1.7048494500087075	  1.8327974000043337	  0.9024523500000000	  0.9742547000000000	  1.8542895000043367	  0.9379769999999999	  0.5828834585000000	  1.1679743499999999	  0.9315331700000000	  0.8911666185000000	  0.9328497649999999	  0.2022247050000000	  0.9230085535000000	  1.0150265999999999	  1.0514512460000001	  0.4544230050043297	  1.0481888870000000	  2.1422556500149343	  0.4240374900000000	  0.6504239545000000	  0.2803803500000000	  0.4554033300026055	  0.4791127900000000	  0.4776885200000000	  0.9674002500000000	  0.4844810950000000	  0.9614559499999999	  0.9620292000045839	  0.4767551050000000	  0.4841226000000000	  0.5140964500000000	  0.5163808000000000	  0.5002159000000000	  0.5024020000000000	  1.0082032999999999	  0.2483754150000000	  0.5097542500000000	  0.5093499500000001	  0.2439661350000000	  1.1215214000074136	  0.5607607000000000	  0.5607607000000000	  0.9300349000054473	  1.1215214000037901	  0.4655552750103044	  0.9747537000060075	  0.9797713500061861	  0.9807372500000000	  0.9738321000046782	  0.1731782050000000	  0.4916705400000000	  0.9907288000036605	  0.4991682600000000	  1.0007300000036656	  0.9888437000046527	  0.5277871500000000	  0.5102003000000001	  0.1768154600000000	  0.2402108650000000	  0.5098707000039866	  0.9655788500073064	  0.5162022000011584	  0.2430187450036104	  1.0708243500054915	  1.0093799500000000	  1.0133404500045753	  1.0785632000000001	  1.0763419999999999	  1.0123744000028996	  1.0660942499999999	  0.4989366350000000	  0.5772536500000000	  0.5764489000000000	  0.5348062000000000	  1.0909363000000001	  1.0895308500000001	  1.0225907500029017	  1.0982297500022944	  1.0818185000000000	  1.1651058999999999	  1.1071307500000001	  0.5241632500000000	  0.5561355000000000	  1.1207232499999999	  0.5691982500000000	  0.7318984000028931	  0.7318984000057864	  0.2803803500069489	  0.5607607000190895	  1.1215214000133653	  1.1215214000047211	  0.2889318670000000	  1.1215214000102198	  0.4830794300154566	  0.5783010505000000	  0.5025386000059692	  1.0203066500107631	  0.5255007000038250	  0.5141302500038528	  0.4894961150037052	  1.0394998000079771	  0.4813118650000000	  1.0556791500024216	  0.4960322650072513	  0.5450956535000000	  1.0895221000060404	  1.0912619500060412	  0.5017490999999999	  1.1090775000023416	  1.1346686500023451	  0.6003922000000000	  1.2009841000000001	  1.1259201999999999	  0.6525421500000000	  0.6144726000000000	  0.6073674999999999	  0.2975915450027465	  0.5373600500024847	  1.2141771500105043	  0.5442050500049225	  0.3130202286500000	  1.2639583500057152	  1.2584435500057061	  1.1290814000033640	  1.2801463500014514	  0.6286256500000000	  0.6820559500000000	  1.2962010000014523	  0.6474085500000000	  0.7564334684999999	  0.7583754184999999	  0.5985857965000000	  0.5791995965000000	  0.5628723215000000	  0.5677533690000000	  0.6259197750000000	  0.2529788000000000	  0.6394159800000000	  1.4092830500000000	  0.7473383455000000	  0.3169954100016744	  0.7601278368500001	  1.5551981500076126	  0.2686880225000000	  0.4790224625000000	 16.2891423500000023
                  0.03645357289810383095
                 -0.46534585450444715393
                  0.54841575622422911174
                 -1.58917868199729195311
                 -0.04521121566230559830
                  0.02175925853639138277
                 -0.47479748462278104082
                  1.23321776599128529739
                  1.30888210400982907267
                 -1.44277821211496437570
                  1.30577473132724830585
                 -0.69460046891294535687
                  0.68219343650501984566
                 -0.49519704958659160887
                  0.44939824388853460979
                  1.78668717371306740027
                  0.07722722943646151417
                 -1.34451724187195553739
                  1.06039653692620960967
                  0.16320102276663334129
                  2.61184276561789330273
                  1.42214739505159948330
                 -0.46892033716249525988
                 -0.47324999739671602672
                 -1.88635563026137886844
                 -2.13729348717398437429
                 -0.24300347172499714432
                 -2.16810269953366052675
                  0.85906983727858965416
                 -0.57356657827388057846
                  0.50326359150899846462
                  0.01804997948283286469
                 -0.19537973944537445625
                  0.85124535115676625008
                 -0.33843774576274371357
                  1.59636065575730401456
                 -2.37665857424991200375
                  0.97822921322023304036
                  1.00501663128481277809
                  2.53526601039825072448
                 -0.98977383207073610372
                  1.96329102070923466883
                  0.09000380548640324330
                  2.09123084682614823748
                  1.51384063092619092217
                 -1.87039973685804006287
                  1.51319379344828264244
                 -0.41679307905822288172
                 -1.11434234457078140679
                  0.86623733385179735311
                 -0.40996893206700579793
                 -0.83246203548859265542
                 -2.59366328211181285113
                 -0.66924003418370958673
                 -1.42423981511085284701
                 -2.09463663085459250723
                  1.23615386573343588594
                  0.85788390189459950985
                 -0.63284292672277575598
                  1.04923984781673595990
                 -0.73788014653411693189
                  1.91315479028950874429
                 -1.25746584396464755606
                 -1.84672594607653994814
                 -1.11362909461293990709
                 -1.18031228097188733983
                  1.15367042774473582689
                 -0.50208145376405000082
                 -1.08213619630640400793
                  0.22048621569527085406
                 -0.16472008063508128406
                  1.61203039726157859590
                 -0.28431019740365048865
                  0.93043818528679667068
                  0.40506970446793105767
                 -0.24157467962513423654
                 -1.72462628756187741352
                  0.38001148680529089896
                 -0.19736612687368629282
                  2.74635859507276247626
                  0.49534576957878184711
                 -0.40849101495111972415
                  1.04950184679179647773
                  0.50475488128483914085
                 -0.30341562947526240501
                  0.06857382048094486093
                  1.58632070014960202542
                  0.92905327122681036212
                 -0.84234006112174164560
                 -0.93169819776290541125
                 -1.38220917334857862357
                  0.60379156572271275305
                  4.43257905843691091263
                 -3.56158281117370778546
                  3.30931524044683289532
                 -2.94889530931137588965
                  0.06142320576696775475
                  0.71300198740809983544
                 -1.46264242532026833565
                  4.85330530330349940726
                  1.27505265602329842523
                 -2.38673751307706494273
                 -2.46786255853232727731
                 -1.87714029184074560064
                 -1.85024191520615377549
                  2.15770965561881533645
                  0.28188966198596221435
                  2.07115934297578307977
                 -1.67840434296818030724
                 -1.11916214118612589168
                 -0.69998245240328449412
                 -1.64769599149294854179
                 -1.17864814029047115795
                  2.12280842765231536617
                  1.56739858124866593414
                 -3.12802399696951161090
                 -1.84779999161494523641
                  2.88593411183598336223
                 -0.16154687045027657510
                  0.11675022413378111086
                  0.26046866056352019347
                  0.77286158169846963517
                  2.25374321089967066811
                 -1.41493209761704918925
                 -1.04812721441229683705
                 -2.18782401710568352726
                 -0.37659902814719431463
                 -1.51140278302445341119
                 -4.10856213069815900951
                  1.75579406271920679394
                  0.03227778430507100699
                  0.82296407815298899813
                  1.12970062742669252742
                  1.29357572959711375482
                 -2.10462481190958339283
                 -1.06297766045666342016
                 -3.13586132890780477922
                  1.10057189417139933418
                  2.53265814383429876955
                  3.68059259539192140664
                 -1.11221927920706886717
                 -1.67490645453680309096
                 -1.75224994889806628962
                 -0.72125400905041170407
                 -0.54150315344346033886
                 -2.65691547726651755568
                 -1.04298981296364234872
                  3.10933258586902017129
                 -3.80865909580045958194
                 -0.83304117034053593027
                  2.38807519949334823295
                 -0.18265853867528697441
                  3.06594482342042740086
                 -1.02333551378201681459
                 -1.27744017699571887903
                 -0.56776235868239632865
                  0.24420821704611117564
                  0.10670741098049275897
                  0.22643047992117865119
                  2.04781034668450168112
                 -1.19577683458076466927
                  1.32050469875765208450
                 -1.16237182843152586642
                 -0.70389177783318124249
                  0.54409238232897405574
                  1.19885930363240222896
                  1.02377629914674472822
                  5.02359031449234816336
                  0.46891126968155721899
                  0.49219668998011600891
                 -1.70484893410427296168
                 -2.10387337893797621291
                 -0.37952910991566085608
                 -1.46431792203286192944
                  1.55362401187452903173
                  1.25882155006524198981
                  2.31049328201264847493
                 -0.09601020494231098101
                  3.17111442886889216553
                 -2.31409986545751289455
                  0.68808156200542358594
                  0.15452350393626684832
                 -0.10731173976053358377
                 -1.61235602326656168870
                  0.95156550840667175617
                 -0.53965996387333348139
                  2.77528040815825649545
                 -0.20195636924372936671
                  1.31697841437497653594
                 -2.81287308424381876648
                  3.37107443681591467666
                 -1.54019420889735414448
                  1.53305951665326700706
                 -0.38821303631649117794
                 -1.07616679223459787984
                  0.78889496577218976014
                 -0.00665984701782046124
                 -1.49822828952240727496
                 -0.27706788586585778811
                 -0.14851050826981457287
                 -1.12289534532608126227
                  1.11269310042488811519
                  0.62363910297675739791
                 -0.35289193817916181262
                 -1.32385873314340840601
                  0.11558957730096874883
                 -0.40120476291081713649
                  0.07519850358345331331
                  1.10963770934212657693
                 -0.25227563379599760029
                  0.04053663977129123158
                  1.79064751600630756023
                 -1.96602977620261443192
                  1.75511614221926115498
                  0.14272871992563748722
                 -0.88714769634748613658
                  1.93785710037086067459
                  1.36247793747518741725
                  0.23215997331837479045
                  1.87800707174411019018
                 -3.51931585334028396161
                 -0.93652473130773872256
                 -3.56293698363514499405
                 -0.15304390337332338112
                 -4.26919022847311779856
                  1.23332894350103217107
                  0.09008439093757321381
                 -0.86027141465626066896
                 -2.32280342572354436825
                  1.87047378894900506729
                 -0.52672913664063492067
                 -2.24038900504613724962
                  2.13760925728542794388
                  2.61924682697279198607
                  0.47468631864329119407
                  0.85775330903587876374
                 -0.40849213032398157264
                 -2.25152907637960808529
                  0.01981937129420235574
                 -0.78643832645228750611
                 -1.39042742259659246606
                 -2.47639397073014411177
                 -1.42593990562119943277
                 -0.50935773225009051135
                 -1.50311591924944343290
                  0.62302453817152492199
                  4.70850306982375244047
                 -0.02187825187496628132
                 -0.30389800078988227217
                  0.60906134449668858366
                  1.03231924772993655104
                  0.62453704637715579118
                 -3.40527623530208378710
                 -0.52096869177933902151
                 -1.14051363953681517138
                 -2.04799452803689252534
                  2.89024328217498061022
                  1.82215504798696947830
                  2.09776560261015632136
                  1.01449730321247022502
                  2.86203821463313134998
                 -1.11503968063885516848
                 -1.08695408200797216658
                 -3.42178885148915323811
                  1.11838362734954688271
                  0.64670924464696744050
                  6.23545919756072386519
                  0.37897933812040118795
                  3.14097857948104186576
                 -0.34173267772229692918
                  3.34852902605444091577
                  2.12296477857042997783
                  3.66072609755168087986
                 -1.47452478887013582742
                  0.08451572837148654815
                 -1.12135386928245428528
                  0.22447206147810624954
                  1.17187886991764234068
                 -1.43947170215046948982
                 -1.85927810479973620872
                  0.39260120655373192955
                 -2.52714033132134696658
                 -0.13882986916894851648
                  3.52812763938228846072
                  1.77877390473618102185
                 -4.54061624920269402139
                 -6.50824194569946179456
                  0.19451172965829041650
                  0.13577192823775791064
                  0.57193116158471934973
                 -1.98905334179919113247
                 -0.74860286483760096754
                  0.53425692679419678477
                  1.72155638552653877937
                 -1.65930129417298877215
                 -3.38740129894393682264
                 -1.07636277164604132750
                 -0.30428582099109491299
                  2.51996383664388501344
                  2.29582898526014345109
                 -0.99414450682743338295
                  0.51487749355629741643
                 -0.39731591492000550847
                 -0.17189089618899833223
                  0.53492730829989365571
                  1.55269737947561892177
                 -5.24838765781782878861
                  0.46276181182550357729
                 -2.21389040875134668340
                 -1.51359605239868311166
                 -0.05406132645854464652
                  0.98994041569141277837
                  0.62046687545043910372
                 -1.10962807722454304127
                  1.55224852895623954829
                 -2.31255324540375628573
                  1.99725936010754812067
                  0.81280094194231145011
                 -1.91497911343822080354
                 -0.17851717809711678542
                  2.85395272786063314285
                  1.26278805258620696605
                 -2.88756560016616825592
                  1.56267786748136860986
                 -1.46979628909512483048
                 -2.13537248184838723830
                 -0.48257568089716207371
                  2.50109402003350034249
                  0.94763335328468911722
                 -0.31778630384463424363
                  4.77512053434399330598
                  0.46796135668257998752
                  1.22557424693625960366
                  3.95710831751735270245
                 -4.08184066538705714322
                  1.82807482291858902634
                 -1.02607578482955608123
                  1.37557690794695020031
                 -1.93969587552987299262
                  1.61393046485224789244
                  1.73757257140415721786
                  4.26814749391877601425
                  1.53356060766591340006
                 -1.85532002481466240518
                  0.60900126253076380944
                  1.73749897161837862924
                 -0.77803861552525699352
                  2.56381649992120363990
                 -1.66873021225397955014
                  0.95148827845779548884
                 -0.64132964431219541268
                  0.42601296773608365864
                 -1.08853183069614267708
                  1.74624891658857639420
                 -3.18623464668894218477
                  3.28434561281471770755
                  0.28125094439306291827
                  3.60127392279530189612
                  2.48743835431820903281
                 -0.51085748104600903208
                 -2.97777909771154503105
                 -0.61946481932927321967
                 -2.48296627925209145715
                  1.60424348915835857099
                  0.73475076553547691294
                 -0.86952575280040655947
                  0.47472014701475623299
                 -2.39263867174904376611
                  1.20078430999464602635
                  0.95837775934562585700
                 -0.61058287756209006503
                 -6.86125712717331204260
                 -0.35830548135077144867
                 -1.00718286888767738496
                 -0.13054857447970286133
                  1.28361424776487176302
                 -0.50778181291208701609
                 -0.17749987341861547807
                  2.84734970054013913909
                 -4.10279788646915477557
                 -1.66814662026446836052
                 -0.09315749307591726647
                 -2.26852109172763194422
                  0.57118903118712216482
                  1.58016626686606209695
                  0.63550845093638230754
                  1.90010145459408374968
                 -1.18492620412318783174
                 -0.12792426146600266446
                 -2.65526254526288507662
                 -0.20141236504691820142
                 -1.43179865096849390227
                 -0.17991974126891152608
                 -4.65582098581679471039
                  0.01256162376377935840
                  0.58169610850531250357
                  2.31244561620360888909
                 -2.02630524439986148266
                  3.74356421233105951529
                 -2.29672955314467497345
                 -1.85959935612620430589
                  0.27694965255844039564
                  1.51456145650966678140
                  1.86798241817847143764
                 -0.31565391369165463065
                  0.00516207734765933030
                  0.34154428656615798410
                  1.03696177879830497837
                 -1.17916340673362451952
                 -1.94004763579122507799
                  3.86309306728888923743
                  1.60025980923995647665
                 -0.30103311743175309445
                 -0.59221012453730892400
                  0.69453436258271694648
                 -0.36194105747990173994
                 -0.99463966314108709366
                  0.10450328670494005157
                 -0.44709991194524395519
                 -0.94062144587846796551
                 -0.76513646917775945955
                 -0.93384577696228321386
                  0.64603958842474507041
                 -1.27529946017548612147
                  0.01264919637273986472
                  0.60319306897123181610
                 -1.74953469289960739097
                  0.83392741399529901614
                  0.94461874425836134250
                  0.87991099277291373593
                  0.82224533854580339476
                  1.70362416798121119044
                  0.02074221374807899698
                  0.88050682034807314924
                  1.81031129523624034761
                  0.22543499990433210622
                  0.08393664786003604550
                  0.55712144310830347127
                  1.36752354988124680268
                  0.48772511537748103327
                 -1.51986090277967278439
                  0.25992351667947816152
                 -1.78150879421619068310
                 -0.72139078068427309187
                  2.11379752158893730041
                 -0.42922149029066863912
                 -0.84395796416426716036
                  3.07894644387590554757
                 -0.47512303165107350189
                 -2.46712030582357844111
                 -0.00325890537577967418
                 -0.59568489553818959603
                 -1.37563123185264335469
                 -1.23752599326248780010
                 -0.48878576004598339733
                 -1.21545329973796012446
                  2.86487834736024771232
                 -0.48015049465400677642
                  2.33262875494106713958
                  1.07826811478823891832
                  1.62156376175929439754
                  0.60735423990311787623
                  1.04574341742420973134
                 -0.42109732600086074994
                 -0.98595658936209895629
                 -0.88152973912759002850
                 -0.47331874176124866249
                 -0.89502114863835591230
                  0.74623407680552811261
                 -0.02770051510464428476
                  2.14753133716884514470
                  0.07497608308749981187
                 -2.38078194638331774868
                 -2.30755354288961322951
                  0.39429321050589072328
                 -0.08155017140455664282
                 -0.03410850860652102357
                 -0.30047463842282151614
                 -1.22888164300634761261
                 -3.18080200242860344773
                 -1.52581594383572705098
                 -1.83204525560422792907
                  1.95780009044169611698
                  0.20161698487616827591
                 -0.79824187083754760685
                 -0.17388737123097591786
                 -0.56793843151735545760
                 -0.23906129118918834076
                  0.87447212308438182493
                  1.16108055360554618396
                 -2.06891620174392709686
                 -0.60133362219272268323
                  2.20576451522615801792
                  2.72328663441021046054
                 -0.12981942885821756706
                  1.79896747806120216318
                 -0.11023505582806947256
                 -0.81880561954097441646
                  2.26190707085084374839
                  2.17518129185839059758
                 -1.28308186396674406282
                  0.97707407281197777849
                 -1.06695368061432982465
                  1.62276437227137271258
                 -0.10040740566835983094
                 -0.04530224447196958687
                 -0.75385539003271329062
                  0.26914879014347953268
                  1.74658633719954647923
                 -3.20542347537908689503
                  1.07157821196905134187
                  0.09615575468330321562
                 -1.10446924669194546098
                  2.76635269251804416513
                  0.54256289947522817751
                  2.09336600484440138459
                  0.46139523025830059266
                 -2.02104679571864087606
                  0.98253638202950466241
                 -1.52804798738596647745
                 -1.02295179852254558561
                 -2.78963383779961393572
                  1.52640965959418783982
                 -2.14090102341963062216
                 -0.34911216324368621322
                  0.47521248868142235144
                  0.51296529462566431423
                 -1.55412376941447294421
                 -2.37455638012461811570
                  3.69083818430223420393
                 -0.36306876010711058855
                  0.95264531825927367681
                  0.25746545560857164725
                  0.15353808878814301231
                 -1.68019760148881203143
                  0.07883178269590655762
                 -0.55622227122080780681
                  1.34405010371864808150
                  0.02386082782458846460
                 -1.27261488283232804264
                  0.01841166146511467525
                 -2.63173520531709881354
                 -0.07603917380475599952
                  0.45893604168122104081
                 -0.90234522742394518424
                  1.99020178809182879398
                 -0.20180448318864360746
                  0.60797061215681336144
                 -3.10220065962528313008
                 -1.54185952832775075017
                  3.07597885949006855100
                  0.40330559701517143534
                 -0.78806357843562957477
                 -0.57796052732709490840
                  0.57646115819803789293
                  1.05467575173370220476
                 -1.23121116298730748362
                 -0.80886989808177889305
                 -0.84374214107882983260
                  0.61898166794782893962
                 -1.05165382818003405596
                  1.27837686549060047803
                 -1.96868681736697381801
                 -0.27699083006505997862
                  0.57943171613646871076
                 -1.29473103506953446384
                  0.53439354945790562557
                  0.61258672781975309629
                 -1.14848221977406517169
                  0.65501354386314725176
                  3.46799488133640920751
                 -0.49790916815132835183
                  0.30516274937528475864
                  1.34589161331588735848
                 -1.33144893046880374854
                 -0.15029648847682797186
                  0.03260014801855772720
                  0.64436336465066790247
                  2.21930954342743635976
                  0.91299106718764966306
                 -1.81055957399298828037
                  1.94474892584428094011
                  1.40242043047912012810
                  1.62206457544624416123
                 -1.69134097187314358379
                 -1.88649039354032077576
                 -0.07467346805330453419
                 -1.45959944942992136951
                  1.20820014352094218246
                  0.46274444636290174016
                  0.00219791218113322929
                  1.00767645741607458909
                  0.95675237393674938957
                  0.45880241977306246426
                 -1.93800065836353940796
                  0.66768252364029778700
                  0.25127727821683248921
                 -1.32451117191145728569
                  1.14186804751323789375
                  0.38549362971903183839
                  4.19667740332639560563
                 -1.14574923971436648529
                  0.70267126446344574386
                 -2.61386967625910804358
                  0.84059643332426414730
                 -4.03836692570011024372
                  1.47175742029707179448
                  0.26386309360468418461
                 -0.12793654826121808599
                  1.05637518347183423373
                 -2.41166831188624541937
                 -0.55385054673401490355
                 -0.41857448870590052703
                  2.51652684185927988381
                  0.52031827980685962931
                  0.85854446973910125696
                  0.03375300823390844224
                 -1.64362996298766916858
                 -0.97628816978029542284
                 -0.12031404626406590197
                 -0.68284896783001602927
                  0.97496589500413544105
                  1.10010561873782308773
                  1.51521695514264420623
                 -0.66145535032621072258
                  2.04013508237936314060
                 -3.19020959118424363155
                 -1.34079201841096251613
                 -0.98802931104820246322
                 -0.47730791643535297464
                  0.56571780999301823911
                 -0.48998530570003784312
                 -1.22648424595655258784
                 -0.74631452768055195346
                  1.06366671391640332800
                 -0.08609136215367632627
                 -1.19708750931297136511
                 -1.12442197321828540879
                  0.64099300169372663838
                  2.62576215007379865085
                  0.92032351652233124195
                 -1.28955901572240105857
                 -3.50105951684834204585
                  3.13984294874409863851
                  0.48953333165136730942
                 -4.72708449750801573686
                 -0.98841263964688885757
                  0.00234477785503318459
                  1.96802832674515770783
                  1.21578020604695713480
                  2.07822323617456516942
                 -0.36753513383757668853
                  0.60567392321419499801
                  0.58848813117198250922
                 -1.21983217813461242152
                 -3.16797832748295293825
                 -0.14310939711002135244
                 -0.90255237023309708988
                 -0.79347490325312686199
                  0.70280001482390330736
                  4.19858080329579319567
                 -0.96339812431399074466
                  1.28110784334247140848
                 -3.56830932216318874595
                  0.30907522136586473849
                  0.43772502518610117983
                 -0.47536175646632217173
                 -2.80613017726365665538
                 -5.00683927520996441274
                 -1.23057423680924760134
                  2.93233850577938381932
                  4.73388398221399242516
                 -0.53727912679556444342
                 -0.24864208035409793296
                  0.99784943493314504082
                  0.66985260776276278616
                 -1.88316121459337937338
                 -0.72869848976161344378
                  2.10675614787956888563
                  0.04440573343169783305
                  5.65374011366924289490
                  2.56884063689537400776
                 -0.18856149791028861684
                  0.88550318378606529546
                  4.32584173705117258635
                  0.56868453220244574720
                  3.67304845870025653554
                 -2.86766143333797529635
                 -1.12159690594298577793
                 -0.97380840289335468540
                  1.72778539076155079890
                  4.19394011568849212068
                 -2.61387697593491274972
                  1.65413592243971829809
                  1.24236615804752692505
                 -4.09138233983735233323
                 -4.50641568420376881221
                  1.29791239179221373767
                  3.25884406236264023704
                  1.26553269330194462228
                  2.12311460232594040320
                 -2.87829259130909820286
                 -4.41202536259129463048
                  1.24418867342828076694
                 -3.11780863984517786491
                 -3.62116421368041763174
                  1.10524349530701315736
                  0.60689981106696355706
                 -0.37719296365805782267
                 -2.27579867277619340982
                  2.33942249565274096312
                 -1.29148574275140259893
                  1.69927018206952018531
                 -4.17674887258726723616
                  0.37142970020517579455
                  0.56083547831979063680
                  1.60841848766331296794
                  0.32947815148986714373
                 -1.83545833002747316165
                  0.15591816553597800943
                  0.15764835359176587737
                  0.40766575380819264351
                  0.43328922894899224438
                  1.61091051297486065330
                 -1.12082468428165493712
                  3.60949048718694065485
                 -0.66141572399727288634
                 -0.61146874891774938288
                 -0.19694070802438470857
                 -1.49158166611547460256
                  0.26276247062554175526
                 -0.76522881950418331076
                 -1.33195471196108639056
                  0.63344384770254058559
                  2.74807149042432907748
                  1.73045990421252815494
                 -4.26320264887692257361
                 -0.71960722760861095537
                 -1.33764660320963657547
                 -0.81862897114130706022
                 -0.46876458478712113020
                 -0.76339693306356926072
                 -0.47720908657340560532
                 -2.12626146617270617156
                  0.91821601957155685181
                  1.01621784176134988265
                  2.29508635850193609684
                  3.80818098446337449658
                  1.30815970429067585101
                  2.45330611460517511446
                  0.33253636012931836463
                  0.33247848237176913511
                  4.79463052683331003578
                  0.24323355799296689228
                  1.54130420576321913728
                  1.48254424652401728402
                  2.27295692347966049596
                 -0.53486566928833467749
                 -4.21548466690369583176
                 -1.25306636882518995790
                  1.87219198947312515102
                 -1.00667132600917641483
                 -0.03503870963535343774
                 -1.31219514125757141798
                  3.50879249831433615014
                 -1.21312323173638181295
                  0.47145163077546287100
                  1.70835873558701867303
                 -0.14055657135541252400
                  1.00799895578325870993
                 -0.01246094623997726428
                  2.25337422875482173978
                  2.23496482044791111576
                  2.26453396038622001285
                 -0.19677192105523008681
                 -2.58774107633534500295
                 -0.78629264085954153618
                 -3.43562776627992150225
                  0.72129651584849718837
                 -1.34304981000970058425
                 -0.84761501363041458212
                  2.51363069587975873631
                 -3.07788058411584275476
                 -0.70333307825445612327
                  0.62545028135432190197
                 -2.56665182253193258077
                 -0.38900628287147553941
                  2.25319657169178544365
                 -0.85136151436114504421
                  5.29183777664477172920
                 -2.99091983452031850987
                 -2.24567912427243498996
                  2.50601784567129337589
                 -1.76935093091624451311
                 -2.49581797934928140137
                 -3.29979662011088681339
                  1.55828262676686946087
                  2.98155243471094921759
                 -1.77959547732872991332
                  1.18194296983226054820
                 -0.06481714857360179605
                 -1.54902551213595307544
                  1.49009200569383648549
                 -2.05396218872403713007
                 -1.19161239599396528988
                 -2.91215024474502426344
                 -0.79147460027223559553
                 -1.29906845597770814749
                 -2.50662559583544863884
                 -4.12806995494493023102
                  1.83096369404091174893
                  0.28470331820849092974
                  0.73013830942299462468
                 -0.99359841422073313932
                 -2.46535368027271539759
                  1.46927484233180583040
                 -0.51975185023202119527
                  2.09010173357696693586
                 -1.76885029361233137024
                  0.92868962103411945019
                 -0.71342220511977882946
                  2.83891088667002566837
                  1.65943798511918938487
                 -2.82554623532551785203
                 -0.70947379392228193673
                  0.35043377440164030778
                  1.83914885920363468941
                  2.53445591204334519375
                  0.06132600456999039162
                  0.63003906507946583204
                 -2.06142745834474672151
                 -1.73351398785184285245
                  0.76639803507016901474
                 -0.06519336785471706308
                  0.71018150491809095559
                  1.38577354665289353974
                 -0.36007721453751512231
                 -2.00619886633222099803
                 -1.41168549496633155549
                  2.43431667229747805692
                 -0.01886776767095502474
                  0.37929386777021512067
                  0.76043008806248024722
                  2.00372545507375532381
                  0.49214560281090508065
                 -0.59591468315182449800
                 -2.70191415112632205009
                 -1.64664875417553235870
                  2.53734400204954280156
                  4.65232044115531095940
                 -2.90886991084869439561
                  0.29477012526576312768
                  0.69120187801963794971
                  0.49964610761460631627
                  1.61944854753136580072
                 -3.31379394211485056587
                 -0.37489390196463573401
                 -3.05235219328427787033
                  4.24883382878440141184
                  1.87160407622981317388
                 -1.03939751733409968537
                  1.64675992296576723106
                  3.28976265598521289135
                  1.75310717142413663439
                  0.18826203496977181318
                  2.26750121405914750738
                  3.01040393588534183067
                 -3.21042200065681493371
                 -0.62057660119023994039
                  0.90962680925032324275
                 -0.96511559385007461564
                  0.11778645225517411776
                  3.97131968252683797971
                 -1.56190783595705084963
                  3.10745021141503618978
                  3.98438575871997358036
                  1.24735131172382840425
                 -1.36151781911915392698
                 -2.86412731052532043563
                  0.46245819331299586885
                 -1.11437800048343116366
                 -2.04411104752312366983
                  1.23506595701850407920
                  0.12431120207383995757
                  1.03218152588698108829
                 -0.56448233657363178217
                 -7.38129845422457808723
                 -5.72727432729159158242
                 -4.68070308207093788155
                  2.12447449682351763300
                 -2.87668507881923796177
                 -0.88196380773265958819
                 -2.19255464220823448329
                 -2.91887816974330061015
                  1.59524811684351730534
                  0.88712086940373102717
                  1.73220610773452055042
                 -4.34211657315055976625
                 -4.86529275017930462610
                  2.89013941327494849887
                 -1.64829542484053326312
                 -0.22449159038235139141
                  3.70917411069308311511
                 -0.13668232477615102627
                 -1.78760575359193474299
                  1.40343018516160711329
                  1.30614975011075573619
                 -0.02657397165950682941
                  3.40598280362026084589
                  1.81825467162829790269
                 -0.22836765510834017290
                  3.75017639231489186002
                  0.22272140966112052851
                 -2.76988949466966261070
                 -3.06903980742030313422
                  1.51344756379046385675
                  0.75244355405250618052
                  3.27464839153095654822
                  1.35801082919508586677
                 -1.05059440826373151623
                 -0.06685532693268782245
                  0.77941340254204072302
                  1.23689792416948929343
                 -1.86506405760322757637
                  1.77384562518326527325
                  0.90314716418078644367
                 -2.72085135192174076835
                  4.97103249109439460085
                 -0.57659772653723417868
                  1.72771640203476439801
                  1.98511347553257500032
                  0.69016841428426245475
                 -1.18261527552300460542
                 -2.54890696508356295880
                  2.69729751911252746410
                  3.40035649075152468512
                 -3.09579075861193819819
                  1.52921510198505972156
                 -3.59228612585487905307
                 -1.95595384805111716098
                 -3.73751278922129381854
                 -2.87463247045355219100
                  4.68254185583439852536
                  0.14850726082243054238
                  0.69645964125876913542
                  2.23308900382226749315
                 -2.88033136537360601181
                 -0.21146290655632896116
                 -1.40670387104663618949
                 -2.59712578186626918963
                 -0.97627091804243382178
                 -3.70625216534147705616
                 -0.89781474067094391156
                 -1.38417999579888606476
                  0.81678660684772774747
                 -1.08753564523832113586
                  1.05023010894997015363
                 -3.46523016837256436773
                 -2.75468483617637005523
                  1.45754267214129495933
                 -2.29385322051390749820
                 -1.20521155586137895810
                 -3.01486456817731385271
                 -2.08428006941647003814
                  1.67236148858900102177
                  3.54673096745944826935
                 -2.65156071123630932007
                  1.06269591438186772336
                  1.30876171223690529466
                 -1.19409569374635027295
                  0.64543432893167840270
                 -2.30803865063810986769
                  4.37432647394503071325
                 -1.75823948401209495529
                 -3.60100225427198905592
                  3.72750508084084808402
                 -4.68228929927795345378
                  0.62078791422598988969
                 -5.95607444464863711175
                 -2.38559296206672488694
                 -4.45662806395390198588
                  0.47302443287885137524
                  4.52735643258419351298
                  2.53500718642589184526
                 -0.34737779023252179922
                  0.73677408465993421416
                 -2.03342888420456446852
                  0.81439569334239936271
                  1.31486915526639336349
                  1.85674428287405013371
                 -1.07315534587481309359
                 -0.46542862776444443584
                  4.83711345701808426156
                 -1.96258789761874252733
                  1.78134621382804159140
                  2.86828835371933399401
                  2.98249735826356410229
                  2.97447855697803653641
                  1.59320188091485448467
                 -4.68300430476395934676
                  4.81173764951156890390
                  0.19772019412931082782
                 -1.96080978488754120725
                  2.29182142576503666831
                 -0.88644460191751217604
                  1.47212513810251466317
                 -1.27376122531229984958
                  0.05709424835715044139
                  1.03634834776605488926
                  4.32621165047691302874
                  1.37485106723857453126
                 -2.83264247448343775559
                 -1.06522810236988507704
                  0.95927723230545691724
                  1.91195897577944196044
                  2.82232960372978469721
                  0.50659959180214730878
                  1.11640670966658284158
                 -0.45722349732949429946
                 -0.64174978252617542740
                  2.50900605124767306364
                  3.74656975489811561175
                 -0.42622453435502444252
                  0.23165136342586883922
                 -2.92076884108233203463
                 -0.40946975701177418250
                 -0.38541134932490872522
                  0.06091034560607895554
                 -0.88593039051795718919
                  1.98850019708796632578
                 -0.03119835936495049186
                 -1.09999393029906733510
                 -0.74625901921608761569
                 -1.75790992873926277262
                 -1.50960722420860116166
                  0.91120735583969536542
                 -0.74967767934501339244
                 -0.62184924450613920932
                 -1.41974455180421132994
                 -1.16450959737353998413
                  1.27768225611679842046
                 -1.04242098650895287371
                  1.04211384573734733294
                 -1.03980111243094253126
                 -0.85118834058433856526
                  0.25483928025065943901
                 -0.00965591413763815069
                  1.24607750974240905073
                 -1.10827214736226986602
                  0.54569298184380443661
                 -0.31511440417254765745
                 -1.25644670165789729133
                 -0.35258066499630325019
                  1.58411301128747261657
                  0.07008965453129754886
                  1.00114350189213241471
                  3.04629850886733466453
                 -0.71124513914965326045
                  2.46771293066013219786
                  0.47779045703001798984
                  1.79880501524762603793
                  0.86148386260332265874
                 -1.63431072724216575054
                  0.73667845660922437467
                 -1.55299938793113190272
                  0.34137286372385916566
                 -0.67084225718738910160
                  0.23907924676551167709
                  0.45765829577327504785
                 -0.06187850763350046662
                  1.49855280272519553186
                  2.20945545739804716234
                 -0.06209239486214554460
                 -0.09603473836002832109
                 -0.18600523721805040100
                 -2.17600728347625516079
                  2.59025095475117872468
                 -1.86625707530727225070
                 -0.18726685042903526424
                  1.47163876716386576859
                 -1.92999203128748986202
                  2.78130586246822852914
                 -0.43073840395511542312
                 -2.11134334595663020195
                  0.32458717331383896143
                  1.30572332971428073378
                  1.06646045440714209995
                 -0.43758418550341793285
                  0.83581562971165801468
                  3.33721748892858594004
                 -0.83862082985814279112
                 -2.08749016659400155049
                  2.22275153316811868720
                 -1.43629888060680843687
                 -1.90515226488633637736
                 -1.08209792163700835310
                  0.06500169007749312389
                 -1.35957322799736668451
                  0.25156619662754126088
                  0.97589666661027640870
                 -0.98501087232707829067
                 -4.07443556376592042056
                  0.28998968133928387791
                 -0.54692191312697091554
                  0.07952825408803226859
                 -1.45433581786287491333
                 -1.24666943435975663412
                 -2.41992124571480804462
                  1.06087121801070272120
                 -0.63217416555578997972
                  3.36391697985808768578
                 -1.82953134819608087547
                 -0.47381062574726073855
                  0.56003264610465819384
                 -0.00670800511455651484
                  0.99161756677594681264
                 -0.32233400218980035046
                  1.35082616524849563611
                 -0.14198278834731264952
                 -0.47832123839247914221
                  2.31302856624204000724
                  2.68087838268228217942
                 -1.72751890341686031860
                 -0.63095085642594028741
                  1.54913284616179658393
                  0.36428446904387479233
                 -1.03543175926621788818
                  0.53813543390057494431
                  0.72567428306352321776
                 -0.58263160242541001121
                 -1.99928480880840364620
                 -0.61330743871271153900
                  1.50260866423407701831
                  0.09848790274722575566
                  2.16448097057477006899
                  1.30019451142567810109
                 -1.78886251928223427576
                  0.74654860782617427084
                  1.66202859392691748575
                 -0.48510254130694663299
                  0.28769162371435874626
                 -0.21380143118427918925
                  0.35078208646497938128
                 -1.96324713766771719037
                 -0.66628733322471711542
                 -3.09241142721642470192
                  0.07850986022241895901
                  1.05097907098894616240
                 -2.62686691498478408491
                 -2.10860875947044368317
                  2.11836080946839144801
                  3.06308396973297991650
                  0.86007498417768057930
                  0.89675643255022619016
                 -0.28964700940687038155
                 -1.20667184565409590924
                 -3.39276423862596621106
                  1.09025521127906710461
                 -2.17839771835621487384
                 -0.20138087983672717241
                 -1.31509753372496396295
                 -1.47773029004398548381
                 -2.41903789430223126189
                 -1.11891443007309621116
                  2.25759991169654794518
                 -0.32541354788443604962
                 -0.03009304211088252926
                 -0.44730150666049539598
                  1.53309393156243367606
                 -1.44952342352945051651
                 -0.78330152833711608196
                  1.68301963832749823524
                 -0.98166211337355169242
                 -1.77358801891102690895
                  2.43628085229637791898
                 -2.71160271037920397319
                 -1.51283528021045365897
                  1.49260859501971387964
                 -1.21610610659107165610
                 -0.49330185195715658963
                  0.18056021110625555814
                  0.62642964985804205913
                  0.32560490238664002716
                 -2.18629201742438272760
                 -0.62631210944074189317
                  0.79078694330069987384
                  0.91556772640231398608
                 -1.95990303438483448595
                  0.44981590237116564346
                  1.03506741045588523953
                 -2.07636324104170322258
                 -2.18764621875305520504
                  0.09485645658940400349
                  0.28515354563423794820
                 -0.57803954272541357984
                  1.38565926606877853899
                  1.84195532389129978945
                  2.38381621368709728515
                  0.64177972389452386803
                  0.50938369561720586720
                  2.24725683389965213976
                  1.35511388652095066121
                  0.52504869934290443467
                  2.67683292606384526380
                  1.84350765303315844434
                 -0.07966356671577380644
                 -2.03618827939173252517
                 -0.57678712323432979048
                 -1.80107671356947829366
                  1.17854321143703155705
                  0.78823909724576946001
                  2.27591707316975710995
                 -1.41388733951212097750
                  2.66365923738623999739
                 -0.25219095350855919024
                 -0.48874191538847233662
                  0.22800234082685241765
                  1.68927944570951038550
                 -0.70727128872534106296
                  0.23557512726692389493
                 -0.06822295370780488699
                  0.28426102621900162237
                 -0.39151917782262296575
                  0.54047449425408922163
                  0.41772188996664311178
                  0.93287394416671487463
                  0.20920646626030725557
                  0.85584938657314502120
                  0.59143415951524469509
                  0.24840736370937696598
                 -0.78064008375246451976
                  0.68849770055406189773
                 -0.99311769856580200955
                 -1.01606553655697640082
                 -0.69771277173458878806
                 -1.71552214632270394468
                  0.51800854957677588963
                  0.56370536601670440113
                 -1.71440035205861662782
                  0.67956683033174847264
                 -0.40141730400569786141
                  0.14806043801973223228
                  0.75370038378272952162
                 -0.27267458606658079301
                 -0.49549452335500876465
                  0.92167892975822685031
                 -1.08526696006578005083
                 -1.33165334291980652637
                  0.63768927785417139908
                 -1.55587896532708902519
                  0.61968029209157593495
                 -0.97567560389123064724
                  0.55075184818152855826
                 -0.57960251776853921601
                 -0.15273685638573461509
                 -0.91533774301988113375
                  0.08990540922887538255
                 -0.52763399894476625818
                 -0.37979487513856663439
                  0.74465531015449804020
                 -3.01715455498501317066
                  0.40109815398442327794
                  0.92884251331047384959
                  1.85224721932158709059
                  0.82007783952780377579
                  2.07719054645383094382
                  2.50887444760978750580
                  0.50698773083852188837
                  1.06466299199522018704
                  0.42680914666742797436
                 -1.91043782100760473064
                 -2.15997925851006922215
                 -0.42917784235463135589
                 -0.96239420014351384491
                  3.16298932372691510295
                  1.49940770815518176207
                  2.97678133104725439750
                  4.09311337621538484655
                 -1.84788849011711131531
                  1.14593496208943235182
                  1.26639735689284949061
                 -2.30712515309387145024
                 -1.56658253823882653855
                  3.81551189370357546338
                 -3.50042258867524047616
                  1.08215756484694081152
                 -1.21779984845895583589
                 -0.12997291662176424509
                  1.70764972347453714008
                  2.24041978295325527881
                  2.11090385528503832191
                 -0.89495123900150852503
                 -1.66697871061275848525
                 -3.07005665707737751546
                  0.53834487850783985241
                  0.16598657402423819263
                 -0.46651035266980250826
                 -0.76686653279685546014
                 -0.23195621462725810047
                 -0.67840275994995713482
                 -0.43076115331486131144
                 -0.57016227005234221270
                 -3.58618458655419658498
                 -2.44873604473812145343
                 -0.06789401270646587550
                 -1.84742565269283343099
                 -1.63198188228259732924
                 -1.83201330106833726319
                  1.81928882432539196223
                  1.15132127151954377631
                  1.50941499173832105463
                 -1.86119939032310566240
                 -3.80532973007259522902
                  0.23560833977075601453
                 -1.34115794194577175880
                 -0.59858133005184110953
                  4.22037301459018365790
                  2.65567729055250012493
                 -1.57783728512211385286
                 -1.30063062063435630478
                  1.22366990660924712664
                 -0.80103536527402618983
                  0.90551006118932975131
                  1.97903897179447962884
                  1.46914573871046072462
                  2.33267128300472093017
                 -0.32523911295211699324
                 -2.18185606662000042277
                  1.13894866879766420986
                  0.43939887562536611432
                  1.76762143467603705105
                  2.22898532981253083562
                  0.37498473370629908930
                 -2.07559809235373693426
                  3.25844103485052061231
                 -1.30742732745219458756
                 -1.84638524192758812781
                 -0.11906869101306889747
                  0.33856777388073772128
                 -0.67637862417720373553
                 -0.39944171289659696766
                 -2.29133536035456364388
                 -1.45195720739724865034
                  1.35821839205356775793
                 -0.95152584941720430578
                  2.88865235083351334922
                 -1.87587114263082521681
                 -4.54918124608138985110
                 -3.79323717157097251018
                  0.67631939364857673880
                 -0.62095242833114683290
                  1.70336396018625335635
                  1.90165454847407611183
                 -1.43491529559327202215
                  0.05041290823717564651
                 -1.73755218221087659458
                 -1.68547371051197658609
                 -0.46953418700016230636
                  1.84583386166502561032
                  2.19963805037863835423
                 -2.83776219761126213825
                 -0.01231416625680416439
                  1.67586045141502282263
                 -0.71404727608202955835
                  0.76241814506036786891
                 -3.45509315581669795847
                  1.72035824753769661655
                 -0.59269559072820443557
                 -3.66781757088605653294
                  0.29561046120134554238
                 -3.74180904971725736274
                 -0.57163917020200427643
                 -1.62800223072915395406
                  2.10310683988862612281
                  1.00212184003524629183
                  0.10993882225382226037
                 -4.51000804342331917951
                 -1.14317551769379344151
                  0.26863677189313828197
                  4.56276360272050673927
                 -1.53453417684924220410
                  3.00371551928271074416
                  1.99865763780973781927
                  1.52619076665541553162
                  1.50112704103346539242
                 -0.78451565598845174332
                  3.10819462111767430557
                  1.63793552816938481342
                 -0.55548333168882657596
                  1.04630213914790437535
                  0.91813442129657074631
                  0.18146732432677883939
                 -0.83612407737811367259
                 -3.02977203955293594717
                 -1.54038375487099243877
                  1.11521508906747635059
                  3.04114745269476882683
                  0.89761069162450790593
                  1.63353764017906266659
                 -0.82956509473374351327
                  0.91021061531422076119
                  0.09060296205364501421
                 -1.25095870921629481742
                 -1.07887084738606331413
                  1.09341501563765675087
                 -0.42233146118655656709
                  0.26724260122584403421
                  1.23259356454690260918
                  1.02776954028856470913
                  2.99910368986648157019
                 -2.23000192485512993557
                  1.01238324521129485767
                  0.75593673175766173955
                 -0.00587512504217450101
                 -0.46561838262891408480
                  1.13657639560777190546
                 -1.53177747283453147276
                  1.24067373894814481083
                 -2.46754257722165704081
                  1.59698084832395981181
                 -0.36424572329640508839
                  0.71043923662511365702
                  1.67499801940811665624
                 -1.16685497685531958112
                 -0.99138163007605617505
                  1.76732879811542620274
                  0.92800204610350700563
                  1.24239824812106136598
                 -0.02083367241800589478
                  1.13689638145620897092
                  0.91497933122362284930
                 -1.74618578415994218922
                 -4.12231745460005338799
                 -0.74190911996297381759
                  0.12592172924097511100
                  1.78328276451598499719
                 -0.27416915937430713646
                  2.11229759965246843834
                 -3.90872345634785522961
                 -1.12589356049504085711
                  0.15072811595961202458
                  2.00584591387264765672
                  0.65744783301560227873
                  1.41930086245553699342
                  0.52770560880719108443
                 -1.13948970799656912334
                  0.10707783526289815779
                 -0.31803107633342425631
                 -1.39813169323126373911
                  0.37418525178808742515
                  0.68660112906734427352
                 -1.08431345241632492993
                 -0.03473446195040237605
                  0.16633458117322932890
                 -1.01277920450167502331
                 -0.85824181894004636373
                 -0.45958041046126402174
                 -0.74581563068941569838
                  1.11449911005671142838
                 -0.93696101421317001812
                  0.81112797734050701148
                 -0.63622939808229117542
                  1.09097870565054844150
                  0.43413818461626846323
                  0.77238277726426263214
                  0.81186011995122087104
                  0.89960124388994244793
                  0.72469809203634327766
                 -0.31422023081206218453
                 -1.98441681207618514371
                  0.29369655662834392995
                 -0.73055031321878749484
                 -0.22956953169229959988
                  0.93365058673203971118
                  3.78415214304632963049
                 -0.89568558057968039599
                  1.03227945336698434531
                 -0.75870388860468451764
                 -2.01457034889316943804
                  1.27219895848722575060
                 -2.26908073908169205524
                  1.20550510101300689669
                  1.11258116355306913015
                  1.44995160387124299994
                 -2.54791126018990476965
                  0.01374655695962257937
                 -0.25721960927148107556
                 -0.70304687829868151017
                 -2.53059261050411832272
                 -0.53992453728078926289
                  0.20818021139460776703
                 -0.33074416556982233484
                 -1.16494291578977926527
                 -0.21651343466267075621
                 -0.76386520299955718016
                  1.67298665637162491393
                  0.87366708430432415966
                 -0.87774700266147043237
                  0.80823144923324297118
                 -0.06061523966074787440
                 -0.50783773201620507898
                  1.77220093108047738184
                  0.00753214356369024882
                  2.98627972693537202531
                  1.00687479904429877386
                  1.19085752483736251328
                  0.80181977726606423751
                 -0.95573384461374644161
                 -1.78013972518778218479
                 -1.05184605335083669608
                  1.40424807624062975009
                  0.81735000272324964676
                 -0.98447717422760527839
                 -1.31955679255016233853
                  0.52730039200557243806
                 -0.04128164378975183318
                  1.80950529160700979148
                  1.78621417942633953224
                 -0.11517447422871565643
                 -1.58024833071452763811
                 -1.94994298799146137391
                  0.48451661210654206613
                 -0.14769485802517531847
                 -1.14445736827179134210
                  0.24412211533964400800
                  0.07757912267767047565
                 -1.43346993175165748902
                 -0.74753319981349264367
                 -1.89915911696764805328
                  0.38506967012789761196
                  1.42336130961108509041
                  0.68856805426989642349
                 -1.53025170673809984834
                  1.38232593065807440880
                  0.82310800521055926815
                 -3.81100175032074606207
                  1.55624504508893468646
                  2.04412272056513444340
                 -0.76239863040843303121
                  0.08264819040358742375
                  0.16396982649663821574
                 -0.17286887283324642306
                 -0.52677646644262021702
                  1.92492832844622863142
                  0.39189745649708751518
                  0.94668511344475914093
                 -0.93747914631365492077
                 -1.42494405741896468243
                 -0.38506258443151508697
                 -0.10386939746812268170
                  1.78854013045053505948
                  1.36026859785572118433
                  2.77009819139718160841
                  1.14488616444078128431
                 -1.94044621003944550708
                  0.63343361150461408027
                  0.28338617665658860645
                  3.30588473770629986959
                 -1.26705835841285519017
                 -0.92889672567979764128
                  0.13925250504954378439
                  0.81203347647710177881
                 -0.60909762939101508294
                 -2.89442570987592340259
                  1.32256670488643557348
                  0.70119762146797792735
                 -0.90465846590408616201
                 -0.06895277190215338969
                  1.48579425723278335525
                 -0.18873753859311348524
                 -1.06117039036848970213
                  0.94143646463276753344
                 -0.21988313907330853114
                  0.15391204065991548333
                 -5.14752242042399110744
                  0.33407738817759069505
                 -1.24442168681927345375
                 -0.32255506133429839855
                 -1.03514347012491869648
                 -0.67915002680506331156
                 -0.18363902215140512353
                  0.09894472054152869678
                 -0.75992451232713187359
                  0.76428175362610695220
                  0.01758298885162232206
                  1.93199926231767493690
                  1.76304615406606379757
                 -0.77945588507613894347
                  1.30188132476839513174
                  0.07962819545844414260
                  1.02700957248019175694
                 -0.41900041034288076913
                  0.09170874532429643122
                 -0.72512347871483617823
                  0.77390085077834636085
                  0.41982803760574416430
                 -1.49995430287531861246
                 -1.03314938448256254944
                  0.11309140266153591692
                 -3.26823011359405946052
                 -1.21800036444337034247
                 -2.16441790583013515814
                 -0.20505423069421804816
                  0.44570830914054904159
                  0.92507314977936327960
                  0.65479081544754580424
                 -0.31981548070186377464
                  1.00040450824748106129
                 -1.38827445983754116376
                  1.06025750087003323152
                 -0.81772000156734958587
                  1.16652009577110948868
                 -0.71547459539319568922
                  0.67470750178162441912
                 -0.81819758868229630622
                  0.03745511563997027532
                 -1.52472935194594305663
                 -0.39159481541087420853
                  0.50385555722088326558
                  0.04652215276858554655
                 -1.09743153355263589610
                  2.29321969156430371939
                  0.64568505034504630746
                  0.33586698875922132990
                 -0.39408099040170208038
                 -1.31920816743804136806
                  0.57802482641902375171
                 -0.57554937405643491477
                  0.61005073182579883095
                 -1.32057491296849294216
                  1.32359840317586274772
                  0.23135015312361742468
                  2.29392395606025356614
                  0.81583198317302019209
                 -0.51392308211127357698
                  0.47806955522657540447
                  0.60914951438760844837
                 -0.36409955612884881138
                 -0.27841058794336265292
                 -1.58587438899132027181
                  0.13246159384106048762
                  1.43947670906568725435
                  1.17611711490880699316
                  0.73916580457113700842
                  0.00755765933322486479
                 -0.15295431574797085927
                 -0.41574760789843417941
                  0.15911023794235737427
                  1.38277757414509405720
                 -0.74980976081707750858
                  0.04629572721082369363
                  0.17077549272500924804
                 -0.62919955824197626448
                  0.80007375822006299160
                 -0.94889099334327520197
                 -0.38911051182357919709
                  0.06556649368980219106
                 -0.00690975688795751608
                 -0.03200775581566075306
                  0.41648973283468293527
                  0.31957382681504320487
                 -1.15094838275726907284
                  1.95006461055224433743
                  0.38845709361266234083
                 -1.63167091312177525708
                  1.01423470818505623292
                 -0.25603055742354230429
                  1.03753204948824695464
                 -0.43782596538163620625
                 -2.41765900865987237722
                  3.34635088875414465903
                  0.39458239056616772888
                  1.85375378143650659801
                 -3.01055746525100875743
                  0.37030659380537112035
                  2.50120491943560541159
                 -0.12490740008579585829
                 -0.08802833449262700838
                 -2.18963336372932326768
                 -1.90369349059586223660
                 -1.26848310648240714116
                  0.26992625559963079329
                 -0.59889888650823164262
                 -0.07138619450573240044
                  0.57893189944671052949
                  1.46327153498563511391
                  2.88142149132256042421
                  0.87214067978527276548
                  0.90305760294437498192
                  0.57642348856100211751
                  2.40226550176970832240
                 -0.10847781626513613995
                  0.72314207202151281617
                 -0.59611960839804978285
                  4.55664752076173584783
                  2.00721562591413604792
                 -0.11294778105651269440
                  1.11372515825247231369
                 -2.39041757315085590108
                  1.13766775675429010484
                 -1.40490153537228512626
                 -2.75590198387554252690
                  0.26288188140498691681
                 -0.58023897382671130174
                  0.83644423529260658601
                 -0.55768752220286288424
                 -1.30686855555343539592
                 -2.17378167441622638378
                  0.08696265004678140065
                  0.75101811754955316580
                 -1.64359697177718722116
                 -0.20139219545423112101
                 -1.49636009920793400241
                 -0.77335444913641260278
                  1.05741455415671570250
                  3.50717959431861148190
                 -0.80904375071438749956
                 -0.97178599503462670395
                 -0.39624240474749428120
                  0.15963645943831591967
                 -0.54098190540558777073
                 -2.09173125657321534732
                 -0.47821985605380451512
                 -0.77152114157436624264
                  0.20866101702625747261
                 -0.10561427572994305790
                 -1.33464853538004257771
                 -0.57336581105941852865
                  0.32166258242066414486
                 -0.41999861399950544349
                  0.48537568783924633919
                 -1.58817573606262385510
                 -1.40485435477200248933
                 -0.08221370814097092583
                  4.88788380617498763314
                 -0.23211017785599771801
                  0.89784004596370903251
                 -0.01608414696082624898
                  6.53601288188883966512
                  3.09921093716223294834
                  1.49262597587342615846
                 -2.49905162705208638840
                  1.67845148777230601667
                 -0.38760757750285951273
                  1.73077729500129184892
                  1.25488731740234005230
                  0.45900919739206796910
                  1.79800819959963065209
                  4.93177814352840204748
                 -1.92531600041315198446
                  0.19232398147510446074
                  0.96751441240367341834
                  0.98602392186440512845
                  0.34386405380928442010
                 -1.83231084933868060283
                 -0.43321666859756002843
                  0.52784522473708783696
                 -0.75950421765222164705
                 -1.32318014174034082053
                 -3.28684928780690244210
                 -0.83623259920497683417
                 -1.83026301217672870969
                 -0.36208898661043270595
                 -3.38466025730542385830
                  0.25202512506113178281
                 -0.39598523947103619891
                 -0.80134196878479824200
                 -1.30486202605320311676
                  1.95774673302040946865
                 -0.87088466807956677052
                 -2.70518398924786662718
                  0.61039900943536418154
                  2.62823991268056689208
                 -1.25507175998872955169
                  3.03942047713811103193
                 -3.61026624106175386686
                  0.22093676621076099864
                 -3.88278473033594595520
                 -1.28294708653984224078
                  1.73096746169236626045
                 -0.04536602991344444724
                 -1.46554934440877393520
                 -2.90873168348207533640
                  0.52455874631138732500
                 -3.84197331558428745168
                 -0.35268189006162076193
                 -2.22040895875724864084
                 -1.15866096874634894043
                  1.60641352813183591053
                  2.67151396972223853510
                 -1.58051273847783790849
                 -2.54836844449581878536
                 -0.42255124672326077606
                  1.25365304003609856487
                  1.13898276310560597757
                  2.25826440892847779551
                  0.58656899122409600356
                  0.08381742990597750020
                  0.09834982382332829731
                 -2.86495017060321233160
                  1.83924014479829445179
                  1.71609895242533716520
                 -1.94847228005250583394
                 -4.35499994636318721319
                 -1.48406155693646923943
                 -0.20579858862185493318
                 -2.42280730838981872566
                 -0.03506647599862739578
                 -0.37745873416102460052
                 -2.51352722365874736710
                  0.51923700013221230076
                  0.51504535303795262458
                  0.37797661806375387750
                 -2.11701409624635772389
                  2.17781235215245816406
                  1.06515122865685696318
                  3.96006286452188138725
                  1.64858661309004994600
                 -2.46039170014759145388
                  0.01126690452947734164
                 -1.33743029470546792581
                 -1.88435578347550114486
                  0.49653995657041194445
                 -2.98379270971199694884
                 -0.72178134549245676066
                  0.65145410512158052896
                  0.63521473738178124702
                  0.80538066335122193706
                 -1.73558599946609737330
                 -1.18607975064715276403
                 -2.78039448158572044534
                  1.72815355637718148785
                  1.93287073738080850127
                 -0.59368058941534351813
                 -2.20053062932580134614
                 -0.23611530403456995608
                  1.59834942429004134290
                  1.54601946524886790790
                 -2.73531470983246594031
                 -0.92991096674745854500
                  2.11766703610814710501
                  0.91492590860719014145
                 -2.80019592820854379411
                  2.73116713183479031812
                 -0.17456923452418798837
                  2.88840245830549502415
                  4.58590777539142013808
                  2.41697534129159219418
                  2.89681586136050661651
                 -0.07409073349166989120
                  2.00605843223266866460
                  0.53309212140339301556
                  0.61064466454741084256
                  3.90230579458119830605
                 -0.18324556864566329817
                 -0.11692284015088477700
                  1.38373972896919861242
                 -0.79592296388849093081
                  0.67856439602438867187
                 -0.77035772526233425861
                 -2.50576985609912172848
                 -1.06599688494994881971
                 -0.17159938408447639180
                  0.83368653622632649114
                 -0.79892703087963956587
                 -0.05342557266726624676
                 -0.31324689886832279839
                 -1.66380982554052825328
                 -1.53588476723842348726
                  1.68700132662540847051
                  1.27280636484445808243
                  0.53142314608232610329
                 -2.97431817923154317995
                  0.19608541788588648713
                  2.46741812226524137586
                  0.81032997200076883892
                 -3.06691570429242954532
                  0.06495486034294388478
                  1.49645107531507504106
                  0.79557482263293810565
                 -2.67022375672555201120
                 -4.40718052231981882727
                  0.05781192803311154677
                  3.48819870827909417343
                  1.54963494767636333904
                 -0.37456986824668608849
                 -1.94809524107003362303
                  1.77769265490637606852
                  3.41278765213996493344
                  1.99008935178804802213
                 -1.11429313825132481064
                 -0.39485328327081442579
                  0.43538649488440034352
                 -0.40652102003250456530
                  0.68986669940695000136
                  1.35224147887050305528
                  1.03461706547886378438
                 -0.44553626921467442967
                  4.66502636624763056261
                  0.68462850521498674894
                  2.12214523574638125325
                  2.89742983860973746246
                  1.55993199175528340916
                  2.47850006933129529685
                 -1.39709493300076603717
                 -2.66440515926326293439
                  1.20025230787690184719
                  1.08978266638672782740
                 -0.83539473889916826543
                 -3.02174351242051031363
                  0.68147298555013013921
                 -1.05131218738227305565
                  1.99594354990424616147
                 -1.19249917314752584829
                 -4.41909657520459031588
                 -2.09547522676465147740
                 -2.31184697424708218705
                 -0.58266024058857046608
                  0.21870533536364508698
                 -0.97388039880011101346
                 -2.98371056247397348216
                 -1.05581450294193834871
                 -0.23508104855805919686
                 -3.27707780530877679226
                 -0.53237250233850363923
                 -3.13152008292415473534
                  2.54389083021590467482
                  0.82290075590288824792
                 -2.15946679906121286052
                  1.55549959802148540788
                 -0.75528777831742099913
                  1.05119600202295737645
                  4.20101472896821626080
                 -0.17416378226528256290
                  2.47527157523996343969
                 -1.68457456691856388709
                  0.29930893757366011654
                  3.19092339874071573291
                  3.21855611068402414077
                  1.10044303894717576675
                 -0.62567184289580868306
                 -1.18859403166883037528
                 -1.35011869621325164559
                 -3.04222594602710572076
                 -0.45584611929716700729
                 -0.99313018454777146626
                  1.13047016583005555113
                 -0.74516353210283803321
                 -1.21092063959072415713
                  2.37043041048036728924
                 -1.77622602303806287338
                 -1.80966880714497513338
                  2.71906067230213377428
                 -0.64792135373526393849
                  0.98733982839328104930
                  2.93562023366546087644
                 -1.00262310969307733011
                 -0.10273241804238691932
                 -1.68344356787612658977
                  0.05560507192366029999
                  0.68328192965433753869
                  1.59760629486860228354
                  1.44352288723873933840
                  1.62628234456456133294
                  0.13839033620349844300
                  2.34032602136167700024
                 -2.16450594515891037162
                 -0.95169146055494413527
                  2.56638176851292465486
                  0.10605030524849942686
                  0.24692923848118866759
                 -1.47491968680437768313
                  4.12075370845478161641
                 -3.90880666757213779405
                 -0.25518554286452038715
                  0.47626599887715026505
                 -1.06905630933948225803
                  0.59037149214698803057
                 -1.08907447762743436748
                  1.81242693709269531155
                 -0.62722215191162478121
                 -0.21100201042896876702
                 -1.07797513217581975020
                 -1.82428820621123333190
                  0.51322212145017254148
                 -0.00259323683454250461
                 -3.51313297199506902047
                 -0.89823901799719896299
                 -1.22017346659972547585
                  0.36967545787518707456
                  0.91675415807791715839
                 -2.80761020173443043291
                 -1.04973791234839985975
                 -0.02485188367769349677
                 -0.13440208656161306555
                  0.48432721373479858951
                  0.78888488406930989960
                 -1.82015638387508160712
                 -1.41167299202705609495
                 -2.16877397612816480432
                 -0.09752532337807806595
                  1.03081886960373658724
                 -1.86289783639423944805
                 -3.09326889340722788191
                 -0.14075261724194776392
                  1.38021386495235232061
                 -0.63776567881514933944
                  0.37237887602927755015
                  0.21997775144583708862
                 -0.71621751847639236743
                 -0.11784112024762818938
                  1.05261702157649650324
                 -0.25148030263018483765
                 -0.85094431817692239850
                 -4.30711797805717910848
                 -0.92917456393201713905
                 -2.46427178892805498478
                  2.78855886059279978184
                 -0.62823580277373347602
                 -2.64082484624391877759
                  0.77143805611445959158
                  2.11604843280467225242
                 -0.04584525166072775382
                  0.68980048788193915055
                  1.17639534387273680949
                  0.45280905385035696842
                  1.76205084499041686463
                 -2.89643169445422676844
                  2.15474424228611294296
                  8.27064181283155086533
                  2.17205908252916435330
                  1.70089051562418225316
                  0.64127243468756589539
                 -0.34758383838379447450
                  0.93695749632872937784
                 -0.82713867855190759126
                 -1.50604147915560959703
                 -0.10511541850861370884
                  1.39878337310532074866
                  0.63973239609083099033
                 -0.53523025418224878802
                  1.55773563276500692787
                 -0.95856646566984549107
                  2.56935926271655379338
                  0.20105049270721114807
                 -0.59402542188247464683
                  0.29460852600067188867
                  0.84348293321792155997
                 -1.11998291037094155342
                  1.20064653039433744119
                  0.35809458840875729724
                  1.29954406758731821903
                  2.50922423291877283447
                  0.10433547408019060165
                  0.29878505817620543139
                 -2.11325598547574422525
                  0.71529667864804857835
                 -1.78116099987897413826
                  0.33063177619894440484
                 -0.12847482238640214880
                 -1.21775978564906828261
                 -1.01824902592462929185
                 -3.11018195114407225432
                 -1.24647133131119347560
                  0.51437060376849252918
                  1.09802301073540986565
                 -1.34668292522340893314
                 -0.07462069159738807245
                  2.31827211624050333327
                  0.20987289674352077595
                 -0.82280847355396902199
                  0.59542966544742292889
                  0.25308583026641751079
                  1.95520944744253011294
                  1.86055400781166047075
                 -1.38441323974998331536
                 -1.41989569194701226174
                 -0.13334759052720801531
                 -0.59487336045016703245
                  0.26808774881382224642
                  1.11343776985353737352
                 -1.74494258240031574481
                  0.39596098593140161004
                 -1.89702651478610961888
                  0.92458811703202292698
                  0.78129936371946873130
                 -1.48963598300493238469
                 -1.82665388519315241567
                  0.96300487016038438526
                  0.27933907068651553374
                  0.27549158336695317439
                 -0.20725700186224113586
                  0.24964092908603097154
                 -2.75570229679306066828
                 -1.93453544691825096713
                  3.04263574190526187024
                  1.86432423586261797332
                  1.91166970254095658355
                  2.02943432093947873085
                  1.30733711103899574724
                  0.46784539677880765396
                 -0.31700760046543896564
                 -0.54615331654888865653
                 -2.89599989960576831294
                  2.06548724734307498352
                 -0.81800198523064848732
                 -1.10053602105544823253
                  0.27613642501453811162
                  0.77624616831497372793
                  1.92438828979685339071
                 -0.33418314975391794075
                  1.86472273694064138994
                 -4.27632772001080763147
                  0.54454554891051321075
                 -0.73020219471844505232
                 -0.90233175946562482750
                 -0.45582569432772712670
                 -4.06217319467680670897
                 -2.73467681684697216937
                 -0.68512476141022560228
                  1.53671031503191191092
                 -0.58358284979698027417
                 -2.58234605375017656215
                  1.12316300937439295105
                 -1.86086094446450056594
                 -0.71882973160410801317
                  0.38878202696780639336
                  0.31557161041022296910
                 -0.44698341552948406274
                  1.96957900352705883584
                 -1.37523720900317170113
                  0.47330784541400128251
                  0.47362020086253897588
                  4.83383195966154310952
                  1.23619716639980192774
                  1.07573182219061114218
                 -2.03040797761783409214
                 -0.70172154142484666206
                 -0.22640039251818805388
                  1.32618498630222392265
                  0.29591755262283570005
                  1.65166079740186355629
                  1.65859892439410883114
                 -0.68892473154220001952
                 -0.68189383785784385417
                  0.65358844027069273874
                  3.01676986227655330453
                  2.82339214234045554619
                 -0.72059841229895038595
                 -0.59861113916719776995
                 -2.35865708270320473261
                 -4.33251731494993386207
                 -1.35463763839584494519
                 -1.82351630739308445683
                 -1.95018768241003126462
                 -1.74621050184818216167
                  4.12678109612470311873
                 -3.01595070122096897691
                 -0.24424124254875859141
                  0.37509476476263053923
                 -3.04435150389457609421
                  2.77533233440785176427
                  4.03470663306856192065
                 -1.44167311975299328175
                  2.71373773899401982135
                 -0.48757427042855827626
                  1.73479848136010206261
                  0.64696987948391759815
                 -3.19444798288590758872
                 -3.90205630070348430394
                 -1.44273221212200608576
                 -1.72479081791619948127
                 -1.18434072640344978389
                  1.03812343357493119811
                  0.90404772931340704467
                  0.70625395790480083313
                  0.09960482901849219972
                  0.12002951899034194905
                  0.13235209887449519983
                  4.58459222716450742752
                 -0.89858569665072118848
                 -1.75283637927691460234
                  2.68548404898672155028
                 -1.70078539873940837168
                 -1.28953359479537232879
                 -0.16302231566460745338
                 -4.53093566655856871961
                  0.94846223078398506079
                 -1.63566609463082168752
                  3.33349954050871444267
                  3.23456495094449802963
                  0.46317785277229273078
                  0.31141040553046267503
                  2.67456253325964521395
                  1.53250417597351473731
                 -1.90359758442152871005
                  0.75040114449288131127
                  1.56495458124896025254
                 -2.15094745897399874934
                  3.13614488854104855875
                  1.77792072581849835977
                 -0.55618427088172217587
                  2.71954070655127289058
                  2.54109590861475131973
                 -1.79871854527556851444
                  1.06337650043126674682
                  0.34643369098073428791
                 -1.80744428796912326440
                 -1.02851411896131428314
                  4.50887088550503811746
                 -1.51916329187893550667
                  1.87842606179803373045
                 -1.39119650351757484508
                  1.42421782457439327629
                  1.13733407385270313128
                 -4.71044383517048004251
                 -0.28525986454831697703
                 -2.20179668674417916563
                  2.84910929175100591237
                  1.77131085974111357473
                  2.17042197926948343678
                  0.98630389777971838594
                 -0.41106209250192959903
                  0.62913124468314229887
