
                 -1.03552047885336495625
                 -0.03021244448118814291
                 -0.88119353367382668996
                  0.07870085485732580821
                  0.55452317181278165670
                  4.03555240643142987267
                 -3.72673483927600468490
                  2.35420942296746948941
                  3.81027216643535782126
                 -3.55363719216896667419
                 -0.10262087860466106992
                 -1.85778340826469512415
                 -4.24277549809233711642
                 -2.87075306949548103574
                  0.14366454767167485818
                  2.77166156496063731396
                  2.91867944014099567340
                  3.16592619209585235396
                 -0.49239648963166804396
                 -2.11340113999748258067
                 -0.30401115112025145493
                  2.88549073082334217588
                 -0.15258802093676770983
                 -2.22816126270184566849
                 -6.16402378910366799403
                  0.47553797063943120671
                 -0.81592387345616412819
                  0.09130434289125516356
                  0.71288702645174661932
                 -0.35096300167368432721
                 -0.80606224355335198695
                  2.48841805140031802068
                 -0.47712508147416965443
                 -0.84556922238888443388
                  0.82479622334418756235
                  1.70702122335682160426
                  0.07456067054559871454
                 -0.21887438397900771392
                  1.04554824033761506463
                 -0.44377486936784688032
                 -2.30076610902832179306
                  1.31379362705082192164
                 -0.99087619620471767412
                 -0.84224213257938740362
                 -1.15052325935234511789
                 -1.21423885471550963011
                  1.26694374722993319260
                 -0.74085630953322867409
                 -0.51409360482438337669
                  1.14494527579792571004
                 -0.58131776536838664082
                 -0.19674482069180423971
                  0.68929837192520226896
                  0.41482372398515088285
                  0.06456771907170566482
                  0.92237824779415122922
                 -3.44629914408423321248
                 -0.57471973183480495884
                  1.08684178015552457275
                  0.16707862893292557693
                 -1.82114589637831336688
                  0.67971351930560641730
                 -0.85706775431660287001
                 -1.00503679573880622122
                  0.46035691799415673353
                  0.19955834577055062140
                 -0.05716504518566443982
                  0.87635329510034976064
                  0.11273981262730858877
                  0.42092988382608531595
                  2.52099109975719803955
                  0.30289315040798320267
                 -0.31954059327671441304
                  1.99099562897091186819
                 -1.15094302460645869779
                  2.22315102501482098063
                  2.84255825950377349898
                  0.25315233475105397565
                  0.42306121940283486493
                  0.77937054167361907719
                 -1.22862469328062084983
                 -0.30468699280748451352
                  0.47926680769795804160
                  1.64315659220260412710
                 -0.55384178287863194967
                 -2.01172920253184939199
                  1.23611021396446596476
                  0.22911293228453996629
                 -0.14619550329822719736
                  1.15948562133797405949
                 -1.02269513458258698435
                 -1.60544089775313758572
                  0.52784807332926464429
                 -1.93922467199002235283
                 -1.23948336605941533684
                 -4.44656159149729113267
                 -0.82343743472479724588
                  3.96737373224791989301
                 -1.77542734247599209851
                 -1.40673161794612333608
                 -1.83614637420158133274
                  1.05756588379955185353
                  0.81270023143668845833
                  1.21343625670829191598
                  2.69535897642254695938
                 -1.14708013224532923147
