8-7
                  2.04375677712522740848
                 -0.50446279967551255208
                 -0.94420331515818878287
                 -2.14532647684812349809
                 -0.01547771968130076670
                 -1.35871056750824736881
                  3.88462575699984524746
                  3.29848063940700519936
                 -3.45241574473987222760
                  3.19030434567161780279
                 -1.15924011898229561979
                  2.75462991377181998232
                  3.10869994095768475972
                 -1.85750970855520280978
                 -3.59468169293868866632
                 -2.61016410211587635004
                  4.73695483727458643841
                  1.40840308647573952960
                  1.82156383536329524730
                 -1.91155982217197739637
                 -1.52186807693686354526
                 -0.43206483788891186792
                  2.44686033692076376767
                 -1.09736527494842617259
                 -3.85804600468934610902
                  0.57432433215625933176
                 -0.38763742875106588226
                  2.45082842746482176821
                  2.01170474347884642441
                 -0.67509107544130009249
                 -0.19156797652079671224
                  2.24086927949420955386
                 -0.48656649482412667185
                 -0.95650589119152462647
                  0.02424436671765655554
                 -2.61470609488878880100
                 -1.19848574122568396483
                 -1.42290152608594921979
                  0.28536586140556796654
                 -5.06535263018058401485
                 -0.47541406711821471154
                  0.54980742868698639914
                 -0.56570666973883443340
                  1.38879441781407120260
                  1.00780892493110441066
                 -3.98635218039751260122
                 -1.30301613224091727972
                  0.24448985785664950621
                  3.04576321205902500466
                 -0.41132384126370397093
                 -0.05214270332134433167
                 -2.72835965919952627701
                 -0.47715448147239769572
                  0.56996783876538748004
                 -1.16513975065849573198
                  0.55854297251444229300
                  0.27287454156037088682
                 -0.38676367244033676984
                 -1.09332027701707978906
                  0.76920321194048701940
                 -0.78286977699230186900
                  0.49997828249020603852
                 -2.34874014405357600666
                 -1.02943708674690315164
                 -5.06794531022193961434
                  0.27229222889539034247
                 -1.34441514536993067530
                  0.62488165080427493514
                  0.70161151716539160716
                  2.17749201904842237809
                 -1.30811329949233190462
                 -1.48142278231016311096
                  1.71907642734103882631
                  1.53689517059691826972
                  2.14186119763686244610
                  0.16642362246276595772
                  1.28192065653364117850
                 -1.54673748778661224179
                 -3.48504336038341699933
                  2.12341828150653100238
                  1.43797492464694243175
                  2.21309020564258807084
                  0.13031161606334248915
                  0.80147134859381297112
                 -1.49610842842276103859
                  2.21008351241085332362
                 -2.09871535201422476646
                  1.32501924676983962037
                  4.71805143343404775891
                 -0.82998145741269024889
                  2.83747594406508163445
                  3.09725282627037890038
                  1.69723702776304752327
                 -2.74321106706798190089
                 -2.76215835695277123207
                 -2.60315236467785426910
                 -3.19977818673160951946
                 -3.04800637809057084482
                 -3.09628161038211402456
                  3.28619390607221273370
                  3.18826300630539893888
                  3.29044791590466223496
                  1.24891705332321789612
                 -5.30972886171976465874
                 -3.39049587061881885219
                  2.00082817780222477211
